{"learner":{"attributes":{"scikit_learn":"{\"_estimator_type\": \"classifier\"}"},"feature_names":["Trailing_Team","Leading_Team","Trailing_Odds","Leading_Odds","Is_Trailing_Team_Home","Deficit","Odds_Diff"],"feature_types":["c","c","float","float","int","float","float"],"gradient_booster":{"model":{"cats":{"enc":[{"offsets":[0,7,18,28,37,46,52,63,71,78,85,93,100,114,119,126,132,144,148,153,162,171,179,189,202,211,218,228,231,238,254,265,270,280,287,296,303,312,320,325,331],"values":[65,114,115,101,110,97,108,65,115,116,111,110,32,86,105,108,108,97,66,105,114,109,105,110,103,104,97,109,66,108,97,99,107,98,117,114,110,66,108,97,99,107,112,111,111,108,66,111,108,116,111,110,66,111,117,114,110,101,109,111,117,116,104,66,114,105,103,104,116,111,110,66,117,114,110,108,101,121,67,97,114,100,105,102,102,67,104,97,114,108,116,111,110,67,104,101,108,115,101,97,67,114,121,115,116,97,108,32,80,97,108,97,99,101,68,101,114,98,121,69,118,101,114,116,111,110,70,117,108,104,97,109,72,117,100,100,101,114,115,102,105,101,108,100,72,117,108,108,76,101,101,100,115,76,101,105,99,101,115,116,101,114,76,105,118,101,114,112,111,111,108,77,97,110,32,67,105,116,121,77,97,110,32,85,110,105,116,101,100,77,105,100,100,108,101,115,98,114,111,117,103,104,78,101,119,99,97,115,116,108,101,78,111,114,119,105,99,104,80,111,114,116,115,109,111,117,116,104,81,80,82,82,101,97,100,105,110,103,83,104,101,102,102,105,101,108,100,32,85,110,105,116,101,100,83,111,117,116,104,97,109,112,116,111,110,83,116,111,107,101,83,117,110,100,101,114,108,97,110,100,83,119,97,110,115,101,97,84,111,116,116,101,110,104,97,109,87,97,116,102,111,114,100,87,101,115,116,32,66,114,111,109,87,101,115,116,32,72,97,109,87,105,103,97,110,87,111,108,118,101,115]},{"offsets":[0,7,18,28,37,46,52,63,71,78,85,93,100,114,119,126,132,144,148,153,162,171,179,189,202,211,218,228,231,238,254,265,270,280,287,296,303,312,320,325,331],"values":[65,114,115,101,110,97,108,65,115,116,111,110,32,86,105,108,108,97,66,105,114,109,105,110,103,104,97,109,66,108,97,99,107,98,117,114,110,66,108,97,99,107,112,111,111,108,66,111,108,116,111,110,66,111,117,114,110,101,109,111,117,116,104,66,114,105,103,104,116,111,110,66,117,114,110,108,101,121,67,97,114,100,105,102,102,67,104,97,114,108,116,111,110,67,104,101,108,115,101,97,67,114,121,115,116,97,108,32,80,97,108,97,99,101,68,101,114,98,121,69,118,101,114,116,111,110,70,117,108,104,97,109,72,117,100,100,101,114,115,102,105,101,108,100,72,117,108,108,76,101,101,100,115,76,101,105,99,101,115,116,101,114,76,105,118,101,114,112,111,111,108,77,97,110,32,67,105,116,121,77,97,110,32,85,110,105,116,101,100,77,105,100,100,108,101,115,98,114,111,117,103,104,78,101,119,99,97,115,116,108,101,78,111,114,119,105,99,104,80,111,114,116,115,109,111,117,116,104,81,80,82,82,101,97,100,105,110,103,83,104,101,102,102,105,101,108,100,32,85,110,105,116,101,100,83,111,117,116,104,97,109,112,116,111,110,83,116,111,107,101,83,117,110,100,101,114,108,97,110,100,83,119,97,110,115,101,97,84,111,116,116,101,110,104,97,109,87,97,116,102,111,114,100,87,101,115,116,32,66,114,111,109,87,101,115,116,32,72,97,109,87,105,103,97,110,87,111,108,118,101,115]},{"offsets":[],"values":[]},{"offsets":[],"values":[]},{"offsets":[],"values":[]},{"offsets":[],"values":[]},{"offsets":[],"values":[]}],"feature_segments":[0,40,80,80,80,80,80,80],"sorted_idx":[0,1,2,3,4,5,6,7,8,9,10,11,12,13,14,15,16,17,18,19,20,21,22,23,24,25,26,27,28,29,30,31,32,33,34,35,36,37,38,39,0,1,2,3,4,5,6,7,8,9,10,11,12,13,14,15,16,17,18,19,20,21,22,23,24,25,26,27,28,29,30,31,32,33,34,35,36,37,38,39]},"gbtree_model_param":{"num_parallel_tree":"1","num_trees":"100"},"iteration_indptr":[0,1,2,3,4,5,6,7,8,9,10,11,12,13,14,15,16,17,18,19,20,21,22,23,24,25,26,27,28,29,30,31,32,33,34,35,36,37,38,39,40,41,42,43,44,45,46,47,48,49,50,51,52,53,54,55,56,57,58,59,60,61,62,63,64,65,66,67,68,69,70,71,72,73,74,75,76,77,78,79,80,81,82,83,84,85,86,87,88,89,90,91,92,93,94,95,96,97,98,99,100],"tree_info":[0,0,0,0,0,0,0,0,0,0,0,0,0,0,0,0,0,0,0,0,0,0,0,0,0,0,0,0,0,0,0,0,0,0,0,0,0,0,0,0,0,0,0,0,0,0,0,0,0,0,0,0,0,0,0,0,0,0,0,0,0,0,0,0,0,0,0,0,0,0,0,0,0,0,0,0,0,0,0,0,0,0,0,0,0,0,0,0,0,0,0,0,0,0,0,0,0,0,0,0],"trees":[{"base_weights":[2.4293622E-2,-1.7736022E0,3.634068E-1,-5.373239E-1,-1.32973E-1,5.3926724E-1,-9.552578E-1,-5.4048747E-2,1.6458942E-2,3.641642E-2,-7.6822015E-3,1.3420562E-3,-1.3625553E-1],"categories":[1,2,3,5,7,8,9,10,12,13,14,15,16,19,21,25,26,27,28,29,30,31,32,35,36,39,1,2,4,5,7,13,16,17,18,23,24,27,30,32,33,35,36,38,1,3,5,8,11,12,14,17,19,21,23,25,27,31,32,33,34,35,36,37],"categories_nodes":[1,5,6],"categories_segments":[0,26,44],"categories_sizes":[26,18,20],"default_left":[0,1,0,0,0,1,1,0,0,0,0,0,0],"id":0,"left_children":[1,3,5,7,-1,9,11,-1,-1,-1,-1,-1,-1],"loss_changes":[1.1349645E3,3.092483E2,3.682035E2,6.755515E1,0E0,1.8291422E2,3.2720502E2,0E0,0E0,0E0,0E0,0E0,0E0],"parents":[2147483647,0,0,1,1,2,2,3,3,5,5,6,6],"right_children":[2,4,6,8,-1,10,12,-1,-1,-1,-1,-1,-1],"split_conditions":[1.75E0,1E-45,2E0,1.62E0,-1.32973E-1,1E-45,1E-45,-5.4048747E-2,1.6458942E-2,3.641642E-2,-7.6822015E-3,1.3420562E-3,-1.3625553E-1],"split_indices":[3,0,5,3,0,0,0,0,0,0,0,0,0],"split_type":[0,1,0,0,0,1,1,0,0,0,0,0,0],"sum_hessian":[1.8409716E3,2.854236E2,1.555548E3,1.258527E2,1.595709E2,1.3777219E3,1.7782599E2,7.5812294E1,5.0040405E1,1.0819895E3,2.9573236E2,1.2069832E2,5.7127674E1],"tree_param":{"num_deleted":"0","num_feature":"7","num_nodes":"13","size_leaf_vector":"1"}},{"base_weights":[1.756214E-2,2.812764E-1,-1.588005E0,4.2823339E-1,-1.5282364E0,1.7852966E-1,-2.3587604E0,3.4058902E-2,-1.659534E-2,3.2048833E-2,-1.3084927E-1,3.9924916E-2,-9.191273E-2,-1.7856723E-2,-1.3115455E-1],"categories":[1,2,3,4,5,6,7,8,9,10,11,12,13,14,15,16,17,19,21,23,24,25,26,27,28,29,30,31,32,33,35,36,37,39,1,2,4,5,7,8,12,13,14,16,18,23,24,30,32,33,35,38,0,1,2,3,4,5,6,7,8,9,10,11,12,13,14,15,16,17,18,19,20,21,22,25,26,27,28,29,30,31,32,33,34,35,36,37,38,1,2,3,6,7,8,9,10,11,12,13,14,15,16,17,18,19,20,22,23,25,26,27,28,29,30,31,32,33,35,36,38,39,0,1,3,5,6,8,11,12,14,15,19,20,21,22,23,24,26,31,32,33,34,35,36,37,38,39],"categories_nodes":[2,3,4,5,6],"categories_segments":[0,34,52,89,122],"categories_sizes":[34,18,37,33,26],"default_left":[0,0,1,1,1,1,1,0,0,0,0,0,0,0,0],"id":1,"left_children":[1,3,5,7,9,11,13,-1,-1,-1,-1,-1,-1,-1,-1],"loss_changes":[7.934987E2,4.3443927E2,3.642163E2,2.899122E2,3.0739505E2,1.26727974E2,8.8402954E1,0E0,0E0,0E0,0E0,0E0,0E0,0E0,0E0],"parents":[2147483647,0,0,1,1,2,2,3,3,4,4,5,5,6,6],"right_children":[2,4,6,8,10,12,14,-1,-1,-1,-1,-1,-1,-1,-1],"split_conditions":[2E0,7.5E0,1E-45,1E-45,1E-45,1E-45,1E-45,3.4058902E-2,-1.659534E-2,3.2048833E-2,-1.3084927E-1,3.9924916E-2,-9.191273E-2,-1.7856723E-2,-1.3115455E-1],"split_indices":[5,2,0,0,0,1,1,0,0,0,0,0,0,0,0],"split_type":[0,0,1,1,1,1,1,0,0,0,0,0,0,0,0],"sum_hessian":[1.8535134E3,1.5991082E3,2.5440527E2,1.4860538E3,1.1305428E2,7.961506E1,1.7479022E2,1.1157988E3,3.7025507E2,3.9154984E1,7.38993E1,6.551591E1,1.4099151E1,2.3132425E1,1.5165779E2],"tree_param":{"num_deleted":"0","num_feature":"7","num_nodes":"15","size_leaf_vector":"1"}},{"base_weights":[3.5965685E-2,3.1314954E-1,-1.5151614E0,4.7721332E-1,-8.597432E-1,-4.076025E-1,-2.1630409E0,3.1474415E-2,-2.3686368E-2,2.2766927E-2,-1.1168019E-1,9.542787E-3,-9.7559646E-2,2.3405073E-2,-1.15226544E-1],"categories":[2,3,5,6,9,12,14,15,16,17,19,21,24,25,26,27,28,29,30,31,32,33,35,36,37,1,4,5,7,9,13,16,18,24,27,29,33,36,38,0,1,2,3,4,5,7,8,9,10,11,12,13,14,16,17,18,19,20,21,23,25,26,27,28,29,31,32,33,34,35,36,37,0,1,2,3,4,5,6,7,8,9,10,11,12,13,14,15,16,17,18,19,20,21,22,23,24,25,26,27,28,29,30,31,32,33,34,35,36,37],"categories_nodes":[2,3,4,6],"categories_segments":[0,25,39,72],"categories_sizes":[25,14,33,38],"default_left":[0,0,1,1,1,0,1,0,0,0,0,0,0,0,0],"id":2,"left_children":[1,3,5,7,9,11,13,-1,-1,-1,-1,-1,-1,-1,-1],"loss_changes":[8.08458E2,3.108762E2,1.9577203E2,2.0643396E2,3.7007718E2,1.1231311E2,7.6891785E1,0E0,0E0,0E0,0E0,0E0,0E0,0E0,0E0],"parents":[2147483647,0,0,1,1,2,2,3,3,4,4,5,5,6,6],"right_children":[2,4,6,8,10,12,14,-1,-1,-1,-1,-1,-1,-1,-1],"split_conditions":[5.5E0,2E0,1E-45,1E-45,1E-45,9E0,1E-45,3.1474415E-2,-2.3686368E-2,2.2766927E-2,-1.1168019E-1,9.542787E-3,-9.7559646E-2,2.3405073E-2,-1.15226544E-1],"split_indices":[2,5,0,0,0,2,1,0,0,0,0,0,0,0,0],"split_type":[0,0,1,1,1,0,1,0,0,0,0,0,0,0,0],"sum_hessian":[1.8593293E3,1.584214E3,2.751153E2,1.3950116E3,1.892024E2,1.0754942E2,1.6756587E2,1.2053744E3,1.8963725E2,1.0008505E2,8.911734E1,8.381677E1,2.373265E1,7.373049E0,1.6019283E2],"tree_param":{"num_deleted":"0","num_feature":"7","num_nodes":"15","size_leaf_vector":"1"}},{"base_weights":[4.8142888E-2,3.15448E-1,-1.8162811E0,4.9188173E-1,-8.635073E-1,-9.2756525E-2,-2.1918495E0,2.9033342E-2,-5.0103415E-2,4.998636E-3,-1.1442596E-1,1.6334431E-2,-5.845622E-2,-6.6613734E-2,-1.209918E-1],"categories":[0,1,2,3,4,5,6,7,8,9,10,12,13,14,15,16,17,19,21,23,25,26,27,28,29,30,31,32,33,34,35,36,37,38,4,5,7,13,16,18,24,28,38,1,2,3,5,8,11,12,14,17,18,19,21,23,24,25,26,28,31,32,33,35,36,37,3,5,6,7,8,12,14,15,16,17,23,25,26,27,29,30,31,32,33,34,35,36,38],"categories_nodes":[2,3,4,6],"categories_segments":[0,34,43,66],"categories_sizes":[34,9,23,23],"default_left":[0,0,1,1,1,0,1,0,0,0,0,0,0,0,0],"id":3,"left_children":[1,3,5,7,9,11,13,-1,-1,-1,-1,-1,-1,-1,-1],"loss_changes":[9.4876166E2,3.5026355E2,1.5251233E2,1.985867E2,3.0457147E2,2.7819714E1,6.092041E0,0E0,0E0,0E0,0E0,0E0,0E0,0E0,0E0],"parents":[2147483647,0,0,1,1,2,2,3,3,4,4,5,5,6,6],"right_children":[2,4,6,8,10,12,14,-1,-1,-1,-1,-1,-1,-1,-1],"split_conditions":[4.35E0,2E0,1E-45,1E-45,1E-45,1.38E0,1E-45,2.9033342E-2,-5.0103415E-2,4.998636E-3,-1.1442596E-1,1.6334431E-2,-5.845622E-2,-6.6613734E-2,-1.209918E-1],"split_indices":[6,5,0,0,0,3,0,0,0,0,0,0,0,0,0],"split_type":[0,0,1,1,1,0,1,0,0,0,0,0,0,0,0],"sum_hessian":[1.8822329E3,1.6534794E3,2.287536E2,1.4433118E3,2.1016756E2,4.3159527E1,1.8559409E2,1.368118E3,7.519375E1,1.3093687E2,7.923068E1,3.606889E1,7.0906343E0,5.3252716E1,1.3234137E2],"tree_param":{"num_deleted":"0","num_feature":"7","num_nodes":"15","size_leaf_vector":"1"}},{"base_weights":[5.9140753E-2,6.114015E-1,-6.8985856E-1,7.1648496E-1,-1.0056616E0,-2.1367425E-1,-1.695444E0,3.9772093E-2,2.3946234E-3,8.093777E-3,-1.09609775E-1,1.6797411E-3,-1.0252398E-1,-6.3734174E-2,-9.770927E-2],"categories":[4,5,6,7,13,16,18,23,28,32,33,38,39,0,1,2,10,13,14,16,20,21,24,26,29,30,32,33,36,38,1,2,14,20,21,29,30,32,36],"categories_nodes":[1,2,6],"categories_segments":[0,13,30],"categories_sizes":[13,17,9],"default_left":[0,1,1,0,0,0,1,0,0,0,0,0,0,0,0],"id":4,"left_children":[1,3,5,7,9,11,13,-1,-1,-1,-1,-1,-1,-1,-1],"loss_changes":[7.8907556E2,1.9369168E2,3.842292E2,5.432666E1,1.02080666E2,2.555423E2,3.2712402E0,0E0,0E0,0E0,0E0,0E0,0E0,0E0,0E0],"parents":[2147483647,0,0,1,1,2,2,3,3,4,4,5,5,6,6],"right_children":[2,4,6,8,10,12,14,-1,-1,-1,-1,-1,-1,-1,-1],"split_conditions":[2.89E0,1E-45,1E-45,2E0,-1.6E0,9E0,1E-45,3.9772093E-2,2.3946234E-3,8.093777E-3,-1.09609775E-1,1.6797411E-3,-1.0252398E-1,-6.3734174E-2,-9.770927E-2],"split_indices":[2,0,0,5,6,2,0,0,0,0,0,0,0,0,0],"split_type":[0,1,1,0,0,0,1,0,0,0,0,0,0,0,0],"sum_hessian":[1.887428E3,1.0874523E3,7.9997565E2,1.0263265E3,6.1125717E1,5.511224E2,2.4885329E2,9.162281E2,1.1009846E2,3.51622E1,2.5963518E1,4.9438574E2,5.6736652E1,1.17325455E2,1.3152783E2],"tree_param":{"num_deleted":"0","num_feature":"7","num_nodes":"15","size_leaf_vector":"1"}},{"base_weights":[6.294311E-2,-1.2261039E0,3.3830225E-1,-1.7772297E0,-3.3614585E-1,7.165973E-1,-4.407162E-2,4.05044E-2,-1.0091781E-1,2.7030725E-2,-9.856349E-2,3.9525997E-2,-4.7372714E-2,1.4778937E-2,-4.6071045E-2],"categories":[0,1,2,3,4,5,6,7,8,9,10,11,12,13,14,15,16,17,18,19,20,21,22,23,24,25,26,27,28,29,30,31,32,33,34,36,37,38,0,2,3,4,5,6,9,10,11,12,13,14,15,16,18,20,21,22,25,26,27,28,29,30,31,32,33,34,36,39,6,8,9,11,13,18,20,23,33,1,2,4,7,14,16,17,19,20,21,23,24,29,33,35,36,38],"categories_nodes":[3,4,5,6],"categories_segments":[0,38,68,77],"categories_sizes":[38,30,9,17],"default_left":[0,0,0,1,1,1,1,0,0,0,0,0,0,0,0],"id":5,"left_children":[1,3,5,7,9,11,13,-1,-1,-1,-1,-1,-1,-1,-1],"loss_changes":[6.7461035E2,1.5815744E2,2.2658516E2,1.4382306E2,2.1180705E2,1.0428726E2,2.373484E2,0E0,0E0,0E0,0E0,0E0,0E0,0E0,0E0],"parents":[2147483647,0,0,1,1,2,2,3,3,4,4,5,5,6,6],"right_children":[2,4,6,8,10,12,14,-1,-1,-1,-1,-1,-1,-1,-1],"split_conditions":[1.75E0,1E0,-8.7E-1,1E-45,1E-45,1E-45,1E-45,4.05044E-2,-1.0091781E-1,2.7030725E-2,-9.856349E-2,3.9525997E-2,-4.7372714E-2,1.4778937E-2,-4.6071045E-2],"split_indices":[3,4,6,1,0,1,0,0,0,0,0,0,0,0,0],"split_type":[0,0,0,1,1,1,1,0,0,0,0,0,0,0,0],"sum_hessian":[1.8788878E3,3.2463535E2,1.5542524E3,1.9432535E2,1.3031E2,7.7689954E2,7.7735297E2,1.4554771E1,1.7977058E2,8.918328E1,4.1126713E1,7.4888116E2,2.8018354E1,5.6518317E2,2.1216975E2],"tree_param":{"num_deleted":"0","num_feature":"7","num_nodes":"15","size_leaf_vector":"1"}},{"base_weights":[2.9376619E-2,-1.0188826E0,3.0799806E-1,-4.0679124E-1,-9.85802E-2,4.6106976E-1,-8.079042E-1,-9.6451974E-4,-7.7489235E-2,3.644898E-2,1.8319249E-3,7.884941E-3,-1.0468521E-1],"categories":[2,3,5,9,12,14,15,16,25,26,27,28,29,30,31,32,33,37,1,2,4,5,6,7,8,9,13,14,15,16,18,21,23,24,25,27,28,30,31,32,33,35,36,38,1,3,5,6,7,8,11,12,14,17,19,20,21,23,25,26,27,31,32,33,35,36,37,38],"categories_nodes":[1,5,6],"categories_segments":[0,18,44],"categories_sizes":[18,26,24],"default_left":[0,1,0,0,0,1,1,0,0,0,0,0,0],"id":6,"left_children":[1,3,5,7,-1,9,11,-1,-1,-1,-1,-1,-1],"loss_changes":[5.3822076E2,2.1767111E2,2.5226332E2,1.0964604E2,0E0,1.4594983E2,2.2572763E2,0E0,0E0,0E0,0E0,0E0,0E0],"parents":[2147483647,0,0,1,1,2,2,3,3,5,5,6,6],"right_children":[2,4,6,8,-1,10,12,-1,-1,-1,-1,-1,-1],"split_conditions":[1.83E0,1E-45,2E0,2E0,-9.85802E-2,1E-45,1E-45,-9.6451974E-4,-7.7489235E-2,3.644898E-2,1.8319249E-3,7.884941E-3,-1.0468521E-1],"split_indices":[3,0,5,5,0,0,0,0,0,0,0,0,0],"split_type":[0,1,0,0,0,1,1,0,0,0,0,0,0],"sum_hessian":[1.822051E3,3.770195E2,1.4450315E3,2.3823273E2,1.3878676E2,1.275883E3,1.6914854E2,1.8550954E2,5.272319E1,7.777656E2,4.9811737E2,1.0161318E2,6.753536E1],"tree_param":{"num_deleted":"0","num_feature":"7","num_nodes":"13","size_leaf_vector":"1"}},{"base_weights":[2.581022E-2,4.7837332E-1,-7.0143455E-1,7.202366E-1,-8.9148045E-2,-3.0171666E-1,-1.8081101E0,4.016935E-2,-3.9305482E-2,2.0398125E-2,-8.537989E-2,-2.4201067E-3,-9.018196E-2,4.768476E-3,-1.0056814E-1],"categories":[2,4,5,6,7,8,13,14,15,16,17,18,21,23,24,25,28,32,33,35,36,37,38,39,1,5,10,12,14,16,17,20,21,24,26,27,29,35,38,2,3,6,8,9,11,13,16,18,21,22,6,8,10,12,15,19,20,21,22,23,24,26,29,32,33,35,38,0,1,2,3,4,5,6,7,8,9,10,11,12,13,14,15,16,17,18,19,20,21,22,23,25,26,27,28,29,31,32,33,34,35,36,37,38,39],"categories_nodes":[1,2,3,4,6],"categories_segments":[0,24,39,50,67],"categories_sizes":[24,15,11,17,38],"default_left":[0,1,1,1,1,0,1,0,0,0,0,0,0,0,0],"id":7,"left_children":[1,3,5,7,9,11,13,-1,-1,-1,-1,-1,-1,-1,-1],"loss_changes":[6.0952466E2,1.5728976E2,3.088568E2,1.06681244E2,2.884972E2,2.022925E2,7.4086914E1,0E0,0E0,0E0,0E0,0E0,0E0,0E0,0E0],"parents":[2147483647,0,0,1,1,2,2,3,3,4,4,5,5,6,6],"right_children":[2,4,6,8,10,12,14,-1,-1,-1,-1,-1,-1,-1,-1],"split_conditions":[3.2E0,1E-45,1E-45,1E-45,1E-45,9E0,1E-45,4.016935E-2,-3.9305482E-2,2.0398125E-2,-8.537989E-2,-2.4201067E-3,-9.018196E-2,4.768476E-3,-1.0056814E-1],"split_indices":[2,0,0,1,1,2,1,0,0,0,0,0,0,0,0],"split_type":[0,1,1,1,1,0,1,0,0,0,0,0,0,0,0],"sum_hessian":[1.8317645E3,1.1312264E3,7.00538E2,7.913024E2,3.3992404E2,5.240014E2,1.7653667E2,7.5433E2,3.6972412E1,2.6577112E2,7.4152916E1,4.5721045E2,6.6790924E1,1.754393E1,1.5899274E2],"tree_param":{"num_deleted":"0","num_feature":"7","num_nodes":"15","size_leaf_vector":"1"}},{"base_weights":[6.861077E-2,3.067547E-1,-1.3816102E0,4.7571802E-1,-1.3108082E0,-7.2310805E-2,-1.0269246E-1,4.0867552E-2,8.766286E-3,4.3000185E-4,-1.0942389E-1,3.2076336E-2,-9.057784E-2],"categories":[6,11,18,20,22,1,2,3,4,5,6,7,8,9,10,11,12,14,15,16,17,19,21,23,24,25,26,27,29,30,31,32,33,35,36,37,1,3,5,6,7,8,9,12,14,15,17,19,20,21,22,24,25,26,28,29,30,31,32,33,35,36,37,38,1,2,3,6,7,8,9,10,11,12,13,14,15,16,17,18,19,20,22,23,25,26,27,28,29,31,32,33,35,36,38,39],"categories_nodes":[1,2,4,5],"categories_segments":[0,5,36,64],"categories_sizes":[5,31,28,32],"default_left":[0,1,1,0,1,1,0,0,0,0,0,0,0],"id":8,"left_children":[1,3,5,7,9,11,-1,-1,-1,-1,-1,-1,-1],"loss_changes":[6.595124E2,4.5389346E2,2.3566522E2,1.515123E2,1.8265659E2,1.3797618E2,0E0,0E0,0E0,0E0,0E0,0E0,0E0],"parents":[2147483647,0,0,1,1,2,2,3,3,4,4,5,5],"right_children":[2,4,6,8,10,12,-1,-1,-1,-1,-1,-1,-1],"split_conditions":[2E0,1E-45,1E-45,2.3E0,1E-45,1E-45,-1.0269246E-1,4.0867552E-2,8.766286E-3,4.3000185E-4,-1.0942389E-1,3.2076336E-2,-9.057784E-2],"split_indices":[5,1,0,2,0,1,0,0,0,0,0,0,0],"split_type":[0,1,1,0,1,1,0,0,0,0,0,0,0],"sum_hessian":[1.8873585E3,1.6279191E3,2.5943936E2,1.4803477E3,1.4757141E2,9.1772514E1,1.6766684E2,6.8457654E2,7.957712E2,6.2906113E1,8.466529E1,6.954193E1,2.2230581E1],"tree_param":{"num_deleted":"0","num_feature":"7","num_nodes":"13","size_leaf_vector":"1"}},{"base_weights":[3.925064E-2,-3.8983637E-1,6.6898125E-1,9.737154E-2,-1.0044029E0,8.179572E-1,-2.3945867E-1,1.6400352E-2,-5.96925E-2,-1.6544037E-2,-9.542347E-2,4.378593E-2,-7.645264E-2,2.8774489E-2,-8.973206E-2],"categories":[0,2,3,5,7,11,12,14,15,17,18,19,20,22,23,27,29,37,1,3,4,5,7,10,12,13,14,16,17,18,25,27,28,30,31,32,33,36,39,1,2,5,7,8,10,11,12,13,14,16,17,21,22,24,26,27,28,29,31,33,36,39,6,8,9,11,13,17,18,21,35,0,2,4,5,6,7,8,9,10,11,13,14,16,18,19,20,21,22,23,24,26,27,28,30,31,33,34,36,37,38,39],"categories_nodes":[1,2,4,5,6],"categories_segments":[0,18,39,62,71],"categories_sizes":[18,21,23,9,31],"default_left":[0,1,1,0,1,1,1,0,0,0,0,0,0,0,0],"id":9,"left_children":[1,3,5,7,9,11,13,-1,-1,-1,-1,-1,-1,-1,-1],"loss_changes":[4.8974927E2,3.23919E2,1.013331E2,1.857916E2,2.8463495E2,9.921655E1,1.512443E2,0E0,0E0,0E0,0E0,0E0,0E0,0E0,0E0],"parents":[2147483647,0,0,1,1,2,2,3,3,4,4,5,5,6,6],"right_children":[2,4,6,8,10,12,14,-1,-1,-1,-1,-1,-1,-1,-1],"split_conditions":[3.29E0,1E-45,1E-45,2E0,1E-45,1E-45,1E-45,1.6400352E-2,-5.96925E-2,-1.6544037E-2,-9.542347E-2,4.378593E-2,-7.645264E-2,2.8774489E-2,-8.973206E-2],"split_indices":[3,1,0,5,0,1,1,0,0,0,0,0,0,0,0],"split_type":[0,1,1,0,1,1,1,0,0,0,0,0,0,0,0],"sum_hessian":[1.7928301E3,1.0685493E3,7.2428064E2,6.007279E2,4.678215E2,6.230947E2,1.0118591E2,5.160175E2,8.471034E1,2.7592184E2,1.9189964E2,6.142466E2,8.848186E0,7.0527534E1,3.065838E1],"tree_param":{"num_deleted":"0","num_feature":"7","num_nodes":"15","size_leaf_vector":"1"}},{"base_weights":[8.064709E-2,2.7620742E-1,-1.1540855E0,5.611456E-1,-2.7858505E-1,-6.2227327E-2,-1.7057354E0,3.381416E-2,-1.6561672E-2,-3.7229996E-2,1.3426361E-2,2.3738492E-2,-6.85739E-2,-9.102157E-2,-2.2813767E-2],"categories":[1,2,4,5,7,8,9,13,14,15,16,18,21,23,24,25,29,30,32,33,36,38,0,2,3,5,6,9,10,12,13,14,15,16,17,19,21,25,26,27,28,29,30,31,32,33,34,35,36,37,38],"categories_nodes":[1,2],"categories_segments":[0,22],"categories_sizes":[22,29],"default_left":[0,1,1,0,0,0,0,0,0,0,0,0,0,0,0],"id":10,"left_children":[1,3,5,7,9,11,13,-1,-1,-1,-1,-1,-1,-1,-1],"loss_changes":[4.5600424E2,2.5875494E2,1.5453976E2,1.1302258E2,1.4445782E2,7.477166E1,1.6234589E1,0E0,0E0,0E0,0E0,0E0,0E0,0E0,0E0],"parents":[2147483647,0,0,1,1,2,2,3,3,4,4,5,5,6,6],"right_children":[2,4,6,8,10,12,14,-1,-1,-1,-1,-1,-1,-1,-1],"split_conditions":[4.35E0,1E-45,1E-45,2E0,2.88E0,7.7E0,1.6E0,3.381416E-2,-1.6561672E-2,-3.7229996E-2,1.3426361E-2,2.3738492E-2,-6.85739E-2,-9.102157E-2,-2.2813767E-2],"split_indices":[6,0,0,5,3,6,3,0,0,0,0,0,0,0,0],"split_type":[0,1,1,0,0,0,0,0,0,0,0,0,0,0,0],"sum_hessian":[1.8652908E3,1.6169558E3,2.483349E2,1.0682133E3,5.4874255E2,8.7089745E1,1.6124515E2,9.482842E2,1.199291E2,2.943845E2,2.5435808E2,6.627882E1,2.0810932E1,1.4350241E2,1.7742743E1],"tree_param":{"num_deleted":"0","num_feature":"7","num_nodes":"15","size_leaf_vector":"1"}},{"base_weights":[7.4861266E-2,2.6571083E-1,-1.1130996E0,5.942183E-1,-1.3351506E-1,-1.6453676E0,-1.8592139E-1,3.3992726E-2,-3.7311826E-2,5.19744E-3,-4.953837E-2,4.23707E-3,-8.850818E-2,3.478275E-2,-7.574375E-2],"categories":[1,2,4,5,7,8,13,14,15,16,18,19,21,23,24,25,27,30,31,32,33,35,36,37,38,2,3,6,11,13,16,18,22,5,6,7,19,20,22,23,25,26,27,30,31,32,0,1,2,3,4,5,6,7,8,9,10,11,12,13,14,15,16,17,18,19,20,21,22,23,24,25,26,27,28,29,30,31,32,33,34,35,36,37,38,0,2,3,4,5,6,9,10,11,12,13,14,15,16,17,18,19,20,21,22,25,26,27,28,29,30,31,32,33,34,35,36,38],"categories_nodes":[1,3,4,5,6],"categories_segments":[0,25,33,46,85],"categories_sizes":[25,8,13,39,33],"default_left":[0,1,0,1,1,1,1,0,0,0,0,0,0,0,0],"id":11,"left_children":[1,3,5,7,9,11,13,-1,-1,-1,-1,-1,-1,-1,-1],"loss_changes":[4.2924506E2,2.14309E2,1.26328735E2,1.07806946E2,1.5229666E2,3.718741E1,1.357707E2,0E0,0E0,0E0,0E0,0E0,0E0,0E0,0E0],"parents":[2147483647,0,0,1,1,2,2,3,3,4,4,5,5,6,6],"right_children":[2,4,6,8,10,12,14,-1,-1,-1,-1,-1,-1,-1,-1],"split_conditions":[4.35E0,1E-45,1E0,1E-45,1E-45,1E-45,1E-45,3.3992726E-2,-3.7311826E-2,5.19744E-3,-4.953837E-2,4.23707E-3,-8.850818E-2,3.478275E-2,-7.574375E-2],"split_indices":[6,0,4,1,1,0,0,0,0,0,0,0,0,0,0],"split_type":[0,1,0,1,1,1,1,0,0,0,0,0,0,0,0],"sum_hessian":[1.8702224E3,1.6180422E3,2.5218016E2,8.849593E2,7.3308295E2,1.5528769E2,9.689246E1,8.3645013E2,4.8509193E1,5.809452E2,1.5213776E2,1.0663517E1,1.4462418E2,6.111592E1,3.5776543E1],"tree_param":{"num_deleted":"0","num_feature":"7","num_nodes":"15","size_leaf_vector":"1"}},{"base_weights":[7.02435E-2,2.1348508E-1,-1.2974079E0,3.6985448E-1,-7.205347E-1,2.0853204E-1,-8.308118E-2,2.6976822E-2,-4.394676E-3,1.07638E-2,-8.4824376E-2,2.6197914E-2,-3.3789735E-2],"categories":[0,1,2,3,4,5,6,7,8,9,10,11,12,13,14,15,16,17,18,19,20,21,22,23,25,26,27,28,29,30,31,32,33,34,35,36,37,38,2,4,5,6,7,9,13,14,16,18,21,23,24,30,32,33,36,38,0,1,3,5,7,8,11,12,14,16,17,18,19,21,23,25,26,27,28,29,31,32,33,35,36,37,39],"categories_nodes":[2,3,4],"categories_segments":[0,38,56],"categories_sizes":[38,18,27],"default_left":[0,0,1,1,1,0,0,0,0,0,0,0,0],"id":12,"left_children":[1,3,5,7,9,11,-1,-1,-1,-1,-1,-1,-1],"loss_changes":[3.6337662E2,2.4727338E2,9.995746E1,1.1241696E2,2.2610663E2,1.5576185E1,0E0,0E0,0E0,0E0,0E0,0E0,0E0],"parents":[2147483647,0,0,1,1,2,2,3,3,4,4,5,5],"right_children":[2,4,6,8,10,12,-1,-1,-1,-1,-1,-1,-1],"split_conditions":[5.6E0,2E0,1E-45,1E-45,1E-45,2E0,-8.308118E-2,2.6976822E-2,-4.394676E-3,1.07638E-2,-8.4824376E-2,2.6197914E-2,-3.3789735E-2],"split_indices":[6,5,0,0,0,5,0,0,0,0,0,0,0],"split_type":[0,0,1,1,1,0,0,0,0,0,0,0,0],"sum_hessian":[1.8307274E3,1.6648026E3,1.6592482E2,1.4312323E3,2.3357031E2,3.314658E1,1.3277824E2,1.0428668E3,3.883655E2,1.2321627E2,1.10354034E2,2.7435722E1,5.7108555E0],"tree_param":{"num_deleted":"0","num_feature":"7","num_nodes":"13","size_leaf_vector":"1"}},{"base_weights":[9.544656E-2,2.90063E-1,-8.7161857E-1,8.326742E-1,4.2085275E-2,-2.556743E-2,-1.0123153E-1,4.446907E-2,-6.393484E-2,8.282849E-3,-4.8033383E-2,-3.788599E-2,1.459295E-2],"categories":[3,6,8,11,17,18,20,22,23,1,2,5,7,8,9,10,13,14,15,16,17,20,21,22,24,25,27,28,29,30,31,33,35,38,39,3,4,5,7,8,9,10,12,13,15,16,17,18,25,27,28,29,30,32,33,35,36,0,4,13,14,16,18,21,23,26,32],"categories_nodes":[0,2,3,4],"categories_segments":[0,9,35,57],"categories_sizes":[9,26,22,10],"default_left":[1,0,1,1,1,0,0,0,0,0,0,0,0],"id":13,"left_children":[1,3,5,7,9,11,-1,-1,-1,-1,-1,-1,-1],"loss_changes":[3.5162878E2,2.0843034E2,3.0505453E2,6.9579956E1,1.348558E2,4.655422E1,0E0,0E0,0E0,0E0,0E0,0E0,0E0],"parents":[2147483647,0,0,1,1,2,2,3,3,4,4,5,5],"right_children":[2,4,6,8,10,12,-1,-1,-1,-1,-1,-1,-1],"split_conditions":[1E-45,1.91E0,1E-45,1E-45,1E-45,1.67E0,-1.0123153E-1,4.446907E-2,-6.393484E-2,8.282849E-3,-4.8033383E-2,-3.788599E-2,1.459295E-2],"split_indices":[1,2,0,0,0,3,0,0,0,0,0,0,0],"split_type":[1,0,1,1,1,0,0,0,0,0,0,0,0],"sum_hessian":[1.8448777E3,1.5416332E3,3.0324448E2,4.761561E2,1.065477E3,1.8079985E2,1.22444626E2,4.6933826E2,6.817833E0,9.5601324E2,1.09463875E2,5.0484745E1,1.303151E2],"tree_param":{"num_deleted":"0","num_feature":"7","num_nodes":"13","size_leaf_vector":"1"}},{"base_weights":[3.8161077E-2,4.1898927E-1,-4.7305372E-1,5.451711E-1,-6.2620515E-1,2.4043733E-1,-9.1719687E-1,3.227484E-2,-2.2781929E-2,3.0125698E-2,-9.781859E-2,2.3547797E-2,-8.1224546E-2,-1.3125934E-2,-7.835486E-2],"categories":[4,5,6,7,13,14,16,18,23,30,33,35,36,0,1,2,3,5,7,10,11,14,15,17,18,19,20,22,23,25,26,28,31,34,36,37,2,4,6,8,9,11,13,17,18,20,21,22,29,0,3,4,5,6,7,8,9,10,11,12,13,14,16,17,18,19,20,22,23,24,25,26,27,28,29,30,31,32,33,34,37,38,39,0,3,5,8,14,16,19,23,29,30,38,1,2,3,7,8,9,10,11,12,13,14,15,17,20,21,22,24,26,27,29,31,32,33,36],"categories_nodes":[1,2,3,4,5,6],"categories_segments":[0,13,36,49,83,94],"categories_sizes":[13,23,13,34,11,24],"default_left":[0,1,1,1,1,1,1,0,0,0,0,0,0,0,0],"id":14,"left_children":[1,3,5,7,9,11,13,-1,-1,-1,-1,-1,-1,-1,-1],"loss_changes":[3.5100067E2,1.3960957E2,2.4622673E2,9.59975E1,2.0120865E2,1.3806624E2,1.9870319E2,0E0,0E0,0E0,0E0,0E0,0E0,0E0,0E0],"parents":[2147483647,0,0,1,1,2,2,3,3,4,4,5,5,6,6],"right_children":[2,4,6,8,10,12,14,-1,-1,-1,-1,-1,-1,-1,-1],"split_conditions":[6.3E-1,1E-45,1E-45,1E-45,1E-45,1E-45,1E-45,3.227484E-2,-2.2781929E-2,3.0125698E-2,-9.781859E-2,2.3547797E-2,-8.1224546E-2,-1.3125934E-2,-7.835486E-2],"split_indices":[6,0,1,1,1,0,0,0,0,0,0,0,0,0,0],"split_type":[0,1,1,1,1,1,1,0,0,0,0,0,0,0,0],"sum_hessian":[1.7827349E3,1.02268915E3,7.600457E2,9.167927E2,1.05896385E2,2.933622E2,4.6668347E2,8.364895E2,8.0303215E1,5.789097E1,4.800542E1,2.6774203E2,2.5620178E1,2.394811E2,2.2720238E2],"tree_param":{"num_deleted":"0","num_feature":"7","num_nodes":"15","size_leaf_vector":"1"}},{"base_weights":[3.0282907E-2,-8.810488E-1,2.6341742E-1,-1.3455006E-1,-1.6370384E0,4.8254135E-1,-3.3072457E-1,3.1189045E-2,-3.7498854E-2,-3.0507607E-2,-8.626362E-2,2.8277352E-2,-4.5647994E-2,6.503397E-3,-7.0160806E-2],"categories":[1,2,3,5,8,9,10,12,13,14,15,16,21,23,25,26,27,28,29,30,31,32,34,37,1,2,4,7,8,13,16,17,18,21,23,24,25,27,32,33,35,36,38,39,1,2,3,4,5,6,7,8,9,10,11,12,13,14,15,16,17,18,20,21,22,23,24,25,26,27,28,29,31,32,33,36,37,38,0,1,3,5,11,15,19,20,21,22,24,30,34,37,2,6,11,17,22,33,1,2,3,5,6,7,20,21,22,23,26,29,30,31,32,37],"categories_nodes":[1,2,3,4,5,6],"categories_segments":[0,24,44,78,92,98],"categories_sizes":[24,20,34,14,6,16],"default_left":[0,1,1,1,1,1,1,0,0,0,0,0,0,0,0],"id":15,"left_children":[1,3,5,7,9,11,13,-1,-1,-1,-1,-1,-1,-1,-1],"loss_changes":[3.7513437E2,2.0082004E2,1.845105E2,9.424037E1,5.5868835E0,1.2452942E2,1.9183633E2,0E0,0E0,0E0,0E0,0E0,0E0,0E0,0E0],"parents":[2147483647,0,0,1,1,2,2,3,3,4,4,5,5,6,6],"right_children":[2,4,6,8,10,12,14,-1,-1,-1,-1,-1,-1,-1,-1],"split_conditions":[1.83E0,1E-45,1E-45,1E-45,1E-45,1E-45,1E-45,3.1189045E-2,-3.7498854E-2,-3.0507607E-2,-8.626362E-2,2.8277352E-2,-4.5647994E-2,6.503397E-3,-7.0160806E-2],"split_indices":[3,0,0,1,1,1,1,0,0,0,0,0,0,0,0],"split_type":[0,1,1,1,1,1,1,0,0,0,0,0,0,0,0],"sum_hessian":[1.7447233E3,3.497491E2,1.3949742E3,1.8190628E2,1.6784283E2,1.0204888E3,3.7448544E2,8.143101E1,1.0047528E2,1.9543463E1,1.4829938E2,9.6881036E2,5.1678364E1,2.6808908E2,1.0639636E2],"tree_param":{"num_deleted":"0","num_feature":"7","num_nodes":"15","size_leaf_vector":"1"}},{"base_weights":[4.4605523E-2,2.1703689E-1,-9.6576685E-1,3.7102386E-1,-6.870514E-1,-1.0995051E0,-3.3829354E-2,3.0569538E-2,2.537561E-3,2.4297302E-5,-5.9707176E-2,-4.0624883E-2,-8.265614E-2,2.2929119E-2,-3.166179E-2],"categories":[6,11,17,18,20,22,23,0,1,2,3,8,12,14,15,19,24,25,26,31,32,33,34,35,36,38,39,6,22],"categories_nodes":[0,4,5],"categories_segments":[0,7,27],"categories_sizes":[7,20,2],"default_left":[1,0,0,0,1,1,0,0,0,0,0,0,0,0,0],"id":16,"left_children":[1,3,5,7,9,11,13,-1,-1,-1,-1,-1,-1,-1,-1],"loss_changes":[3.1101556E2,2.1455412E2,3.2074417E1,1.0036012E2,7.849676E1,2.2691223E1,1.5591964E1,0E0,0E0,0E0,0E0,0E0,0E0,0E0,0E0],"parents":[2147483647,0,0,1,1,2,2,3,3,4,4,5,5,6,6],"right_children":[2,4,6,8,10,12,14,-1,-1,-1,-1,-1,-1,-1,-1],"split_conditions":[1E-45,2E0,3.6E0,5E-2,1E-45,1E-45,3.89E0,3.0569538E-2,2.537561E-3,2.4297302E-5,-5.9707176E-2,-4.0624883E-2,-8.265614E-2,2.2929119E-2,-3.166179E-2],"split_indices":[1,5,3,6,1,1,3,0,0,0,0,0,0,0,0],"split_type":[1,0,0,0,1,1,0,0,0,0,0,0,0,0,0],"sum_hessian":[1.7631588E3,1.5128295E3,2.5032939E2,1.2976979E3,2.1513156E2,2.1734158E2,3.2987804E1,7.361343E2,5.6156366E2,9.555898E1,1.1957258E2,1.5938766E2,5.7953915E1,1.9400066E1,1.358774E1],"tree_param":{"num_deleted":"0","num_feature":"7","num_nodes":"15","size_leaf_vector":"1"}},{"base_weights":[6.5471396E-2,3.875629E-1,-4.103203E-1,4.8497817E-1,-5.449173E-1,-4.7087613E-2,-1.4430858E0,1.6473567E-2,3.772467E-2,1.0740623E-2,-6.2642865E-2,-4.1813746E-2,1.202331E-2,-1.0657344E-1,-5.1133145E-2],"categories":[4,5,6,7,8,13,16,18,23,24,33,35,38,1,4,5,7,10,12,13,14,16,17,18,20,21,25,26,27,29,30,38],"categories_nodes":[1,2],"categories_segments":[0,13],"categories_sizes":[13,19],"default_left":[0,1,1,0,0,0,0,0,0,0,0,0,0,0,0],"id":17,"left_children":[1,3,5,7,9,11,13,-1,-1,-1,-1,-1,-1,-1,-1],"loss_changes":[2.7595914E2,1.0009004E2,2.7226498E2,3.8444168E1,5.979886E1,1.2650975E2,3.289502E1,0E0,0E0,0E0,0E0,0E0,0E0,0E0,0E0],"parents":[2147483647,0,0,1,1,2,2,3,3,4,4,5,5,6,6],"right_children":[2,4,6,8,10,12,14,-1,-1,-1,-1,-1,-1,-1,-1],"split_conditions":[3.2E0,1E-45,1E-45,5E0,2.14E0,1.6E0,2.67E0,1.6473567E-2,3.772467E-2,1.0740623E-2,-6.2642865E-2,-4.1813746E-2,1.202331E-2,-1.0657344E-1,-5.1133145E-2],"split_indices":[2,0,0,3,2,3,6,0,0,0,0,0,0,0,0],"split_type":[0,1,1,0,0,0,0,0,0,0,0,0,0,0,0],"sum_hessian":[1.7803531E3,1.0627615E3,7.175916E2,9.6658264E2,9.617886E1,5.3861273E2,1.789789E2,6.27023E2,3.3955963E2,4.975243E1,4.6426434E1,1.3874547E2,3.9986728E2,5.2431515E1,1.26547386E2],"tree_param":{"num_deleted":"0","num_feature":"7","num_nodes":"15","size_leaf_vector":"1"}},{"base_weights":[7.745991E-2,2.4147584E-1,-7.160112E-1,1.1145714E-2,6.0881925E-1,1.5879719E-1,-8.199253E-2,1.4037586E-2,-3.0719707E-2,3.420445E-2,-1.1718637E-2,2.0902554E-2,-5.6340255E-2],"categories":[1,2,3,4,5,7,8,9,10,11,12,14,16,17,18,19,20,21,23,25,26,27,28,29,31,32,33,35,36,37,1,2,4,9,13,14,15,16,20,21,22,23,26,29,32,34,35,38,1,4,5,7,10,12,13,16,17,18,24,25,27,28,31,36],"categories_nodes":[2,3,4],"categories_segments":[0,30,48],"categories_sizes":[30,18,16],"default_left":[0,0,1,1,1,0,0,0,0,0,0,0,0],"id":18,"left_children":[1,3,5,7,9,11,-1,-1,-1,-1,-1,-1,-1],"loss_changes":[2.3214798E2,1.2470789E2,2.497537E2,1.56305E2,3.766101E1,6.0101288E1,0E0,0E0,0E0,0E0,0E0,0E0,0E0],"parents":[2147483647,0,0,1,1,2,2,3,3,4,4,5,5],"right_children":[2,4,6,8,10,12,-1,-1,-1,-1,-1,-1,-1],"split_conditions":[2E0,3.29E0,1E-45,1E-45,1E-45,5.75E0,-8.199253E-2,1.4037586E-2,-3.0719707E-2,3.420445E-2,-1.1718637E-2,2.0902554E-2,-5.6340255E-2],"split_indices":[5,3,0,0,0,2,0,0,0,0,0,0,0],"split_type":[0,0,1,1,1,0,0,0,0,0,0,0,0],"sum_hessian":[1.7605211E3,1.4647119E3,2.9580927E2,9.065771E2,5.5813477E2,1.5618993E2,1.3961935E2,6.3737994E2,2.6919717E2,5.1412683E2,4.4007965E1,1.3559427E2,2.0595661E1],"tree_param":{"num_deleted":"0","num_feature":"7","num_nodes":"13","size_leaf_vector":"1"}},{"base_weights":[4.19068E-2,-8.2277226E-1,2.2985472E-1,7.2577365E-2,-1.1403576E0,6.4109504E-1,5.180079E-2,1.6141932E-2,-4.400091E-2,-7.00886E-2,-3.0938974E-2,3.913675E-2,-4.6705928E-2,1.2586119E-2,-3.2601032E-2],"categories":[0,1,3,11,14,15,20,21,22,24,37,0,2,6,8,10,11,13,16,18,20,21,22,23,25,26,32,35,2,3,4,5,6,8,9,13,15,16,17,18,19,22,24,28,32],"categories_nodes":[1,5,6],"categories_segments":[0,11,28],"categories_sizes":[11,17,17],"default_left":[0,1,0,0,0,1,1,0,0,0,0,0,0,0,0],"id":19,"left_children":[1,3,5,7,9,11,13,-1,-1,-1,-1,-1,-1,-1,-1],"loss_changes":[2.8305542E2,8.9286835E1,1.04302986E2,2.4500834E1,2.2718475E1,1.0344847E2,1.434908E2,0E0,0E0,0E0,0E0,0E0,0E0,0E0,0E0],"parents":[2147483647,0,0,1,1,2,2,3,3,4,4,5,5,6,6],"right_children":[2,4,6,8,10,12,14,-1,-1,-1,-1,-1,-1,-1,-1],"split_conditions":[1.75E0,1E-45,1.91E0,2E0,1E0,1E-45,1E-45,1.6141932E-2,-4.400091E-2,-7.00886E-2,-3.0938974E-2,3.913675E-2,-4.6705928E-2,1.2586119E-2,-3.2601032E-2],"split_indices":[3,1,2,5,4,1,1,0,0,0,0,0,0,0,0],"split_type":[0,1,0,0,0,1,1,0,0,0,0,0,0,0,0],"sum_hessian":[1.7200856E3,3.0109265E2,1.4189929E3,8.085569E1,2.2023695E2,4.2088794E2,9.981049E2,6.926871E1,1.1586982E1,1.3546599E2,8.477097E1,3.9078067E2,3.010726E1,7.823116E2,2.1579333E2],"tree_param":{"num_deleted":"0","num_feature":"7","num_nodes":"15","size_leaf_vector":"1"}},{"base_weights":[4.946702E-2,5.354553E-1,-2.585331E-1,6.049422E-1,-7.332825E-1,-6.876496E-2,-9.9371797E-1,3.6050174E-2,1.5678419E-2,-2.7705308E-3,-7.618047E-2,1.2623161E-2,-1.9459555E-2,-2.5951485E-3,-7.829717E-2],"categories":[4,5,7,8,9,13,15,16,17,18,25,27,28,31,39,0,4,5,6,7,8,9,12,13,14,15,16,17,18,21,23,24,25,27,28,30,31,32,33,35,39,1,2,4,5,7,8,9,13,14,15,16,18,20,21,22,23,24,27,29,30,32,33,34,36,38,0,1,2,3,5,7,8,9,10,11,12,14,16,17,18,19,20,21,23,25,26,27,28,29,30,31,32,33,35,36,37,38],"categories_nodes":[1,3,5,6],"categories_segments":[0,15,41,66],"categories_sizes":[15,26,25,32],"default_left":[0,1,0,1,0,1,1,0,0,0,0,0,0,0,0],"id":20,"left_children":[1,3,5,7,9,11,13,-1,-1,-1,-1,-1,-1,-1,-1],"loss_changes":[2.6042926E2,6.3907806E1,1.4804239E2,1.9552505E1,2.034327E1,8.9302086E1,1.1665634E2,0E0,0E0,0E0,0E0,0E0,0E0,0E0,0E0],"parents":[2147483647,0,0,1,1,2,2,3,3,4,4,5,5,6,6],"right_children":[2,4,6,8,10,12,14,-1,-1,-1,-1,-1,-1,-1,-1],"split_conditions":[2.3E0,1E-45,2E0,1E-45,2.04E0,1E-45,1E-45,3.6050174E-2,1.5678419E-2,-2.7705308E-3,-7.618047E-2,1.2623161E-2,-1.9459555E-2,-2.5951485E-3,-7.829717E-2],"split_indices":[2,0,5,0,2,0,0,0,0,0,0,0,0,0,0],"split_type":[0,1,0,1,0,1,1,0,0,0,0,0,0,0,0],"sum_hessian":[1.7206072E3,6.6458484E2,1.0560223E3,6.3503674E2,2.9548096E1,8.480551E2,2.0796718E2,4.435965E2,1.9144023E2,2.1666023E1,7.882073E0,4.2455673E2,4.234984E2,8.272261E1,1.2524456E2],"tree_param":{"num_deleted":"0","num_feature":"7","num_nodes":"15","size_leaf_vector":"1"}},{"base_weights":[6.2064927E-2,3.3165857E-1,-4.4826007E-1,5.49362E-1,-1.8708004E-1,-9.9295504E-2,-1.3493166E0,3.733209E-2,1.6444251E-2,5.430803E-3,-5.443446E-2,2.636614E-3,-6.2039297E-2,-7.566684E-2,1.282455E-2],"categories":[0,3,5,6,9,11,13,15,17,18,20,21,22,23,27,29,36,4,5,7,13,14,15,16,18,21,23,24,27,29,30,32,33,35,37,38,2,5,7,8,9,10,12,14,17,21,24,25,27,28,31,33,35,36,0,2,3,4,5,6,8,9,10,11,12,13,14,15,16,17,18,20,21,22,23,24,25,27,29,31,34,35,36,37,1,7,12,19,25,26,30,31,39],"categories_nodes":[0,1,2,3,4],"categories_segments":[0,17,36,54,84],"categories_sizes":[17,19,18,30,9],"default_left":[1,1,1,1,1,0,0,0,0,0,0,0,0,0,0],"id":21,"left_children":[1,3,5,7,9,11,13,-1,-1,-1,-1,-1,-1,-1,-1],"loss_changes":[2.3618892E2,1.2773532E2,1.854164E2,3.203003E1,9.1597115E1,7.68246E1,4.734369E1,0E0,0E0,0E0,0E0,0E0,0E0,0E0,0E0],"parents":[2147483647,0,0,1,1,2,2,3,3,4,4,5,5,6,6],"right_children":[2,4,6,8,10,12,14,-1,-1,-1,-1,-1,-1,-1,-1],"split_conditions":[1E-45,1E-45,1E-45,1E-45,1E-45,7.17E0,5.5E0,3.733209E-2,1.6444251E-2,5.430803E-3,-5.443446E-2,2.636614E-3,-6.2039297E-2,-7.566684E-2,1.282455E-2],"split_indices":[1,0,0,1,1,6,3,0,0,0,0,0,0,0,0],"split_type":[1,1,1,1,1,0,0,0,0,0,0,0,0,0,0],"sum_hessian":[1.6959281E3,1.1119893E3,5.839388E2,7.8285254E2,3.2913672E2,4.2892508E2,1.5501373E2,4.0056638E2,3.8228616E2,2.5447362E2,7.466309E1,3.8693033E2,4.1994728E1,1.4117021E2,1.3843531E1],"tree_param":{"num_deleted":"0","num_feature":"7","num_nodes":"15","size_leaf_vector":"1"}},{"base_weights":[4.2942926E-2,2.1464711E-1,-9.2971975E-1,3.829566E-1,-4.9713635E-1,-1.4113939E-1,-1.3138385E0,3.7790567E-2,1.0194023E-2,-6.1483765E-3,-7.012631E-2,-2.9955013E-2,1.849989E-2,-6.926772E-2,7.5773112E-3],"categories":[0,4,5,6,11,17,18,20,22,23,27,0,1,3,6,8,11,12,14,15,19,21,22,23,24,26,31,32,33,34,35,36,38,39],"categories_nodes":[1,2],"categories_segments":[0,11],"categories_sizes":[11,23],"default_left":[0,1,1,0,0,0,0,0,0,0,0,0,0,0,0],"id":22,"left_children":[1,3,5,7,9,11,13,-1,-1,-1,-1,-1,-1,-1,-1],"loss_changes":[2.7925793E2,1.7192166E2,7.416652E1,7.5472565E1,9.169297E1,2.408189E1,1.9659576E1,0E0,0E0,0E0,0E0,0E0,0E0,0E0,0E0],"parents":[2147483647,0,0,1,1,2,2,3,3,4,4,5,5,6,6],"right_children":[2,4,6,8,10,12,14,-1,-1,-1,-1,-1,-1,-1,-1],"split_conditions":[2E0,1E-45,1E-45,1.91E0,5.75E0,2.88E0,9E0,3.7790567E-2,1.0194023E-2,-6.1483765E-3,-7.012631E-2,-2.9955013E-2,1.849989E-2,-6.926772E-2,7.5773112E-3],"split_indices":[5,1,1,2,2,3,3,0,0,0,0,0,0,0,0],"split_type":[0,1,1,0,0,0,0,0,0,0,0,0,0,0,0],"sum_hessian":[1.6501515E3,1.4091818E3,2.4096973E2,1.1434253E3,2.6575644E2,8.340892E1,1.575608E2,3.605394E2,7.828859E2,1.960807E2,6.967576E1,4.308519E1,4.032373E1,1.5074982E2,6.8109827E0],"tree_param":{"num_deleted":"0","num_feature":"7","num_nodes":"15","size_leaf_vector":"1"}},{"base_weights":[2.4437472E-2,3.54325E-1,-2.794143E-1,4.7230273E-1,-6.279728E-1,4.628259E-2,-8.332832E-1,3.588641E-2,1.73863E-2,1.6247919E-2,-5.2016653E-2,7.612983E-3,-4.3772064E-2,-3.2050088E-2,-8.3866075E-2],"categories":[2,4,5,6,7,12,13,16,18,23,25,27,28,31,32,33,39,1,4,5,9,10,11,13,14,15,16,18,20,21,25,29,30,31,32,36,38,9,10,14,20,21,29],"categories_nodes":[1,2,6],"categories_segments":[0,17,37],"categories_sizes":[17,20,6],"default_left":[0,1,1,0,0,0,1,0,0,0,0,0,0,0,0],"id":23,"left_children":[1,3,5,7,9,11,13,-1,-1,-1,-1,-1,-1,-1,-1],"loss_changes":[1.6788313E2,9.599039E1,1.5774017E2,1.958928E1,3.888876E1,5.5913338E1,4.17545E1,0E0,0E0,0E0,0E0,0E0,0E0,0E0,0E0],"parents":[2147483647,0,0,1,1,2,2,3,3,4,4,5,5,6,6],"right_children":[2,4,6,8,10,12,14,-1,-1,-1,-1,-1,-1,-1,-1],"split_conditions":[5E-2,1E-45,1E-45,1.6E0,1.91E0,7.7E0,1E-45,3.588641E-2,1.73863E-2,1.6247919E-2,-5.2016653E-2,7.612983E-3,-4.3772064E-2,-3.2050088E-2,-8.3866075E-2],"split_indices":[6,0,0,2,2,6,0,0,0,0,0,0,0,0,0],"split_type":[0,1,1,0,0,0,1,0,0,0,0,0,0,0,0],"sum_hessian":[1.6549866E3,7.927012E2,8.6228546E2,7.1233844E2,8.036273E1,5.4875824E2,3.1352722E2,2.2380751E2,4.885309E2,2.49122E1,5.545053E1,4.9965723E2,4.9101006E1,2.696845E2,4.3842705E1],"tree_param":{"num_deleted":"0","num_feature":"7","num_nodes":"15","size_leaf_vector":"1"}},{"base_weights":[7.790294E-2,3.0569586E-1,-3.720914E-1,4.700134E-1,-3.7800488E-1,8.1293695E-3,-1.3604189E0,4.286217E-2,1.9099109E-2,6.6409186E-3,-7.045512E-2,8.169376E-3,-4.901264E-2,-7.486979E-2,3.678304E-3],"categories":[0,3,6,11,13,14,17,18,19,20,22,23,25,27,37,0,4,6,7,9,13,16,18,25,28,29,31,32,37,38,1,2,5,7,10,12,13,16,17,19,21,24,26,27,28,29,31,33,36,2,7,15,21,32,34,35,36,39,6,17,22,23],"categories_nodes":[0,1,2,4,5],"categories_segments":[0,15,30,49,58],"categories_sizes":[15,15,19,9,4],"default_left":[1,1,1,0,1,1,0,0,0,0,0,0,0,0,0],"id":24,"left_children":[1,3,5,7,9,11,13,-1,-1,-1,-1,-1,-1,-1,-1],"loss_changes":[1.7699594E2,1.3035501E2,2.1847583E2,2.8332047E1,1.2159729E2,6.752421E1,3.2824554E1,0E0,0E0,0E0,0E0,0E0,0E0,0E0,0E0],"parents":[2147483647,0,0,1,1,2,2,3,3,4,4,5,5,6,6],"right_children":[2,4,6,8,10,12,14,-1,-1,-1,-1,-1,-1,-1,-1],"split_conditions":[1E-45,1E-45,1E-45,1.55E0,1E-45,1E-45,5.25E0,4.286217E-2,1.9099109E-2,6.6409186E-3,-7.045512E-2,8.169376E-3,-4.901264E-2,-7.486979E-2,3.678304E-3],"split_indices":[1,0,0,2,1,1,3,0,0,0,0,0,0,0,0],"split_type":[1,1,1,0,1,1,0,0,0,0,0,0,0,0,0],"sum_hessian":[1.7055999E3,1.1345054E3,5.710945E2,9.1719604E2,2.1730931E2,4.1959088E2,1.5150362E2,1.5370448E2,7.634916E2,1.5114258E2,6.616673E1,3.6984186E2,4.9748997E1,1.3788992E2,1.3613701E1],"tree_param":{"num_deleted":"0","num_feature":"7","num_nodes":"15","size_leaf_vector":"1"}},{"base_weights":[6.396086E-2,4.0881956E-1,-2.2886018E-1,4.841891E-1,-8.6543465E-1,1.2572674E-1,-8.508613E-1,2.7919004E-2,-4.135917E-2,2.2830447E-2,-9.223208E-2,2.224243E-2,-3.1665593E-2,-8.6414525E-3,-8.963675E-2],"categories":[4,5,6,7,13,16,18,28,31,32,39,0,1,2,3,5,6,12,14,17,18,20,22,25,29,35,36,37,3,6,8,11,13,17,18,23,0,2,4,5,6,7,8,9,10,11,12,13,14,15,16,17,18,19,20,21,22,23,24,26,27,28,29,30,31,32,33,34,35,36,37,38,1,2,4,5,6,13,14,15,16,18,20,25,29,32,33,35,37,38,0,1,2,5,7,9,10,11,14,15,16,17,20,21,23,26,27,28,29,30,33,34,36,39],"categories_nodes":[1,2,3,4,5,6],"categories_segments":[0,11,28,36,72,90],"categories_sizes":[11,17,8,36,18,24],"default_left":[0,1,1,1,1,1,1,0,0,0,0,0,0,0,0],"id":25,"left_children":[1,3,5,7,9,11,13,-1,-1,-1,-1,-1,-1,-1,-1],"loss_changes":[1.7186195E2,7.9182816E1,2.043752E2,7.697034E1,6.951782E1,1.4713939E2,2.1146553E2,0E0,0E0,0E0,0E0,0E0,0E0,0E0,0E0],"parents":[2147483647,0,0,1,1,2,2,3,3,4,4,5,5,6,6],"right_children":[2,4,6,8,10,12,14,-1,-1,-1,-1,-1,-1,-1,-1],"split_conditions":[-2E-1,1E-45,1E-45,1E-45,1E-45,1E-45,1E-45,2.7919004E-2,-4.135917E-2,2.2830447E-2,-9.223208E-2,2.224243E-2,-3.1665593E-2,-8.6414525E-3,-8.963675E-2],"split_indices":[6,0,1,1,1,0,0,0,0,0,0,0,0,0,0],"split_type":[0,1,1,1,1,1,1,0,0,0,0,0,0,0,0],"sum_hessian":[1.6826434E3,7.7084686E2,9.117966E2,7.33653E2,3.7193867E1,5.8581635E2,3.2598022E2,6.998036E2,3.38494E1,1.809732E1,1.9096544E1,4.1533624E2,1.7048012E2,1.9641833E2,1.295619E2],"tree_param":{"num_deleted":"0","num_feature":"7","num_nodes":"15","size_leaf_vector":"1"}},{"base_weights":[7.657014E-2,2.2183456E-1,-7.1725804E-1,4.2483184E-1,-1.475488E-1,1.1135827E-1,-7.499286E-2,3.441344E-2,5.0843665E-3,6.228776E-3,-7.40382E-2,3.3915304E-2,-6.423699E-2],"categories":[1,2,4,5,6,7,8,12,13,14,15,16,17,18,21,25,30,32,33,35,38,1,3,4,5,7,8,9,10,11,12,14,15,16,17,19,21,23,25,26,27,28,29,31,32,33,35,36,37,38,0,2,3,4,5,8,11,13,14,15,16,18,20,21,22,23,24,29,31,35,37,6,7,11,15,17,20,22,23,25,26,27,28,29,1,2,3,6,7,8,9,10,11,12,13,15,16,17,18,19,22,23,24,25,26,27,28,29,31,32,33,34,35,36,38,39],"categories_nodes":[1,2,3,4,5],"categories_segments":[0,21,50,71,84],"categories_sizes":[21,29,21,13,32],"default_left":[0,1,1,1,1,1,0,0,0,0,0,0,0],"id":26,"left_children":[1,3,5,7,9,11,-1,-1,-1,-1,-1,-1,-1],"loss_changes":[1.9515007E2,1.07592575E2,1.7157457E2,7.788829E1,1.8808557E2,1.16812004E2,0E0,0E0,0E0,0E0,0E0,0E0,0E0],"parents":[2147483647,0,0,1,1,2,2,3,3,4,4,5,5],"right_children":[2,4,6,8,10,12,-1,-1,-1,-1,-1,-1,-1],"split_conditions":[2E0,1E-45,1E-45,1E-45,1E-45,1E-45,-7.499286E-2,3.441344E-2,5.0843665E-3,6.228776E-3,-7.40382E-2,3.3915304E-2,-6.423699E-2],"split_indices":[5,0,0,1,1,1,0,0,0,0,0,0,0],"split_type":[0,1,1,1,1,1,0,0,0,0,0,0,0],"sum_hessian":[1.6685238E3,1.4165176E3,2.5200626E2,9.131747E2,5.0334286E2,1.26570465E2,1.2543578E2,4.968384E2,4.1633627E2,4.2554907E2,7.7793785E1,9.367214E1,3.2898327E1],"tree_param":{"num_deleted":"0","num_feature":"7","num_nodes":"13","size_leaf_vector":"1"}},{"base_weights":[1.0934191E-2,2.5175607E-1,-4.0755218E-1,3.9429012E-1,-3.8532332E-1,-1.4375165E-2,-1.3038523E0,2.8042955E-2,1.1280362E-2,1.2426838E-2,-1.01319574E-1,1.0412478E-2,-3.5838645E-2,-3.4173872E-2,-8.3622746E-2],"categories":[0,2,3,4,6,8,11,12,18,19,20,21,22,23,27,29,31,2,4,5,6,7,13,15,16,17,18,27,32,35,37,38,1,2,7,8,9,10,11,13,14,16,21,22,23,25,27,28,29,31,33,36,38,1,2,4,5,6,7,8,12,13,14,15,16,17,18,20,21,23,24,25,26,27,28,29,30,32,33,35,36,37,38,1,5,15,17,25,26,30,32,34,35,39,3,6,8,11,12,20,22,23,29,31],"categories_nodes":[0,1,2,3,4,6],"categories_segments":[0,17,32,53,83,94],"categories_sizes":[17,15,21,30,11,10],"default_left":[1,1,1,1,1,0,1,0,0,0,0,0,0,0,0],"id":27,"left_children":[1,3,5,7,9,11,13,-1,-1,-1,-1,-1,-1,-1,-1],"loss_changes":[1.6208951E2,9.419444E1,2.0687457E2,2.2306656E1,2.0439046E2,6.693768E1,2.951178E1,0E0,0E0,0E0,0E0,0E0,0E0,0E0,0E0],"parents":[2147483647,0,0,1,1,2,2,3,3,4,4,5,5,6,6],"right_children":[2,4,6,8,10,12,14,-1,-1,-1,-1,-1,-1,-1,-1],"split_conditions":[1E-45,1E-45,1E-45,1E-45,1E-45,5.75E0,1E-45,2.8042955E-2,1.1280362E-2,1.2426838E-2,-1.01319574E-1,1.0412478E-2,-3.5838645E-2,-3.4173872E-2,-8.3622746E-2],"split_indices":[1,0,0,0,1,2,1,0,0,0,0,0,0,0,0],"split_type":[1,1,1,1,1,0,1,0,0,0,0,0,0,0,0],"sum_hessian":[1.5881583E3,1.0105894E3,5.77569E2,8.2894104E2,1.8164839E2,4.0852362E2,1.6904532E2,4.05386E2,4.2355502E2,1.3715717E2,4.4491222E1,3.1554645E2,9.297717E1,7.3643074E1,9.5402245E1],"tree_param":{"num_deleted":"0","num_feature":"7","num_nodes":"15","size_leaf_vector":"1"}},{"base_weights":[1.24226315E-2,1.8258107E-1,-6.89783E-1,2.9976E-1,-4.9105343E-1,4.590316E-1,-7.979613E-1,2.4119582E-2,4.50338E-3,1.1571853E-2,-4.4714358E-2,3.351339E-2,-2.4336768E-2,-2.0113675E-2,-5.5820253E-2],"categories":[6,9,11,15,17,18,19,20,22,23,35,0,1,2,3,4,5,6,7,8,9,10,11,12,13,14,16,17,18,20,21,22,23,24,25,26,27,28,29,30,31,32,33,34,35,11,15,19,22],"categories_nodes":[0,5,6],"categories_segments":[0,11,45],"categories_sizes":[11,34,4],"default_left":[1,0,0,0,0,1,1,0,0,0,0,0,0,0,0],"id":28,"left_children":[1,3,5,7,9,11,13,-1,-1,-1,-1,-1,-1,-1,-1],"loss_changes":[1.9313777E2,1.0413104E2,4.285028E1,4.2229332E1,5.931601E1,9.952126E0,3.228186E1,0E0,0E0,0E0,0E0,0E0,0E0,0E0,0E0],"parents":[2147483647,0,0,1,1,2,2,3,3,4,4,5,5,6,6],"right_children":[2,4,6,8,10,12,14,-1,-1,-1,-1,-1,-1,-1,-1],"split_conditions":[1E-45,2E0,1.53E0,-8E-2,-9E-1,1E-45,1E-45,2.4119582E-2,4.50338E-3,1.1571853E-2,-4.4714358E-2,3.351339E-2,-2.4336768E-2,-2.0113675E-2,-5.5820253E-2],"split_indices":[1,5,2,6,6,1,1,0,0,0,0,0,0,0,0],"split_type":[1,0,0,0,0,1,1,0,0,0,0,0,0,0,0],"sum_hessian":[1.595862E3,1.2905387E3,3.053234E2,1.1040405E3,1.8649814E2,2.348529E1,2.818381E2,5.831454E2,5.208952E2,6.832961E1,1.1816852E2,2.1578684E1,1.906606E0,1.3576877E2,1.4606935E2],"tree_param":{"num_deleted":"0","num_feature":"7","num_nodes":"15","size_leaf_vector":"1"}},{"base_weights":[9.337378E-3,1.5534039E-1,-7.8030413E-1,3.1490117E-1,-3.8047737E-1,2.5701416E-1,-1.4148629E0,2.2101345E-2,-2.0201826E-2,4.7401646E-3,-7.5093746E-2,3.848669E-2,-6.724574E-2,3.7760616E-3,-7.510384E-2],"categories":[0,4,5,6,8,9,11,13,18,20,22,23,24,29,0,1,2,3,4,5,6,7,8,9,11,12,14,16,17,18,19,20,21,23,24,25,26,27,28,29,30,31,32,33,35,36,37,4,5,13,14,16,18,27,28,30,31,33,35,38,1,2,7,8,9,11,12,14,17,20,22,24,25,28,29,32,33,36,1,2,3,5,6,8,9,10,11,12,13,14,15,16,17,18,19,20,22,23,25,26,27,28,29,31,32,33,34,35,36,38,39,0,1,2,3,4,6,7,8,9,10,11,12,13,14,15,16,17,18,19,20,21,22,23,24,25,26,27,28,29,30,31,32,33,34,35,36,37,38,39],"categories_nodes":[1,2,3,4,5,6],"categories_segments":[0,14,47,60,78,111],"categories_sizes":[14,33,13,18,33,39],"default_left":[0,1,1,1,1,1,1,0,0,0,0,0,0,0,0],"id":29,"left_children":[1,3,5,7,9,11,13,-1,-1,-1,-1,-1,-1,-1,-1],"loss_changes":[1.8562704E2,1.17327286E2,1.6902982E2,9.7943436E1,1.6995386E2,9.563249E1,2.1598267E1,0E0,0E0,0E0,0E0,0E0,0E0,0E0,0E0],"parents":[2147483647,0,0,1,1,2,2,3,3,4,4,5,5,6,6],"right_children":[2,4,6,8,10,12,14,-1,-1,-1,-1,-1,-1,-1,-1],"split_conditions":[2E0,1E-45,1E-45,1E-45,1E-45,1E-45,1E-45,2.2101345E-2,-2.0201826E-2,4.7401646E-3,-7.5093746E-2,3.848669E-2,-6.724574E-2,3.7760616E-3,-7.510384E-2],"split_indices":[5,1,0,0,0,1,1,0,0,0,0,0,0,0,0],"split_type":[0,1,1,1,1,1,1,0,0,0,0,0,0,0,0],"sum_hessian":[1.5895737E3,1.3483074E3,2.4126637E2,1.0421033E3,3.0620416E2,9.383055E1,1.4743582E2,8.887944E2,1.5330885E2,2.2148642E2,8.471774E1,7.5015686E1,1.8814861E1,8.2247715E0,1.3921104E2],"tree_param":{"num_deleted":"0","num_feature":"7","num_nodes":"15","size_leaf_vector":"1"}},{"base_weights":[4.921493E-2,-2.2780544E-1,3.0957505E-1,-6.1797844E-3,-1.3650349E0,4.5976725E-1,-7.097904E-1,1.4066477E-2,-4.4209264E-2,9.865477E-3,-8.923828E-2,2.5046507E-2,-4.420544E-2,2.3506088E-2,-9.45736E-2],"categories":[7,8,9,15,19,21,27,30,31,35,38,2,4,5,9,12,13,16,18,24,25,33,36,0,2,7,10,11,19,20,21,22,23,26,29,36,0,1,2,3,4,5,6,7,8,9,10,11,12,13,14,15,17,18,19,20,22,23,24,25,26,27,28,29,30,31,32,33,34,35,36,37,38,4,6,8,9,13,17,18,25,39,0,3,4,5,6,7,8,9,10,11,12,13,15,16,17,18,19,20,22,23,24,25,26,27,29,30,31,32,33,34,35,37,38,39],"categories_nodes":[1,2,3,4,5,6],"categories_segments":[0,11,23,36,73,82],"categories_sizes":[11,12,13,37,9,34],"default_left":[0,1,1,1,1,1,1,0,0,0,0,0,0,0,0],"id":30,"left_children":[1,3,5,7,9,11,13,-1,-1,-1,-1,-1,-1,-1,-1],"loss_changes":[1.167465E2,1.978334E2,1.3089185E2,1.7092116E2,8.7478455E1,4.4956818E1,1.636342E2,0E0,0E0,0E0,0E0,0E0,0E0,0E0,0E0],"parents":[2147483647,0,0,1,1,2,2,3,3,4,4,5,5,6,6],"right_children":[2,4,6,8,10,12,14,-1,-1,-1,-1,-1,-1,-1,-1],"split_conditions":[1E0,1E-45,1E-45,1E-45,1E-45,1E-45,1E-45,1.4066477E-2,-4.4209264E-2,9.865477E-3,-8.923828E-2,2.5046507E-2,-4.420544E-2,2.3506088E-2,-9.45736E-2],"split_indices":[4,0,0,1,1,1,1,0,0,0,0,0,0,0,0],"split_type":[0,1,1,1,1,1,1,0,0,0,0,0,0,0,0],"sum_hessian":[1.5988898E3,7.7526575E2,8.23624E2,6.5723645E2,1.1802927E2,7.2264056E2,1.00983406E2,5.002287E2,1.5700775E2,2.6116419E1,9.191285E1,7.0725006E2,1.5390546E1,5.354258E1,4.7440823E1],"tree_param":{"num_deleted":"0","num_feature":"7","num_nodes":"15","size_leaf_vector":"1"}},{"base_weights":[8.982052E-3,7.8136854E-2,-6.095619E-2,1.9312198E-1,-5.958658E-1,2.0622205E-2,-8.046229E-3,1.2147202E-2,-7.285806E-2],"categories":[2,3,4,5,6,7,11,12,13,14,15,17,18,20,22,23,26,29,30,31,35,0,1,2,3,5,7,8,9,11,12,14,16,17,18,19,20,21,23,25,26,27,28,31,32,33,35,36,37,38],"categories_nodes":[3,4],"categories_segments":[0,21],"categories_sizes":[21,29],"default_left":[0,0,0,1,1,0,0,0,0],"id":31,"left_children":[1,3,-1,5,7,-1,-1,-1,-1],"loss_changes":[1.3351263E2,1.16395134E2,0E0,9.98896E1,1.6187665E2,0E0,0E0,0E0,0E0],"parents":[2147483647,0,0,1,1,3,3,4,4],"right_children":[2,4,-1,6,8,-1,-1,-1,-1],"split_conditions":[7.7E0,2E0,-6.095619E-2,1E-45,1E-45,2.0622205E-2,-8.046229E-3,1.2147202E-2,-7.285806E-2],"split_indices":[6,5,0,1,0,0,0,0,0],"split_type":[0,0,0,1,1,0,0,0,0],"sum_hessian":[1.5508263E3,1.4770189E3,7.3807365E1,1.2678567E3,2.0916219E2,7.81864E2,4.8599268E2,1.0960141E2,9.9560776E1],"tree_param":{"num_deleted":"0","num_feature":"7","num_nodes":"9","size_leaf_vector":"1"}},{"base_weights":[4.0370863E-2,9.819725E-2,-9.563635E-1,2.8234458E-1,-2.1032947E-1,2.2404127E-1,-5.8480233E-2,1.5755497E-2,-5.255255E-2,-2.1570964E-2,2.5879494E-3,-2.2664519E-2,3.213637E-2],"categories":[0,1,2,4,5,7,8,12,13,14,16,18,21,24,25,29,31,32,35,38,0,1,2,3,4,5,6,7,8,9,10,11,12,13,14,15,16,17,18,19,20,21,22,23,25,26,27,28,29,30,31,32,33,34,35,36,37,38,39],"categories_nodes":[1,2],"categories_segments":[0,20],"categories_sizes":[20,39],"default_left":[0,1,1,0,0,0,0,0,0,0,0,0,0],"id":32,"left_children":[1,3,5,7,9,11,-1,-1,-1,-1,-1,-1,-1],"loss_changes":[9.351784E1,8.7361595E1,2.5024597E1,4.5282204E1,3.3632088E1,9.15563E0,0E0,0E0,0E0,0E0,0E0,0E0,0E0],"parents":[2147483647,0,0,1,1,2,2,3,3,4,4,5,5],"right_children":[2,4,6,8,10,12,-1,-1,-1,-1,-1,-1,-1],"split_conditions":[9.5E0,1E-45,1E-45,3E0,2.65E0,1E0,-5.8480233E-2,1.5755497E-2,-5.255255E-2,-2.1570964E-2,2.5879494E-3,-2.2664519E-2,3.213637E-2],"split_indices":[2,0,0,5,3,4,0,0,0,0,0,0,0],"split_type":[0,1,1,0,0,0,0,0,0,0,0,0,0],"sum_hessian":[1.5962222E3,1.5172145E3,7.9007675E1,9.5065497E2,5.665595E2,1.2011436E1,6.699624E1,9.3530853E2,1.5346431E1,3.0381213E2,2.627474E2,4.272722E0,7.7387147E0],"tree_param":{"num_deleted":"0","num_feature":"7","num_nodes":"13","size_leaf_vector":"1"}},{"base_weights":[4.9546793E-2,1.6825843E-1,-5.7900614E-1,3.2226568E-1,-3.2663593E-1,2.601303E-1,-6.637694E-2,2.5008664E-2,1.9353178E-3,1.4526776E-2,-8.272081E-2,3.7287846E-2,-5.111089E-2],"categories":[3,4,5,6,7,8,11,13,14,18,20,22,23,25,0,1,2,3,4,5,7,8,9,11,12,14,16,17,19,21,23,25,26,27,28,29,31,32,33,34,35,36,37,39,0,2,3,4,7,9,13,14,16,17,18,21,23,24,25,27,29,32,33,36,37,1,2,5,7,10,11,14,15,17,21,22,23,24,26,27,30,31,33,35,36,38,0,1,2,3,5,6,8,9,10,11,12,13,15,16,17,18,19,22,23,25,26,27,28,29,31,32,33,34,35,36,38],"categories_nodes":[1,2,3,4,5],"categories_segments":[0,14,44,65,86],"categories_sizes":[14,30,21,21,31],"default_left":[0,1,1,1,1,1,0,0,0,0,0,0,0],"id":33,"left_children":[1,3,5,7,9,11,-1,-1,-1,-1,-1,-1,-1],"loss_changes":[1.1994529E2,1.03861206E2,1.63967E2,5.1957977E1,2.712197E2,8.785914E1,0E0,0E0,0E0,0E0,0E0,0E0,0E0],"parents":[2147483647,0,0,1,1,2,2,3,3,4,4,5,5],"right_children":[2,4,6,8,10,12,-1,-1,-1,-1,-1,-1,-1],"split_conditions":[2E0,1E-45,1E-45,1E-45,1E-45,1E-45,-6.637694E-2,2.5008664E-2,1.9353178E-3,1.4526776E-2,-8.272081E-2,3.7287846E-2,-5.111089E-2],"split_indices":[5,1,0,0,0,1,0,0,0,0,0,0,0],"split_type":[0,1,1,1,1,1,0,0,0,0,0,0,0],"sum_hessian":[1.5844327E3,1.338887E3,2.4554578E2,1.02378217E3,3.1510486E2,1.18842804E2,1.26702965E2,6.243933E2,3.9938885E2,2.2044888E2,9.465597E1,8.923417E1,2.9608637E1],"tree_param":{"num_deleted":"0","num_feature":"7","num_nodes":"13","size_leaf_vector":"1"}},{"base_weights":[5.2810353E-3,2.2680216E-1,-4.1346744E-1,3.996066E-1,-3.1147233E-1,-5.896808E-2,-1.5059663E0,2.3995286E-2,-1.3334376E-2,2.8259358E-3,-6.1661035E-2,-2.129606E-2,1.2569698E-2,-8.3329424E-2,-5.1659197E-3],"categories":[0,2,3,4,6,9,11,14,16,18,20,22,23,25,31,34,2,4,8,13,15,16,18,21,24,25,29,30,32,37,38,1,2,5,6,7,10,14,17,19,23,27,31,33,34,38,7,12,15,17,24,26,32,37,39],"categories_nodes":[0,1,2,4],"categories_segments":[0,16,31,46],"categories_sizes":[16,15,15,9],"default_left":[1,1,1,0,1,0,0,0,0,0,0,0,0,0,0],"id":34,"left_children":[1,3,5,7,9,11,13,-1,-1,-1,-1,-1,-1,-1,-1],"loss_changes":[1.447786E2,9.617816E1,2.082633E2,4.2849747E1,8.6732544E1,4.8692192E1,2.7993774E1,0E0,0E0,0E0,0E0,0E0,0E0,0E0,0E0],"parents":[2147483647,0,0,1,1,2,2,3,3,4,4,5,5,6,6],"right_children":[2,4,6,8,10,12,14,-1,-1,-1,-1,-1,-1,-1,-1],"split_conditions":[1E-45,1E-45,1E-45,2E0,1E-45,1E0,3.79E0,2.3995286E-2,-1.3334376E-2,2.8259358E-3,-6.1661035E-2,-2.129606E-2,1.2569698E-2,-8.3329424E-2,-5.1659197E-3],"split_indices":[1,0,0,5,1,4,3,0,0,0,0,0,0,0,0],"split_type":[1,1,1,0,1,0,0,0,0,0,0,0,0,0,0],"sum_hessian":[1.5406501E3,1.01061237E3,5.300378E2,7.6696625E2,2.4364612E2,4.0814172E2,1.2189606E2,6.869724E2,7.99938E1,1.8083708E2,6.2809032E1,1.853142E2,2.2282755E2,1.0768315E2,1.4212909E1],"tree_param":{"num_deleted":"0","num_feature":"7","num_nodes":"15","size_leaf_vector":"1"}},{"base_weights":[6.868182E-2,1.8239918E-1,-5.780134E-1,2.870313E-1,-5.457178E-1,8.482612E-2,-6.561341E-2,1.6924677E-2,-5.4772753E-2,-3.1518284E-2,2.3328165E-2,1.4346554E-2,-4.3197375E-2],"categories":[7,13,14,16,18,24,26,28,30,38,1,2,3,4,5,7,8,9,10,11,12,14,16,17,18,19,20,21,23,25,26,27,28,29,31,32,33,35,36,37],"categories_nodes":[1,2],"categories_segments":[0,10],"categories_sizes":[10,30],"default_left":[0,1,1,0,0,0,0,0,0,0,0,0,0],"id":35,"left_children":[1,3,5,7,9,11,-1,-1,-1,-1,-1,-1,-1],"loss_changes":[1.1801021E2,1.0518699E2,1.1803255E2,8.878331E1,1.7880013E1,2.8489874E1,0E0,0E0,0E0,0E0,0E0,0E0,0E0],"parents":[2147483647,0,0,1,1,2,2,3,3,4,4,5,5],"right_children":[2,4,6,8,10,12,-1,-1,-1,-1,-1,-1,-1],"split_conditions":[2E0,1E-45,1E-45,9E0,1.8E1,5.75E0,-6.561341E-2,1.6924677E-2,-5.4772753E-2,-3.1518284E-2,2.3328165E-2,1.4346554E-2,-4.3197375E-2],"split_indices":[5,0,0,2,2,2,0,0,0,0,0,0,0],"split_type":[0,1,1,0,0,0,0,0,0,0,0,0,0],"sum_hessian":[1.5803612E3,1.3501289E3,2.302323E2,1.1857865E3,1.6434239E2,1.2564896E2,1.04583336E2,1.150511E3,3.527555E1,1.5514209E2,9.200301E0,1.09334595E2,1.6314363E1],"tree_param":{"num_deleted":"0","num_feature":"7","num_nodes":"13","size_leaf_vector":"1"}},{"base_weights":[7.7156864E-2,3.5199532E-1,-1.8079686E-1,4.1313925E-1,-7.8397624E-2,9.2681125E-2,-8.3245414E-1,2.420781E-2,-3.370532E-2,1.0198953E-2,-6.755308E-2,5.604468E-3,-7.954603E-2],"categories":[6,8,11,22,29,4,5,10,13,14,15,16,18,20,21,22,25,27,29,30,31,33,36,38,4,5,6,7,13,16,18,23,26,28,32,35,39,2,14,17,25,26,37,1,2,3,5,6,8,11,12,14,15,19,20,22,23,25,26,28,30,31,33,34,36,37,38],"categories_nodes":[1,2,3,5,6],"categories_segments":[0,5,24,37,43],"categories_sizes":[5,19,13,6,24],"default_left":[0,1,1,1,0,1,1,0,0,0,0,0,0],"id":36,"left_children":[1,3,5,7,-1,9,11,-1,-1,-1,-1,-1,-1],"loss_changes":[1.1281543E2,9.680918E1,1.4741232E2,6.1454636E1,0E0,9.7334854E1,1.7675723E2,0E0,0E0,0E0,0E0,0E0,0E0],"parents":[2147483647,0,0,1,1,2,2,3,3,5,5,6,6],"right_children":[2,4,6,8,-1,10,12,-1,-1,-1,-1,-1,-1],"split_conditions":[2.65E0,1E-45,1E-45,1E-45,-7.8397624E-2,1E-45,1E-45,2.420781E-2,-3.370532E-2,1.0198953E-2,-6.755308E-2,5.604468E-3,-7.954603E-2],"split_indices":[2,1,0,0,0,1,1,0,0,0,0,0,0],"split_type":[0,1,1,1,0,1,1,0,0,0,0,0,0],"sum_hessian":[1.572313E3,7.594773E2,8.128357E2,7.4364294E2,1.5834368E1,5.7859656E2,2.3423915E2,7.032546E2,4.0388382E1,5.451576E2,3.343897E1,1.0811816E2,1.26120995E2],"tree_param":{"num_deleted":"0","num_feature":"7","num_nodes":"13","size_leaf_vector":"1"}},{"base_weights":[5.4558177E-2,1.581154E-1,-5.292492E-1,5.3423846E-1,2.545064E-2,-8.454846E-1,3.0054114E-4,3.130689E-2,2.05819E-2,3.6937147E-3,-3.85967E-2,-2.9912585E-2,-5.52874E-2,-1.3229641E-2,4.16701E-2],"categories":[],"categories_nodes":[],"categories_segments":[],"categories_sizes":[],"default_left":[0,0,0,0,0,0,0,0,0,0,0,0,0,0,0],"id":37,"left_children":[1,3,5,7,9,11,13,-1,-1,-1,-1,-1,-1,-1,-1],"loss_changes":[9.5616165E1,6.668855E1,3.99403E1,1.3512878E0,3.9202587E1,2.9930496E0,2.4089384E1,0E0,0E0,0E0,0E0,0E0,0E0,0E0,0E0],"parents":[2147483647,0,0,1,1,2,2,3,3,4,4,5,5,6,6],"right_children":[2,4,6,8,10,12,14,-1,-1,-1,-1,-1,-1,-1,-1],"split_conditions":[2E0,1.91E0,2.8E0,1.55E0,7.7E0,1.9E0,2.63E0,3.130689E-2,2.05819E-2,3.6937147E-3,-3.85967E-2,-2.9912585E-2,-5.52874E-2,-1.3229641E-2,4.16701E-2],"split_indices":[5,2,3,2,6,3,2,0,0,0,0,0,0,0,0],"split_type":[0,0,0,0,0,0,0,0,0,0,0,0,0,0,0],"sum_hessian":[1.5577028E3,1.329215E3,2.2848785E2,3.386957E2,9.905192E2,1.3932182E2,8.916603E1,1.7011147E2,1.6858424E2,9.4236475E2,4.8154472E1,8.83662E1,5.0955627E1,7.2832245E1,1.6333778E1],"tree_param":{"num_deleted":"0","num_feature":"7","num_nodes":"15","size_leaf_vector":"1"}},{"base_weights":[7.788676E-2,2.628706E-1,-1.7463423E-1,4.065779E-1,-6.83252E-1,1.317838E-1,-9.4297546E-1,2.1594191E-2,-1.6047308E-2,1.8531336E-2,-7.271148E-2,-1.2515503E-2,2.2313131E-2,-1.974798E-2,-7.338339E-2],"categories":[0,2,3,5,6,11,12,13,14,15,17,18,20,22,23,24,25,31,2,4,5,13,16,18,23,27,28,29,32,35,37,38,1,2,3,4,7,8,10,12,13,14,15,16,24,26,30,33,36,39,0,1,2,3,4,5,6,7,8,9,11,12,13,14,15,17,18,19,20,21,22,23,24,25,26,27,29,30,32,34,35,37,38,0,2,3,5,6,12,17,22,24,25,31],"categories_nodes":[0,1,2,4,6],"categories_segments":[0,18,32,50,83],"categories_sizes":[18,14,18,33,11],"default_left":[1,1,1,0,1,0,1,0,0,0,0,0,0,0,0],"id":38,"left_children":[1,3,5,7,9,11,13,-1,-1,-1,-1,-1,-1,-1,-1],"loss_changes":[7.4599E1,1.27875854E2,1.6065117E2,1.6207108E1,1.0699814E2,6.0334377E1,5.0062393E1,0E0,0E0,0E0,0E0,0E0,0E0,0E0,0E0],"parents":[2147483647,0,0,1,1,2,2,3,3,4,4,5,5,6,6],"right_children":[2,4,6,8,10,12,14,-1,-1,-1,-1,-1,-1,-1,-1],"split_conditions":[1E-45,1E-45,1E-45,9.5E0,1E-45,1E0,1E-45,2.1594191E-2,-1.6047308E-2,1.8531336E-2,-7.271148E-2,-1.2515503E-2,2.2313131E-2,-1.974798E-2,-7.338339E-2],"split_indices":[1,0,0,2,1,4,1,0,0,0,0,0,0,0,0],"split_type":[1,1,1,0,1,0,1,0,0,0,0,0,0,0,0],"sum_hessian":[1.5771609E3,9.100762E2,6.6708466E2,7.9502234E2,1.1505386E2,4.8281903E2,1.8426564E2,7.7222516E2,2.2797148E1,5.0802612E1,6.425125E1,2.1889754E2,2.639215E2,9.870279E1,8.556284E1],"tree_param":{"num_deleted":"0","num_feature":"7","num_nodes":"15","size_leaf_vector":"1"}},{"base_weights":[1.6974226E-2,1.64547E-1,-4.302926E-1,2.8781074E-1,-4.8377338E-1,3.4204345E-2,-7.267149E-2,1.9454911E-2,-2.4346499E-2,-1.4032683E-3,-1.023527E-1,9.007558E-3,-4.7336873E-2],"categories":[2,5,6,9,11,18,20,21,22,23,32,0,1,4,7,13,15,16,18,27,32,36,1,2,5,6,7,8,14,17,21,24,25,27,28,31,33,34,35,38,1,8,12,19,25,28,30,31,35,37],"categories_nodes":[0,1,2,4],"categories_segments":[0,11,22,40],"categories_sizes":[11,11,18,10],"default_left":[1,1,1,0,1,0,0,0,0,0,0,0,0],"id":39,"left_children":[1,3,5,7,9,11,-1,-1,-1,-1,-1,-1,-1],"loss_changes":[9.974202E1,9.212821E1,1.7871445E2,7.725056E1,1.3130281E2,4.0028294E1,0E0,0E0,0E0,0E0,0E0,0E0,0E0],"parents":[2147483647,0,0,1,1,2,2,3,3,4,4,5,5],"right_children":[2,4,6,8,10,12,-1,-1,-1,-1,-1,-1,-1],"split_conditions":[1E-45,1E-45,1E-45,2E0,1E-45,7.17E0,-7.267149E-2,1.9454911E-2,-2.4346499E-2,-1.4032683E-3,-1.023527E-1,9.007558E-3,-4.7336873E-2],"split_indices":[1,0,0,5,1,6,0,0,0,0,0,0,0],"split_type":[1,1,1,0,1,0,0,0,0,0,0,0,0],"sum_hessian":[1.4904148E3,1.1254132E3,3.6500165E2,9.502961E2,1.7511708E2,2.576817E2,1.0731996E2,8.4482385E2,1.05472275E2,1.4347311E2,3.1643959E1,2.3141475E2,2.6266943E1],"tree_param":{"num_deleted":"0","num_feature":"7","num_nodes":"13","size_leaf_vector":"1"}},{"base_weights":[9.559786E-2,2.0319721E-1,-5.450708E-1,3.090749E-1,-2.8083745E-1,1.7081161E-1,-1.2018238E0,1.7765956E-2,-3.094328E-2,2.1249086E-2,-5.9414167E-2,2.8442858E-2,-6.1260637E-2,9.746682E-3,-6.5871395E-2],"categories":[3,4,5,6,13,14,17,18,20,22,23,27,0,1,2,3,5,6,7,8,9,11,12,14,16,17,18,19,20,21,23,25,26,27,28,29,31,32,33,35,36,37,4,13,16,18,27,32,33,1,2,4,5,6,7,8,9,10,12,13,14,15,16,17,18,20,21,22,23,24,26,27,28,29,30,31,33,35,38,39,1,2,3,4,5,6,7,8,9,10,11,12,13,15,16,17,18,19,22,23,25,26,27,28,29,31,32,33,35,36,38,39,0,1,2,3,4,6,7,8,9,10,11,12,13,14,15,16,17,18,19,20,21,22,23,24,25,26,27,28,29,30,31,32,33,34,35,36,37,38,39],"categories_nodes":[1,2,3,4,5,6],"categories_segments":[0,12,42,49,80,112],"categories_sizes":[12,30,7,31,32,39],"default_left":[0,1,1,1,1,1,1,0,0,0,0,0,0,0,0],"id":40,"left_children":[1,3,5,7,9,11,13,-1,-1,-1,-1,-1,-1,-1,-1],"loss_changes":[1.1030708E2,7.074933E1,1.1042573E2,5.04149E1,1.6515715E2,7.311937E1,2.218045E1,0E0,0E0,0E0,0E0,0E0,0E0,0E0,0E0],"parents":[2147483647,0,0,1,1,2,2,3,3,4,4,5,5,6,6],"right_children":[2,4,6,8,10,12,14,-1,-1,-1,-1,-1,-1,-1,-1],"split_conditions":[2E0,1E-45,1E-45,1E-45,1E-45,1E-45,1E-45,1.7765956E-2,-3.094328E-2,2.1249086E-2,-5.9414167E-2,2.8442858E-2,-6.1260637E-2,9.746682E-3,-6.5871395E-2],"split_indices":[5,1,0,0,0,1,1,0,0,0,0,0,0,0,0],"split_type":[0,1,1,1,1,1,1,0,0,0,0,0,0,0,0],"sum_hessian":[1.5740818E3,1.3535787E3,2.2050314E2,1.1136038E3,2.3997499E2,1.0904244E2,1.114607E2,1.0666193E3,4.698442E1,1.379742E2,1.02000786E2,8.9460045E1,1.9582394E1,7.995449E0,1.03465256E2],"tree_param":{"num_deleted":"0","num_feature":"7","num_nodes":"15","size_leaf_vector":"1"}},{"base_weights":[8.6069666E-2,1.7825836E-1,-4.4777954E-1,2.1524327E-1,-7.0287913E-1,-7.5582314E-1,3.9110962E-2,3.613305E-3,1.6946692E-2,-5.143675E-2,1.1211398E-2,-1.9084817E-2,-6.5805025E-2,-1.03536425E-2,4.0351935E-2],"categories":[],"categories_nodes":[],"categories_segments":[],"categories_sizes":[],"default_left":[0,0,0,0,0,0,0,0,0,0,0,0,0,0,0],"id":41,"left_children":[1,3,5,7,9,11,13,-1,-1,-1,-1,-1,-1,-1,-1],"loss_changes":[7.754306E1,4.508104E1,3.51635E1,2.2581108E1,1.928468E1,2.4926865E1,2.0499771E1,0E0,0E0,0E0,0E0,0E0,0E0,0E0,0E0],"parents":[2147483647,0,0,1,1,2,2,3,3,4,4,5,5,6,6],"right_children":[2,4,6,8,10,12,14,-1,-1,-1,-1,-1,-1,-1,-1],"split_conditions":[2E0,7.7E0,2.8E0,1E0,1.9E1,1.9E0,2.63E0,3.613305E-3,1.6946692E-2,-5.143675E-2,1.1211398E-2,-1.9084817E-2,-6.5805025E-2,-1.03536425E-2,4.0351935E-2],"split_indices":[5,6,3,4,2,3,2,0,0,0,0,0,0,0,0],"split_type":[0,0,0,0,0,0,0,0,0,0,0,0,0,0,0],"sum_hessian":[1.5493838E3,1.3269056E3,2.2247816E2,1.2807064E3,4.619923E1,1.3288293E2,8.959523E1,6.013883E2,6.793181E2,3.337318E1,1.2826049E1,8.9758835E1,4.3124096E1,7.337576E1,1.6219467E1],"tree_param":{"num_deleted":"0","num_feature":"7","num_nodes":"15","size_leaf_vector":"1"}},{"base_weights":[4.647341E-2,2.6454946E-1,-1.828979E-1,9.6502155E-2,4.9201193E-1,-5.030189E-2,-1.0742581E0,1.4833795E-2,-1.4384516E-2,2.6010323E-2,-3.7765585E-2,2.1189249E-3,-5.711299E-2,1.26806E-2,-6.0694177E-2],"categories":[0,1,2,4,5,7,8,9,12,13,14,16,17,18,21,25,26,27,30,31,32,33,35,36,37,15,20,22,29,34,38],"categories_nodes":[0,3],"categories_segments":[0,25],"categories_sizes":[25,6],"default_left":[1,0,0,1,0,0,0,0,0,0,0,0,0,0,0],"id":42,"left_children":[1,3,5,7,9,11,13,-1,-1,-1,-1,-1,-1,-1,-1],"loss_changes":[7.725231E1,2.9754272E1,8.8565186E1,3.6787964E1,1.5660233E1,6.796396E1,2.1087952E1,0E0,0E0,0E0,0E0,0E0,0E0,0E0,0E0],"parents":[2147483647,0,0,1,1,2,2,3,3,4,4,5,5,6,6],"right_children":[2,4,6,8,10,12,14,-1,-1,-1,-1,-1,-1,-1,-1],"split_conditions":[1E-45,3.5E0,2E0,1E-45,1.4E1,7.5E0,1.73E0,1.4833795E-2,-1.4384516E-2,2.6010323E-2,-3.7765585E-2,2.1189249E-3,-5.711299E-2,1.26806E-2,-6.0694177E-2],"split_indices":[0,3,5,0,3,2,2,0,0,0,0,0,0,0,0],"split_type":[1,0,0,1,0,0,0,0,0,0,0,0,0,0,0],"sum_hessian":[1.5247434E3,7.808306E2,7.439128E2,4.5725623E2,3.2357437E2,6.56777E2,8.713579E1,3.0212146E2,1.5513478E2,3.2212253E2,1.4518495E0,6.1425385E2,4.2523148E1,7.513822E0,7.962196E1],"tree_param":{"num_deleted":"0","num_feature":"7","num_nodes":"15","size_leaf_vector":"1"}},{"base_weights":[3.7513763E-2,1.0011348E-1,-7.158922E-1,1.2489511E-1,-5.1749654E-2,-4.7242865E-2,-4.364216E-3,2.291179E-3,2.2930259E-2,-1.9598497E-2,3.3348493E-2],"categories":[],"categories_nodes":[],"categories_segments":[],"categories_sizes":[],"default_left":[0,0,0,0,0,0,0,0,0,0,0],"id":43,"left_children":[1,3,5,7,-1,-1,9,-1,-1,-1,-1],"loss_changes":[7.118743E1,4.03464E1,1.8833092E1,3.5876717E1,0E0,0E0,1.256779E1,0E0,0E0,0E0,0E0],"parents":[2147483647,0,0,1,1,2,2,3,3,6,6],"right_children":[2,4,6,8,-1,-1,10,-1,-1,-1,-1],"split_conditions":[5.6E0,3E0,1E0,5E0,-5.1749654E-2,-4.7242865E-2,1.6E1,2.291179E-3,2.2930259E-2,-1.9598497E-2,3.3348493E-2],"split_indices":[6,5,4,3,0,0,2,0,0,0,0],"split_type":[0,0,0,0,0,0,0,0,0,0,0],"sum_hessian":[1.4841952E3,1.3783413E3,1.0585377E2,1.3576019E3,2.0739435E1,7.760251E1,2.8251253E1,1.1067372E3,2.5086469E2,2.0548544E1,7.7027097E0],"tree_param":{"num_deleted":"0","num_feature":"7","num_nodes":"11","size_leaf_vector":"1"}},{"base_weights":[5.5162674E-3,1.12013735E-1,-6.0467863E-1,1.5962502E-1,-5.1419567E-2,3.82108E-1,-8.995472E-1,-2.2520015E-3,1.7132362E-2,3.1570386E-2,-1.78868E-2,-6.4304166E-2,-1.6963337E-2],"categories":[2,4,6,9,13,16,18,24,32,33,35,38,6,24],"categories_nodes":[0,5],"categories_segments":[0,12],"categories_sizes":[12,2],"default_left":[1,0,0,0,0,1,0,0,0,0,0,0,0],"id":44,"left_children":[1,3,5,7,-1,9,11,-1,-1,-1,-1,-1,-1],"loss_changes":[9.5430466E1,6.950444E1,6.693605E1,4.5420055E1,0E0,1.2813778E1,3.2670685E1,0E0,0E0,0E0,0E0,0E0,0E0],"parents":[2147483647,0,0,1,1,2,2,3,3,5,5,6,6],"right_children":[2,4,6,8,-1,10,12,-1,-1,-1,-1,-1,-1],"split_conditions":[1E-45,7.6E0,-1.35E0,1E0,-5.1419567E-2,1E-45,3.25E0,-2.2520015E-3,1.7132362E-2,3.1570386E-2,-1.78868E-2,-6.4304166E-2,-1.6963337E-2],"split_indices":[0,6,6,4,0,0,6,0,0,0,0,0,0],"split_type":[1,0,0,0,0,1,0,0,0,0,0,0,0],"sum_hessian":[1.4480947E3,1.2398651E3,2.0822966E2,1.1984315E3,4.143358E1,4.722642E1,1.6100323E2,5.693233E2,6.2910815E2,3.6419933E1,1.0806487E1,8.7608246E1,7.3395E1],"tree_param":{"num_deleted":"0","num_feature":"7","num_nodes":"13","size_leaf_vector":"1"}},{"base_weights":[5.5051886E-2,2.7512836E-1,-1.3468371E-1,3.8914797E-1,-6.148652E-1,8.2049094E-2,-6.5088373E-1,2.6134375E-2,1.1240326E-2,1.6788106E-2,-6.605776E-2,-8.656579E-3,2.2904377E-2,-2.0946098E-2,-6.0421705E-2],"categories":[4,5,6,7,13,16,18,23,24,28,31,32,33,35,39,4,6,11,12,13,14,15,16,17,18,20,21,29,30,34,36,38,0,1,2,3,4,5,6,7,8,10,12,13,16,17,18,19,20,21,23,24,25,27,28,31,32,33,35,36,37,39,6,12,14,16,20,29],"categories_nodes":[1,2,3,6],"categories_segments":[0,15,32,62],"categories_sizes":[15,17,30,6],"default_left":[0,1,1,1,0,0,1,0,0,0,0,0,0,0,0],"id":45,"left_children":[1,3,5,7,9,11,13,-1,-1,-1,-1,-1,-1,-1,-1],"loss_changes":[6.3801792E1,7.409549E1,9.255182E1,1.2705284E1,6.091523E1,5.723093E1,2.6537415E1,0E0,0E0,0E0,0E0,0E0,0E0,0E0,0E0],"parents":[2147483647,0,0,1,1,2,2,3,3,4,4,5,5,6,6],"right_children":[2,4,6,8,10,12,14,-1,-1,-1,-1,-1,-1,-1,-1],"split_conditions":[-2E-1,1E-45,1E-45,1E-45,1.91E0,1E0,1E-45,2.6134375E-2,1.1240326E-2,1.6788106E-2,-6.605776E-2,-8.656579E-3,2.2904377E-2,-2.0946098E-2,-6.0421705E-2],"split_indices":[6,0,0,0,2,4,0,0,0,0,0,0,0,0,0],"split_type":[0,1,1,1,0,0,1,0,0,0,0,0,0,0,0],"sum_hessian":[1.5090802E3,6.965932E2,8.12487E2,6.224738E2,7.411937E1,5.78153E2,2.34334E2,3.3139008E2,2.9108374E2,3.383092E1,4.0288445E1,3.476397E2,2.305133E2,1.7785379E2,5.6480206E1],"tree_param":{"num_deleted":"0","num_feature":"7","num_nodes":"15","size_leaf_vector":"1"}},{"base_weights":[8.4228935E-3,1.4990982E-1,-6.163153E-1,3.484151E-1,4.297189E-2,-6.1437648E-2,-3.389857E-1,-3.945985E-2,2.0294636E-2,1.3575203E-2,-1.0777453E-2,-2.6439523E-2,4.308333E-2],"categories":[3,4,6,11,17,18,20,22,24,27,29,1,2,3,4,5,6,8,9,11,12,13,14,15,16,17,18,19,20,21,22,23,24,25,26,27,29,31,34,36,37],"categories_nodes":[0,1],"categories_segments":[0,11],"categories_sizes":[11,30],"default_left":[1,1,0,0,0,0,0,0,0,0,0,0,0],"id":46,"left_children":[1,3,5,7,9,-1,11,-1,-1,-1,-1,-1,-1],"loss_changes":[1.2921732E2,2.514194E1,4.1687614E1,3.0386497E1,4.7005665E1,0E0,5.0050117E1,0E0,0E0,0E0,0E0,0E0,0E0],"parents":[2147483647,0,0,1,1,2,2,3,3,4,4,6,6],"right_children":[2,4,6,8,10,-1,12,-1,-1,-1,-1,-1,-1],"split_conditions":[1E-45,1E-45,1.75E0,1.53E0,1E-1,-6.1437648E-2,5E0,-3.945985E-2,2.0294636E-2,1.3575203E-2,-1.0777453E-2,-2.6439523E-2,4.308333E-2],"split_indices":[1,1,3,3,6,0,2,0,0,0,0,0,0],"split_type":[1,1,0,0,0,0,0,0,0,0,0,0,0],"sum_hessian":[1.4414092E3,1.1814435E3,2.5996573E2,4.0572632E2,7.757171E2,7.0335205E1,1.8963051E2,1.3390625E1,3.923357E2,4.1147318E2,3.6424393E2,1.6857689E2,2.1053625E1],"tree_param":{"num_deleted":"0","num_feature":"7","num_nodes":"13","size_leaf_vector":"1"}},{"base_weights":[3.1671796E-3,1.0191509E-1,-7.151816E-1,2.8019524E-1,-2.1536818E-1,4.467257E-2,-1.2243165E0,2.4572983E-2,-1.5788963E-3,-2.6088196E-3,-8.010434E-2,-3.553271E-2,3.300253E-2,-8.277142E-2,-3.7866075E-2],"categories":[2,3,6,17,18,20,22,23,29,4,5,6,7,13,14,15,16,17,18,21,25,26,27,30,31,32,36,37,38,0,1,3,5,6,7,8,9,10,12,13,14,17,20,21,23,24,25,28,30,31,33,34,35,37,38,39,0,2,3,5,6,11,13,14,16,17,18,20,21,22,23,24,26,29,31,33,37,7,15,19,24,25,28,35],"categories_nodes":[0,1,2,3,4],"categories_segments":[0,9,29,56,77],"categories_sizes":[9,20,27,21,7],"default_left":[1,1,1,1,1,0,0,0,0,0,0,0,0,0,0],"id":47,"left_children":[1,3,5,7,9,11,13,-1,-1,-1,-1,-1,-1,-1,-1],"loss_changes":[1.0428231E2,7.369464E1,6.928203E1,5.4932846E1,1.0564108E2,4.2308643E1,8.952484E0,0E0,0E0,0E0,0E0,0E0,0E0,0E0,0E0],"parents":[2147483647,0,0,1,1,2,2,3,3,4,4,5,5,6,6],"right_children":[2,4,6,8,10,12,14,-1,-1,-1,-1,-1,-1,-1,-1],"split_conditions":[1E-45,1E-45,1E-45,1E-45,1E-45,3.6E0,1.2E0,2.4572983E-2,-1.5788963E-3,-2.6088196E-3,-8.010434E-2,-3.553271E-2,3.300253E-2,-8.277142E-2,-3.7866075E-2],"split_indices":[1,0,0,1,1,3,6,0,0,0,0,0,0,0,0],"split_type":[1,1,1,1,1,0,0,0,0,0,0,0,0,0,0],"sum_hessian":[1.4498263E3,1.2821559E3,1.6767047E2,8.2164557E2,4.6051028E2,7.093166E1,9.67388E1,4.863325E2,3.3531308E2,4.2130637E2,3.9203903E1,3.1149689E1,3.9781975E1,3.7069317E1,5.9669487E1],"tree_param":{"num_deleted":"0","num_feature":"7","num_nodes":"15","size_leaf_vector":"1"}},{"base_weights":[1.4627402E-2,1.2915601E-1,-5.513878E-1,1.7899542E-1,-7.614448E-1,3.6513728E-1,-8.7371916E-1,1.0215147E-2,-4.735216E-2,-5.166878E-2,7.2669997E-3,3.2328356E-2,-5.8707263E-2,-5.6398984E-2,-2.4733357E-2],"categories":[2,3,5,14,15,17,18,22,23,27,0,1,2,3,4,6,7,8,9,10,11,12,13,16,18,19,20,21,22,23],"categories_nodes":[0,5],"categories_segments":[0,10],"categories_sizes":[10,20],"default_left":[1,0,0,0,0,1,0,0,0,0,0,0,0,0,0],"id":48,"left_children":[1,3,5,7,9,11,13,-1,-1,-1,-1,-1,-1,-1,-1],"loss_changes":[9.442581E1,5.509155E1,7.562393E1,3.4832214E1,1.778931E1,3.828209E1,1.2186447E1,0E0,0E0,0E0,0E0,0E0,0E0,0E0,0E0],"parents":[2147483647,0,0,1,1,2,2,3,3,4,4,5,5,6,6],"right_children":[2,4,6,8,10,12,14,-1,-1,-1,-1,-1,-1,-1,-1],"split_conditions":[1E-45,9E0,-3.27E0,3E0,1.9E1,1E-45,1E0,1.0215147E-2,-4.735216E-2,-5.166878E-2,7.2669997E-3,3.2328356E-2,-5.8707263E-2,-5.6398984E-2,-2.4733357E-2],"split_indices":[1,2,6,5,2,1,4,0,0,0,0,0,0,0,0],"split_type":[1,0,0,0,0,1,0,0,0,0,0,0,0,0,0],"sum_hessian":[1.4356422E3,1.2004575E3,2.3518475E2,1.144405E3,5.605251E1,6.084593E1,1.7433882E2,1.1272557E3,1.7149235E1,4.2047173E1,1.4005339E1,5.6344006E1,4.5019217E0,9.252021E1,8.181861E1],"tree_param":{"num_deleted":"0","num_feature":"7","num_nodes":"15","size_leaf_vector":"1"}},{"base_weights":[2.2504019E-2,6.5950796E-2,-5.123291E-2,1.8836631E-1,-2.823925E-1,1.8619372E-2,-5.27629E-3,9.949401E-3,-6.6689596E-2],"categories":[1,4,7,9,13,14,15,16,18,21,24,27,30,31,33,2,5,8,13,16,18,20,21,22,24,25,27,29,34,35,36,37,39,3,6,7,11,12,14,17,19,20,22,23,25,26,27,28,31,32,33,38],"categories_nodes":[1,3,4],"categories_segments":[0,15,33],"categories_sizes":[15,18,19],"default_left":[0,1,0,1,1,0,0,0,0],"id":49,"left_children":[1,3,-1,5,7,-1,-1,-1,-1],"loss_changes":[6.754293E1,6.110952E1,0E0,5.7567677E1,1.916451E2,0E0,0E0,0E0,0E0],"parents":[2147483647,0,0,1,1,3,3,4,4],"right_children":[2,4,-1,6,8,-1,-1,-1,-1],"split_conditions":[7.7E0,1E-45,-5.123291E-2,1E-45,1E-45,1.8619372E-2,-5.27629E-3,9.949401E-3,-6.6689596E-2],"split_indices":[6,0,0,1,1,0,0,0,0],"split_type":[0,1,0,1,1,0,0,0,0],"sum_hessian":[1.4597428E3,1.4105878E3,4.9155113E1,1.0471786E3,3.6340912E2,6.423186E2,4.0486E2,2.548391E2,1.0857003E2],"tree_param":{"num_deleted":"0","num_feature":"7","num_nodes":"9","size_leaf_vector":"1"}},{"base_weights":[5.985397E-2,1.384847E-1,-7.415054E-1,2.4422553E-1,-2.7899182E-1,3.4340465E-1,-1.3510492E0,1.9205382E-2,9.830305E-4,5.535101E-3,-6.3907556E-2,2.5631065E-2,-2.6663193E-2,-2.8637588E-2,-7.801073E-2],"categories":[2,4,8,13,16,17,18,25,27,32,2,3,13,14,16,18,19,20,22,37,0,1,2,4,5,6,7,8,9,10,11,12,13,15,16,17,18,19,20,21,22,23,24,25,26,27,28,29,31,32,34,35,37,38,39,1,2,4,6,7,8,13,14,16,17,18,19,21,25,27,28,30,31,32,35,36,37,38,1,3,5,7,11,12,15,21,23,26,29,33,35,39,0,1,2,3,4,5,6,7,8,9,10,11,12,13,14,15,16,18,0,2,5,8,11,12,15,19,20,21,22,23,24,32,34,35,37,38],"categories_nodes":[0,1,2,3,4,5,6],"categories_segments":[0,10,20,55,78,92,110],"categories_sizes":[10,10,35,23,14,18,18],"default_left":[1,1,1,1,1,1,1,0,0,0,0,0,0,0,0],"id":50,"left_children":[1,3,5,7,9,11,13,-1,-1,-1,-1,-1,-1,-1,-1],"loss_changes":[9.438009E1,6.0610504E1,9.322355E1,3.4118484E1,1.1005968E2,1.1064869E1,5.3560333E0,0E0,0E0,0E0,0E0,0E0,0E0,0E0,0E0],"parents":[2147483647,0,0,1,1,2,2,3,3,4,4,5,5,6,6],"right_children":[2,4,6,8,10,12,14,-1,-1,-1,-1,-1,-1,-1,-1],"split_conditions":[1E-45,1E-45,1E-45,1E-45,1E-45,1E-45,1E-45,1.9205382E-2,9.830305E-4,5.535101E-3,-6.3907556E-2,2.5631065E-2,-2.6663193E-2,-2.8637588E-2,-7.801073E-2],"split_indices":[0,1,1,0,0,0,1,0,0,0,0,0,0,0,0],"split_type":[1,1,1,1,1,1,1,0,0,0,0,0,0,0,0],"sum_hessian":[1.4715275E3,1.3475732E3,1.2395426E2,1.0785435E3,2.690297E2,4.6160564E1,7.77937E1,6.601991E2,4.1834442E2,1.9994057E2,6.908913E1,4.2172874E1,3.9876883E0,2.4396788E1,5.339691E1],"tree_param":{"num_deleted":"0","num_feature":"7","num_nodes":"15","size_leaf_vector":"1"}},{"base_weights":[5.4093145E-2,2.1730506E-1,-3.0482557E-1,5.3289276E-1,1.0848422E-1,-8.8164735E-1,8.854823E-2,3.406704E-2,-1.4119898E-2,8.400465E-3,-3.6137365E-2,-2.9983927E-2,-7.026395E-2,8.811427E-3,-6.0341813E-2],"categories":[0,1,2,3,4,5,6,8,10,11,17,18,20,22,23,25,26,0,1,2,3,4,5,6,7,8,10,11,13,17,18,20,21,22,23,25,26,27,29,35,36,37,2,3,20,22,23,6,8,17,25],"categories_nodes":[0,3,5,6],"categories_segments":[0,17,42,47],"categories_sizes":[17,25,5,4],"default_left":[1,0,0,1,0,1,1,0,0,0,0,0,0,0,0],"id":51,"left_children":[1,3,5,7,9,11,13,-1,-1,-1,-1,-1,-1,-1,-1],"loss_changes":[8.699357E1,3.4413532E1,1.06254684E2,3.3233635E1,3.932335E1,1.9534927E1,3.454821E1,0E0,0E0,0E0,0E0,0E0,0E0,0E0,0E0],"parents":[2147483647,0,0,1,1,2,2,3,3,4,4,5,5,6,6],"right_children":[2,4,6,8,10,12,14,-1,-1,-1,-1,-1,-1,-1,-1],"split_conditions":[1E-45,1.91E0,1E0,1E-45,3.6E0,1E-45,1E-45,3.406704E-2,-1.4119898E-2,8.400465E-3,-3.6137365E-2,-2.9983927E-2,-7.026395E-2,8.811427E-3,-6.0341813E-2],"split_indices":[1,2,4,1,3,1,1,0,0,0,0,0,0,0,0],"split_type":[1,0,0,1,0,1,1,0,0,0,0,0,0,0,0],"sum_hessian":[1.4637357E3,1.0089013E3,4.548344E2,2.4869615E2,7.6020514E2,1.7938362E2,2.7545078E2,2.1177853E2,3.691762E1,7.168498E2,4.3355328E1,1.3054118E2,4.8842438E1,2.6608026E2,9.370531E0],"tree_param":{"num_deleted":"0","num_feature":"7","num_nodes":"15","size_leaf_vector":"1"}},{"base_weights":[7.7983834E-2,1.5428245E-1,-3.6184454E-1,1.9764689E-1,-9.687579E-1,3.6267072E-1,-9.205306E-1,2.243587E-2,5.890584E-3,1.7446557E-2,-6.1121643E-2,3.6651302E-2,-4.108496E-2,2.030788E-2,-6.400665E-2],"categories":[18,20,23,27,0,1,2,3,4,5,7,8,9,10,11,12,13,14,15,16,17,18,19,21,23,25,26,27,28,29,31,32,33,35,36,37,38,39,0,1,2,3,4,5,6,7,8,9,10,11,12,13,14,15,16,17,18,19,20,21,22,23,24,25,27,28,29,30,31,32,33,34,35,36,37,38,39,1,2,3,5,6,7,8,9,10,11,12,13,15,16,17,18,19,22,23,25,26,27,28,29,31,32,33,34,35,36,38,0,1,2,3,4,6,8,9,10,11,12,13,14,15,16,17,18,19,20,21,22,23,24,25,26,27,28,29,31,32,33,34,35,36,37,38,39],"categories_nodes":[1,2,4,5,6],"categories_segments":[0,4,38,77,108],"categories_sizes":[4,34,39,31,37],"default_left":[0,1,1,0,1,1,1,0,0,0,0,0,0,0,0],"id":52,"left_children":[1,3,5,7,9,11,13,-1,-1,-1,-1,-1,-1,-1,-1],"loss_changes":[5.032333E1,6.3799416E1,9.328453E1,2.4161774E1,2.0623577E1,5.1607014E1,6.640414E1,0E0,0E0,0E0,0E0,0E0,0E0,0E0,0E0],"parents":[2147483647,0,0,1,1,2,2,3,3,4,4,5,5,6,6],"right_children":[2,4,6,8,10,12,14,-1,-1,-1,-1,-1,-1,-1,-1],"split_conditions":[2E0,1E-45,1E-45,1.91E0,1E-45,1E-45,1E-45,2.243587E-2,5.890584E-3,1.7446557E-2,-6.1121643E-2,3.6651302E-2,-4.108496E-2,2.030788E-2,-6.400665E-2],"split_indices":[5,1,0,2,0,1,1,0,0,0,0,0,0,0,0],"split_type":[0,1,1,0,1,1,1,0,0,0,0,0,0,0,0],"sum_hessian":[1.472944E3,1.2607323E3,2.1221156E2,1.2217947E3,3.893762E1,9.392119E1,1.18290375E2,2.8362585E2,9.381689E2,5.6797376E0,3.3257877E1,7.445101E1,1.9470175E1,2.4949398E1,9.334098E1],"tree_param":{"num_deleted":"0","num_feature":"7","num_nodes":"15","size_leaf_vector":"1"}},{"base_weights":[5.1096722E-2,9.21787E-2,-5.042553E-2,2.3070407E-1,-1.8734726E-1,2.2033522E-2,-6.6333315E-3,8.335457E-3,-6.8459794E-2],"categories":[0,2,4,7,8,13,14,16,18,19,20,21,24,28,32,33,36,1,2,3,5,8,9,11,13,14,16,17,18,19,22,29,32,33,34,36,0,2,6,10,12,15,21,22,23,24,26,27,29,30,31],"categories_nodes":[1,3,4],"categories_segments":[0,17,36],"categories_sizes":[17,19,15],"default_left":[0,1,0,1,1,0,0,0,0],"id":53,"left_children":[1,3,-1,5,7,-1,-1,-1,-1],"loss_changes":[6.4515854E1,5.523707E1,0E0,7.3130264E1,2.0083809E2,0E0,0E0,0E0,0E0],"parents":[2147483647,0,0,1,1,3,3,4,4],"right_children":[2,4,-1,6,8,-1,-1,-1,-1],"split_conditions":[9.5E0,1E-45,-5.042553E-2,1E-45,1E-45,2.2033522E-2,-6.6333315E-3,8.335457E-3,-6.8459794E-2],"split_indices":[2,0,0,1,1,0,0,0,0],"split_type":[0,1,0,1,1,0,0,0,0],"sum_hessian":[1.4507191E3,1.4053619E3,4.5357147E1,9.408494E2,4.645125E2,5.949452E2,3.4590427E2,3.640426E2,1.004699E2],"tree_param":{"num_deleted":"0","num_feature":"7","num_nodes":"9","size_leaf_vector":"1"}},{"base_weights":[1.9011302E-3,6.1790787E-2,-8.3782744E-1,1.398538E-1,-4.661881E-1,-3.9004934E-1,-5.139293E-2,1.0473154E-2,-1.519838E-2,4.540067E-3,-4.725097E-2,-4.7641344E-2,1.7766355E-2],"categories":[0,2,8,15,18,19,31],"categories_nodes":[1],"categories_segments":[0],"categories_sizes":[7],"default_left":[0,1,0,0,0,0,0,0,0,0,0,0,0],"id":54,"left_children":[1,3,5,7,9,11,-1,-1,-1,-1,-1,-1,-1],"loss_changes":[7.136836E1,5.5235382E1,4.029869E0,3.6518463E1,4.6969307E1,2.1953398E1,0E0,0E0,0E0,0E0,0E0,0E0,0E0],"parents":[2147483647,0,0,1,1,2,2,3,3,4,4,5,5],"right_children":[2,4,6,8,10,12,-1,-1,-1,-1,-1,-1,-1],"split_conditions":[5.6E0,1E-45,9E0,2E0,2.35E0,7.1E0,-5.139293E-2,1.0473154E-2,-1.519838E-2,4.540067E-3,-4.725097E-2,-4.7641344E-2,1.7766355E-2],"split_indices":[6,1,2,5,2,6,0,0,0,0,0,0,0],"split_type":[0,1,0,0,0,0,0,0,0,0,0,0,0],"sum_hessian":[1.3988123E3,1.3143375E3,8.447474E1,1.1514447E3,1.6289285E2,3.4263603E1,5.0211136E1,9.9990015E2,1.5154456E2,7.9046974E1,8.384588E1,1.793732E1,1.632628E1],"tree_param":{"num_deleted":"0","num_feature":"7","num_nodes":"13","size_leaf_vector":"1"}},{"base_weights":[3.1111976E-2,8.378305E-2,-8.671253E-1,1.1863395E-1,-4.7964826E-2,1.0303077E-1,-7.1807176E-2,1.3278328E-2,-5.7492284E-3,2.352246E-2,-4.5181062E-2],"categories":[6,12,16,18,22,0,1,2,4,7,13,14,16,18,21,23,24,30,31,33,35,36,37,0,1,2,3,4,5,6,7,8,9,10,12,13,14,15,16,17,18,21,23,24,25,26,27,28,29,30,32,33,35,36,37,38,39],"categories_nodes":[0,3,5],"categories_segments":[0,5,23],"categories_sizes":[5,18,34],"default_left":[1,0,0,1,0,1,0,0,0,0,0],"id":55,"left_children":[1,3,5,7,-1,9,-1,-1,-1,-1,-1],"loss_changes":[6.91546E1,5.1135067E1,4.619153E1,4.6294914E1,0E0,1.8776865E1,0E0,0E0,0E0,0E0,0E0],"parents":[2147483647,0,0,1,1,2,2,3,3,5,5],"right_children":[2,4,6,8,-1,10,-1,-1,-1,-1,-1],"split_conditions":[1E-45,7.7E0,-1.35E0,1E-45,-4.7964826E-2,1E-45,-7.1807176E-2,1.3278328E-2,-5.7492284E-3,2.352246E-2,-4.5181062E-2],"split_indices":[1,6,6,0,0,0,0,0,0,0,0],"split_type":[1,0,0,1,0,1,0,0,0,0,0],"sum_hessian":[1.4363428E3,1.3653483E3,7.099441E1,1.329781E3,3.5567375E1,2.927348E1,4.172093E1,8.1550665E2,5.142743E2,2.5348217E1,3.9252636E0],"tree_param":{"num_deleted":"0","num_feature":"7","num_nodes":"11","size_leaf_vector":"1"}},{"base_weights":[2.8809693E-3,1.9652845E-1,-2.5819093E-1,2.3412897E-1,-4.120004E-2,-4.7820404E-1,-3.8782056E-2,1.2916446E-2,-4.0022206E-2,-8.991602E-3,-6.351053E-2,1.5699532E-2,-2.3259075E-2],"categories":[0,4,5,7,8,13,14,16,18,19,20,21,24,25,26,27,32,33,35,37,38,7,8,19,21,27,37,38,0,4,5,13,14,16,18,20,24,26,32,33,35],"categories_nodes":[0,5,6],"categories_segments":[0,21,28],"categories_sizes":[21,7,13],"default_left":[1,0,0,0,0,1,1,0,0,0,0,0,0],"id":56,"left_children":[1,3,5,7,-1,9,11,-1,-1,-1,-1,-1,-1],"loss_changes":[7.2142845E1,3.336415E1,2.9152267E1,2.2044075E1,0E0,6.921775E1,4.886984E1,0E0,0E0,0E0,0E0,0E0,0E0],"parents":[2147483647,0,0,1,1,2,2,3,3,5,5,6,6],"right_children":[2,4,6,8,-1,10,12,-1,-1,-1,-1,-1,-1],"split_conditions":[1E-45,7.6E0,1E0,3E0,-4.120004E-2,1E-45,1E-45,1.2916446E-2,-4.0022206E-2,-8.991602E-3,-6.351053E-2,1.5699532E-2,-2.3259075E-2],"split_indices":[0,6,4,5,0,0,0,0,0,0,0,0,0],"split_type":[1,0,0,0,0,1,1,0,0,0,0,0,0],"sum_hessian":[1.4069543E3,8.0920605E2,5.977483E2,7.87883E2,2.1323053E1,2.9257373E2,3.0517456E2,7.772062E2,1.0676784E1,2.2142648E2,7.114724E1,1.6844847E2,1.3672609E2],"tree_param":{"num_deleted":"0","num_feature":"7","num_nodes":"13","size_leaf_vector":"1"}},{"base_weights":[4.8204012E-2,2.0800352E-1,-2.2756532E-1,2.3442863E-1,-4.290008E-2,-1.1039494E-1,-9.391461E-1,1.3555221E-2,-1.9508278E-2,8.0051797E-4,-2.1454876E-2,-9.823515E-3,-5.857135E-2],"categories":[1,2,5,6,8,11,12,16,17,18,20,22,23,26,29,31,33,34,5,8,17,20,22,29,1,5,6,8,11,12,22,23,26,31,33,34],"categories_nodes":[0,5,6],"categories_segments":[0,18,24],"categories_sizes":[18,6,12],"default_left":[1,0,0,0,0,1,1,0,0,0,0,0,0],"id":57,"left_children":[1,3,5,7,-1,9,11,-1,-1,-1,-1,-1,-1],"loss_changes":[6.288567E1,2.7417465E1,4.2683502E1,2.1398308E1,0E0,1.8663319E1,1.02580185E1,0E0,0E0,0E0,0E0,0E0,0E0],"parents":[2147483647,0,0,1,1,2,2,3,3,5,5,6,6],"right_children":[2,4,6,8,-1,10,12,-1,-1,-1,-1,-1,-1],"split_conditions":[1E-45,3E0,2E0,7.5E0,-4.290008E-2,1E-45,1E-45,1.3555221E-2,-1.9508278E-2,8.0051797E-4,-2.1454876E-2,-9.823515E-3,-5.857135E-2],"split_indices":[1,5,5,2,0,1,1,0,0,0,0,0,0],"split_type":[1,0,0,0,0,1,1,0,0,0,0,0,0],"sum_hessian":[1.4062795E3,8.9190594E2,5.1437366E2,8.7794354E2,1.39623995E1,4.515688E2,6.280485E1,8.3459607E2,4.334746E1,3.301291E2,1.214397E2,1.9360739E1,4.3444115E1],"tree_param":{"num_deleted":"0","num_feature":"7","num_nodes":"13","size_leaf_vector":"1"}},{"base_weights":[2.7806444E-2,1.0320036E-1,-7.2982395E-1,2.9872036E-1,-4.522917E-2,1.2012173E-1,-8.1943765E-2,2.1287858E-2,-2.5623618E-2,3.02132E-3,-3.758297E-2,2.272818E-2,-2.8146422E-2],"categories":[1,2,4,13,14,16,18,27,35,1,3,4,5,7,8,9,11,12,13,14,15,17,18,19,20,21,22,23,24,27,35,37,0,3,5,6,8,11,14,19,20,21,22,23,24,28,30,31,33,34,38,0,6,7,17,20,23,28,32,9,21,26,29,33,36,38],"categories_nodes":[0,1,2,3,4],"categories_segments":[0,9,32,51,59],"categories_sizes":[9,23,19,8,7],"default_left":[1,1,1,1,1,0,0,0,0,0,0,0,0],"id":58,"left_children":[1,3,5,7,9,11,-1,-1,-1,-1,-1,-1,-1],"loss_changes":[8.107214E1,3.7503178E1,1.0125507E2,5.9579643E1,5.573446E1,1.9858015E1,0E0,0E0,0E0,0E0,0E0,0E0,0E0],"parents":[2147483647,0,0,1,1,2,2,3,3,4,4,5,5],"right_children":[2,4,6,8,10,12,-1,-1,-1,-1,-1,-1,-1],"split_conditions":[1E-45,1E-45,1E-45,1E-45,1E-45,2.54E0,-8.1943765E-2,2.1287858E-2,-2.5623618E-2,3.02132E-3,-3.758297E-2,2.272818E-2,-2.8146422E-2],"split_indices":[0,1,1,0,0,2,0,0,0,0,0,0,0],"split_type":[1,1,1,1,1,0,0,0,0,0,0,0,0],"sum_hessian":[1.3961265E3,1.2776243E3,1.1850212E2,5.4698224E2,7.306421E2,6.572712E1,5.2775E1,4.7702863E2,6.99536E1,6.4353754E2,8.710455E1,4.6368702E1,1.935842E1],"tree_param":{"num_deleted":"0","num_feature":"7","num_nodes":"13","size_leaf_vector":"1"}},{"base_weights":[5.7626233E-2,1.5480472E-1,-3.8436913E-1,5.764506E-1,9.569637E-2,1.9981529E-1,-6.5124875E-1,3.1877726E-2,-2.1079602E-2,-4.375737E-2,5.8186054E-3,1.9628478E-2,-2.8566694E-2,-5.7154436E-2,-1.3232659E-2],"categories":[4,5,7,10,13,16,18,21,25,26,29,30,33,35,36,0,1,2,3,4,5,6,7,8,9,10,11,12,13,14,15,16,17,18,19,20,22,23,24,25,30],"categories_nodes":[0,5],"categories_segments":[0,15],"categories_sizes":[15,26],"default_left":[1,0,0,0,0,1,0,0,0,0,0,0,0,0,0],"id":59,"left_children":[1,3,5,7,9,11,13,-1,-1,-1,-1,-1,-1,-1,-1],"loss_changes":[6.3153328E1,2.9382595E1,4.2675358E1,1.1572147E1,2.2404068E1,1.575E1,3.205748E1,0E0,0E0,0E0,0E0,0E0,0E0,0E0,0E0],"parents":[2147483647,0,0,1,1,2,2,3,3,4,4,5,5,6,6],"right_children":[2,4,6,8,10,12,14,-1,-1,-1,-1,-1,-1,-1,-1],"split_conditions":[1E-45,1.57E0,2.29E0,1.4E1,1.65E0,1E-45,1.65E0,3.1877726E-2,-2.1079602E-2,-4.375737E-2,5.8186054E-3,1.9628478E-2,-2.8566694E-2,-5.7154436E-2,-1.3232659E-2],"split_indices":[0,2,2,3,2,0,6,0,0,0,0,0,0,0,0],"split_type":[1,0,0,0,0,1,0,0,0,0,0,0,0,0,0],"sum_hessian":[1.4464554E3,1.1910787E3,2.5537671E2,1.3568114E2,1.0553976E3,8.086993E1,1.7450679E2,1.3125703E2,4.4241E0,1.3389967E1,1.0420076E3,6.8625725E1,1.22442045E1,6.8187836E1,1.0631895E2],"tree_param":{"num_deleted":"0","num_feature":"7","num_nodes":"15","size_leaf_vector":"1"}},{"base_weights":[5.8527973E-2,1.7222422E-1,-2.579012E-1,2.5196013E-1,-3.0901754E-1,1.5773202E-1,-1.2353121E0,1.4197889E-2,-3.955416E-2,1.0272244E-2,-7.817628E-2,1.810117E-2,-1.2981226E-2,-2.7102565E-2,-8.444838E-2],"categories":[2,4,7,9,12,13,14,16,18,24,30,32,33,35,36,38,0,2,3,4,8,10,13,15,17,18,23,29,35,1,5,6,7,10,12,15,19,20,22,23,24,25,27,30,33,37,5,6,8,10,15,17,19,20,25,28,29,31,39,1,4,5,6,7,9,10,12,13,14,15,16,18,26,31,34,35,36,2,24,30,32,33,36,38],"categories_nodes":[0,1,2,4,5,6],"categories_segments":[0,16,29,46,59,77],"categories_sizes":[16,13,17,13,18,7],"default_left":[1,1,1,0,1,1,1,0,0,0,0,0,0,0,0],"id":60,"left_children":[1,3,5,7,9,11,13,-1,-1,-1,-1,-1,-1,-1,-1],"loss_changes":[5.183128E1,4.1329575E1,1.5695555E2,3.2686924E1,1.0305462E2,2.452219E1,2.7005112E1,0E0,0E0,0E0,0E0,0E0,0E0,0E0,0E0],"parents":[2147483647,0,0,1,1,2,2,3,3,4,4,5,5,6,6],"right_children":[2,4,6,8,10,12,14,-1,-1,-1,-1,-1,-1,-1,-1],"split_conditions":[1E-45,1E-45,1E-45,9E0,1E-45,1E-45,1E-45,1.4197889E-2,-3.955416E-2,1.0272244E-2,-7.817628E-2,1.810117E-2,-1.2981226E-2,-2.7102565E-2,-8.444838E-2],"split_indices":[0,1,1,2,0,1,0,0,0,0,0,0,0,0,0],"split_type":[1,1,1,0,1,1,1,0,0,0,0,0,0,0,0],"sum_hessian":[1.4183397E3,1.0467787E3,3.715611E2,9.0207947E2,1.4469923E2,2.66585E2,1.04976105E2,8.8229083E2,1.9788605E1,1.085473E2,3.6151924E1,1.798676E2,8.671739E1,5.020424E1,5.477187E1],"tree_param":{"num_deleted":"0","num_feature":"7","num_nodes":"15","size_leaf_vector":"1"}},{"base_weights":[1.1404363E-2,9.4833925E-2,-4.7855714E-1,1.5021135E-1,-2.754675E-1,1.6720507E-2,-1.0970327E0,2.5594527E-2,4.944189E-3,-4.0144168E-2,1.7190289E-2,-8.661392E-3,3.737076E-2,-2.649583E-2,-6.980447E-2],"categories":[3,5,6,15,17,18,20,25,27,36],"categories_nodes":[0],"categories_segments":[0],"categories_sizes":[10],"default_left":[1,0,0,0,0,0,0,0,0,0,0,0,0,0,0],"id":61,"left_children":[1,3,5,7,9,11,13,-1,-1,-1,-1,-1,-1,-1,-1],"loss_changes":[5.686731E1,2.4767372E1,6.2199413E1,1.8792795E1,5.43745E1,1.826589E1,7.896591E0,0E0,0E0,0E0,0E0,0E0,0E0,0E0,0E0],"parents":[2147483647,0,0,1,1,2,2,3,3,4,4,5,5,6,6],"right_children":[2,4,6,8,10,12,14,-1,-1,-1,-1,-1,-1,-1,-1],"split_conditions":[1E-45,4.35E0,-2E-1,1.57E0,1E0,-3.7E-1,3.5E0,2.5594527E-2,4.944189E-3,-4.0144168E-2,1.7190289E-2,-8.661392E-3,3.737076E-2,-2.649583E-2,-6.980447E-2],"split_indices":[1,6,6,2,4,6,2,0,0,0,0,0,0,0,0],"split_type":[1,0,0,0,0,0,0,0,0,0,0,0,0,0,0],"sum_hessian":[1.3700695E3,1.1776127E3,1.9245682E2,1.029585E3,1.480277E2,1.12275665E2,8.018115E1,1.1680312E2,9.127818E2,7.834162E1,6.9686066E1,9.5165985E1,1.710968E1,3.725405E1,4.2927105E1],"tree_param":{"num_deleted":"0","num_feature":"7","num_nodes":"15","size_leaf_vector":"1"}},{"base_weights":[6.744286E-2,1.4674798E-1,-4.7979027E-1,2.6473635E-1,-1.5545811E-1,5.06938E-1,-1.2731384E0,1.452403E-2,-5.8173906E-2,5.853203E-3,-4.295072E-2,3.0767828E-2,-3.020306E-2,-7.3166974E-2,3.0814388E-3],"categories":[3,4,5,12,17,18,20,23,31,2,3,4,5,7,12,13,16,18,20,21,26,27,30,32,35,37,0,1,2,4,7,8,9,10,11,12,13,14,15,16,18,19,21,22,23,24,25,26,27,28,29,31,32,33,34,36,38,39,6,16,29,2,7,8,11,14,15,19,26,28,36,37,0,1,2,4,6,7,8,9,10,11,13,14,15,16,17,23],"categories_nodes":[0,1,2,3,4,5],"categories_segments":[0,9,26,58,61,72],"categories_sizes":[9,17,32,3,11,16],"default_left":[1,1,1,1,1,1,0,0,0,0,0,0,0,0,0],"id":62,"left_children":[1,3,5,7,9,11,13,-1,-1,-1,-1,-1,-1,-1,-1],"loss_changes":[6.2921696E1,4.5333122E1,1.5034198E2,3.6830612E1,7.004049E1,1.4446089E1,2.7491486E1,0E0,0E0,0E0,0E0,0E0,0E0,0E0,0E0],"parents":[2147483647,0,0,1,1,2,2,3,3,4,4,5,5,6,6],"right_children":[2,4,6,8,10,12,14,-1,-1,-1,-1,-1,-1,-1,-1],"split_conditions":[1E-45,1E-45,1E-45,1E-45,1E-45,1E-45,8.5E0,1.452403E-2,-5.8173906E-2,5.853203E-3,-4.295072E-2,3.0767828E-2,-3.020306E-2,-7.3166974E-2,3.0814388E-3],"split_indices":[1,0,0,1,1,1,3,0,0,0,0,0,0,0,0],"split_type":[1,1,1,1,1,1,0,0,0,0,0,0,0,0,0],"sum_hessian":[1.4236388E3,1.2498314E3,1.7380742E2,8.997771E2,3.5005432E2,7.907182E1,9.473559E1,8.916705E2,8.106647E0,2.5832742E2,9.172689E1,7.6106125E1,2.9657009E0,8.2076614E1,1.2658971E1],"tree_param":{"num_deleted":"0","num_feature":"7","num_nodes":"15","size_leaf_vector":"1"}},{"base_weights":[-2.0155834E-2,1.07484646E-1,-5.1580715E-1,1.8475413E-1,-1.7697206E-1,-7.7641416E-1,-7.695623E-2,1.7312314E-2,2.0180712E-3,1.5531343E-2,-4.1662715E-2,-6.856965E-2,-1.8783722E-2,4.145466E-2,-2.156279E-2],"categories":[0,2,6,11,15,16,18,22,27,34,0,2,4,5,6,9,11,13,14,15,16,17,18,19,21,22,23,24,25,27,29,32,33,34,35,37,38,39,0,1,2,3,4,5,6,7,8,9,10,11,12,13,14,15,16,17,18,19,20,22,23,25,26,27,28,29,31,32,34,36,37,38],"categories_nodes":[0,3,4],"categories_segments":[0,10,38],"categories_sizes":[10,28,34],"default_left":[1,0,0,1,1,0,0,0,0,0,0,0,0,0,0],"id":63,"left_children":[1,3,5,7,9,11,13,-1,-1,-1,-1,-1,-1,-1,-1],"loss_changes":[8.537267E1,2.3942175E1,3.0999374E1,1.967588E1,7.766553E1,3.5915222E1,4.0182484E1,0E0,0E0,0E0,0E0,0E0,0E0,0E0,0E0],"parents":[2147483647,0,0,1,1,2,2,3,3,4,4,5,5,6,6],"right_children":[2,4,6,8,10,12,14,-1,-1,-1,-1,-1,-1,-1,-1],"split_conditions":[1E-45,1.85E0,3.83E0,1E-45,1E-45,1E0,3.93E0,1.7312314E-2,2.0180712E-3,1.5531343E-2,-4.1662715E-2,-6.856965E-2,-1.8783722E-2,4.145466E-2,-2.156279E-2],"split_indices":[1,6,6,1,1,4,6,0,0,0,0,0,0,0,0],"split_type":[1,0,0,1,1,0,0,0,0,0,0,0,0,0,0],"sum_hessian":[1.3306786E3,1.0644039E3,2.6627463E2,8.397895E2,2.2461444E2,1.6223882E2,1.0403582E2,3.8982303E2,4.499665E2,1.3189047E2,9.2723976E1,5.5546825E1,1.06691986E2,2.5478586E1,7.8557236E1],"tree_param":{"num_deleted":"0","num_feature":"7","num_nodes":"15","size_leaf_vector":"1"}},{"base_weights":[7.327882E-2,2.5233167E-1,-8.802461E-2,2.7031507E-2,4.5110375E-1,-3.4786172E-2,-6.893671E-1,8.787575E-3,-4.9613647E-2,-2.7459174E-2,2.4005909E-2,-4.549625E-3,3.1148696E-2,-5.0531782E-2,1.4552908E-2],"categories":[0,1,2,3,4,5,7,8,12,13,16,17,18,20,21,24,25,26,28,29,31,32,33,35,36,38,9,15,27,30],"categories_nodes":[0,3],"categories_segments":[0,26],"categories_sizes":[26,4],"default_left":[1,0,0,1,0,0,0,0,0,0,0,0,0,0,0],"id":64,"left_children":[1,3,5,7,9,11,13,-1,-1,-1,-1,-1,-1,-1,-1],"loss_changes":[4.103946E1,2.998872E1,2.3799603E1,5.1130535E1,1.2985474E1,2.6459007E1,2.2010433E1,0E0,0E0,0E0,0E0,0E0,0E0,0E0,0E0],"parents":[2147483647,0,0,1,1,2,2,3,3,4,4,5,5,6,6],"right_children":[2,4,6,8,10,12,14,-1,-1,-1,-1,-1,-1,-1,-1],"split_conditions":[1E-45,1E0,5.6E0,1E-45,1.33E0,4.93E0,1.9E1,8.787575E-3,-4.9613647E-2,-2.7459174E-2,2.4005909E-2,-4.549625E-3,3.1148696E-2,-5.0531782E-2,1.4552908E-2],"split_indices":[0,4,6,0,2,6,2,0,0,0,0,0,0,0,0],"split_type":[1,0,0,1,0,0,0,0,0,0,0,0,0,0,0],"sum_hessian":[1.4032528E3,6.623624E2,7.4089044E2,3.157886E2,3.4657382E2,6.9035034E2,5.0540062E1,2.8280252E2,3.298608E1,4.715757E0,3.4185806E2,6.4394147E2,4.640888E1,3.7834282E1,1.270578E1],"tree_param":{"num_deleted":"0","num_feature":"7","num_nodes":"15","size_leaf_vector":"1"}},{"base_weights":[4.3760516E-2,7.646322E-2,-7.9958534E-1,-9.86117E-2,2.4316797E-1,-1.8492334E-1,-5.7356305E-2,2.927908E-3,-5.7862908E-2,2.1045955E-2,-1.6325828E-2,-3.5125412E-2,3.270081E-2],"categories":[2,4,5,9,13,16,18,7,8,10,21,25,27,30,37,38,0,12,20,22,29,31,32,33,36,39],"categories_nodes":[0,3,4],"categories_segments":[0,7,16],"categories_sizes":[7,9,10],"default_left":[1,0,0,1,1,0,0,0,0,0,0,0,0],"id":65,"left_children":[1,3,5,7,9,11,-1,-1,-1,-1,-1,-1,-1],"loss_changes":[3.8939095E1,3.955184E1,9.147217E0,1.1117547E2,7.153453E1,1.8044516E1,0E0,0E0,0E0,0E0,0E0,0E0,0E0],"parents":[2147483647,0,0,1,1,2,2,3,3,4,4,5,5],"right_children":[2,4,6,8,10,12,-1,-1,-1,-1,-1,-1,-1],"split_conditions":[1E-45,1E0,3.2E0,1E-45,1E-45,8E-1,-5.7356305E-2,2.927908E-3,-5.7862908E-2,2.1045955E-2,-1.6325828E-2,-3.5125412E-2,3.270081E-2],"split_indices":[0,4,2,0,0,6,0,0,0,0,0,0,0],"split_type":[1,0,0,1,1,0,0,0,0,0,0,0,0],"sum_hessian":[1.3797075E3,1.3369573E3,4.2750305E1,6.540999E2,6.8285736E2,2.0974905E1,2.17754E1,5.7776935E2,7.633053E1,5.224542E2,1.6040312E2,1.3977626E1,6.9972796E0],"tree_param":{"num_deleted":"0","num_feature":"7","num_nodes":"13","size_leaf_vector":"1"}},{"base_weights":[1.9050209E-2,1.0189023E-1,-4.728873E-1,2.3342237E-1,-2.4400485E-1,-5.2801378E-2,1.3931698E-1,1.3285862E-2,-2.399974E-2,-1.8949572E-2,8.115432E-3,3.3677783E-2,-5.0212752E-2],"categories":[4,5,7,12,13,18,20,21,22,23,25,26,29,36,37,0,1,2,3,6,8,9,10,11,12,13,15,16,17,18,19,22,23,24,25,26,27,28,29,31,32,33,35,36,38,39],"categories_nodes":[1,6],"categories_segments":[0,15],"categories_sizes":[15,31],"default_left":[0,1,0,0,0,0,1,0,0,0,0,0,0],"id":66,"left_children":[1,3,5,7,9,-1,11,-1,-1,-1,-1,-1,-1],"loss_changes":[5.642434E1,5.439763E1,7.273608E1,2.1142242E1,1.8760887E1,0E0,7.1657166E1,0E0,0E0,0E0,0E0,0E0,0E0],"parents":[2147483647,0,0,1,1,2,2,3,3,4,4,6,6],"right_children":[2,4,6,8,10,-1,12,-1,-1,-1,-1,-1,-1],"split_conditions":[2E0,1E-45,2.8E0,5.55E0,3.83E0,-5.2801378E-2,1E-45,1.3285862E-2,-2.399974E-2,-1.8949572E-2,8.115432E-3,3.3677783E-2,-5.0212752E-2],"split_indices":[5,1,3,6,6,0,1,0,0,0,0,0,0],"split_type":[0,1,0,0,0,0,1,0,0,0,0,0,0],"sum_hessian":[1.3627511E3,1.1731301E3,1.8962093E2,8.5228625E2,3.2084387E2,9.3402794E1,9.621814E1,8.2137964E2,3.0906654E1,2.4133826E2,7.950562E1,6.838229E1,2.7835848E1],"tree_param":{"num_deleted":"0","num_feature":"7","num_nodes":"13","size_leaf_vector":"1"}},{"base_weights":[2.8146867E-2,1.08486325E-1,-4.997045E-1,2.6095912E-1,-1.5128063E-1,3.6681712E-1,-1.0351746E0,1.4022817E-2,-2.9636273E-2,-1.9270664E-2,2.4226762E-3,2.955538E-2,-3.335811E-2,-5.9365988E-2,1.6874362E-2],"categories":[3,4,5,7,9,12,13,14,18,20,21,22,24,25,27,36,37,0,1,2,3,6,8,9,10,11,12,13,15,16,17,18,19,20,21,22,23,24,25,26,27,28,29,31,32,33,34,35,36,38,39],"categories_nodes":[1,2],"categories_segments":[0,17],"categories_sizes":[17,34],"default_left":[0,1,1,0,0,0,0,0,0,0,0,0,0,0,0],"id":67,"left_children":[1,3,5,7,9,11,13,-1,-1,-1,-1,-1,-1,-1,-1],"loss_changes":[5.922026E1,4.828481E1,8.943338E1,1.4404987E1,2.1396225E1,2.2003632E1,2.8376564E1,0E0,0E0,0E0,0E0,0E0,0E0,0E0,0E0],"parents":[2147483647,0,0,1,1,2,2,3,3,4,4,5,5,6,6],"right_children":[2,4,6,8,10,12,14,-1,-1,-1,-1,-1,-1,-1,-1],"split_conditions":[2E0,1E-45,1E-45,9.5E0,1E0,3.1E0,9E0,1.4022817E-2,-2.9636273E-2,-1.9270664E-2,2.4226762E-3,2.955538E-2,-3.335811E-2,-5.9365988E-2,1.6874362E-2],"split_indices":[5,1,1,2,4,2,3,0,0,0,0,0,0,0,0],"split_type":[0,1,1,0,0,0,0,0,0,0,0,0,0,0,0],"sum_hessian":[1.3736805E3,1.1991184E3,1.7456215E2,7.555783E2,4.4354007E2,6.78744E1,1.0668775E2,7.4527185E2,1.0306445E1,1.9990768E2,2.436324E2,5.929526E1,8.579135E0,9.7257965E1,9.429782E0],"tree_param":{"num_deleted":"0","num_feature":"7","num_nodes":"15","size_leaf_vector":"1"}},{"base_weights":[5.2902155E-2,1.2739423E-1,-4.1713426E-1,1.8832801E-1,-3.790856E-1,2.0230551E-1,-1.1800598E0,1.0697715E-2,-4.0927153E-2,-5.346647E-3,-3.840721E-2,1.8800149E-2,-3.439572E-2,-6.343727E-2,3.4701861E-3],"categories":[3,4,5,9,13,18,20,22,23,1,2,3,6,8,9,10,11,12,13,15,16,17,18,19,20,22,23,24,25,26,27,28,29,31,32,33,34,35,36,38,39],"categories_nodes":[1,2],"categories_segments":[0,9],"categories_sizes":[9,32],"default_left":[0,1,1,0,0,0,0,0,0,0,0,0,0,0,0],"id":68,"left_children":[1,3,5,7,9,11,13,-1,-1,-1,-1,-1,-1,-1,-1],"loss_changes":[4.903643E1,3.785459E1,9.305333E1,2.9641022E1,1.3214106E1,2.0279009E1,1.0568832E1,0E0,0E0,0E0,0E0,0E0,0E0,0E0,0E0],"parents":[2147483647,0,0,1,1,2,2,3,3,4,4,5,5,6,6],"right_children":[2,4,6,8,10,12,14,-1,-1,-1,-1,-1,-1,-1,-1],"split_conditions":[2E0,1E-45,1E-45,9.5E0,3.6E0,5.75E0,9E0,1.0697715E-2,-4.0927153E-2,-5.346647E-3,-3.840721E-2,1.8800149E-2,-3.439572E-2,-6.343727E-2,3.4701861E-3],"split_indices":[5,1,1,2,2,2,3,0,0,0,0,0,0,0,0],"split_type":[0,1,1,0,0,0,0,0,0,0,0,0,0,0,0],"sum_hessian":[1.3753043E3,1.1934537E3,1.8185063E2,1.0708975E3,1.2255634E2,1.04418625E2,7.7432E1,1.0519977E3,1.8899767E1,7.961376E1,4.294259E1,9.220426E1,1.2214368E1,7.215612E1,5.27588E0],"tree_param":{"num_deleted":"0","num_feature":"7","num_nodes":"15","size_leaf_vector":"1"}},{"base_weights":[3.0875955E-2,9.99433E-2,-4.7602335E-1,1.5627143E-1,-7.040205E-1,2.793633E-1,-8.3811365E-2,9.921773E-3,-3.8313325E-2,1.7688364E-2,-8.1136964E-2,2.8045526E-2,-1.4938727E-2],"categories":[2,8,11,15,16,18,20,13,16,18,23,24,38,5,6,7,8,11,12,15,17,19,20,21,22,25,26,28,29,31,33,35,36,37,38,39,0,1,2,3,4,5,6,7,8,9,10,11,12,13,15,16,17,18,19,20,21,22,23,24,25,26,27,29,30,31,32,33,35,36,38,39],"categories_nodes":[0,1,2,4],"categories_segments":[0,7,13,36],"categories_sizes":[7,6,23,36],"default_left":[1,1,1,0,1,0,0,0,0,0,0,0,0],"id":69,"left_children":[1,3,5,7,9,11,-1,-1,-1,-1,-1,-1,-1],"loss_changes":[4.8689453E1,5.6360527E1,1.5597456E2,4.619653E1,8.515082E1,1.9741646E1,0E0,0E0,0E0,0E0,0E0,0E0,0E0],"parents":[2147483647,0,0,1,1,2,2,3,3,4,4,5,5],"right_children":[2,4,6,8,10,12,-1,-1,-1,-1,-1,-1,-1],"split_conditions":[1E-45,1E-45,1E-45,5.6E0,1E-45,3.6E0,-8.3811365E-2,9.921773E-3,-3.8313325E-2,1.7688364E-2,-8.1136964E-2,2.8045526E-2,-1.4938727E-2],"split_indices":[1,0,0,6,1,2,0,0,0,0,0,0,0],"split_type":[1,1,1,0,1,0,0,0,0,0,0,0,0],"sum_hessian":[1.3671333E3,1.2102584E3,1.568749E2,1.1385447E3,7.171364E1,1.0098753E2,5.5887363E1,1.0962886E3,4.225616E1,3.619223E1,3.5521404E1,6.811446E1,3.287307E1],"tree_param":{"num_deleted":"0","num_feature":"7","num_nodes":"13","size_leaf_vector":"1"}},{"base_weights":[3.2591954E-2,1.6844052E-1,-3.3364362E-1,2.927769E-1,-5.394397E-1,9.102509E-2,-1.3248441E0,1.7348854E-2,-6.604445E-3,1.5930213E-2,-6.2993556E-2,1.765378E-2,-2.5332004E-2,-6.746845E-3,-7.237275E-2],"categories":[1,4,5,7,9,10,13,16,17,18,19,20,21,25,28,29,31,35,38,2,5,9,12,13,16,18,22,24,25,26,29,31,2,3,6,7,8,11,14,15,17,19,20,22,23,32,34,0,2,6,8,11,14,15,23,24,30,32,33,34,36,39,1,4,5,7,9,10,16,17,18,19,20,21,28,29,31,35,38],"categories_nodes":[0,1,2,4,6],"categories_segments":[0,19,32,47,62],"categories_sizes":[19,13,15,15,17],"default_left":[1,1,1,0,1,0,1,0,0,0,0,0,0,0,0],"id":70,"left_children":[1,3,5,7,9,11,13,-1,-1,-1,-1,-1,-1,-1,-1],"loss_changes":[6.72522E1,8.822169E1,1.5528217E2,1.9889397E1,9.710385E1,4.338764E1,1.4158051E1,0E0,0E0,0E0,0E0,0E0,0E0,0E0,0E0],"parents":[2147483647,0,0,1,1,2,2,3,3,4,4,5,5,6,6],"right_children":[2,4,6,8,10,12,14,-1,-1,-1,-1,-1,-1,-1,-1],"split_conditions":[1E-45,1E-45,1E-45,4.35E0,1E-45,3.2E0,1E-45,1.7348854E-2,-6.604445E-3,1.5930213E-2,-6.2993556E-2,1.765378E-2,-2.5332004E-2,-6.746845E-3,-7.237275E-2],"split_indices":[0,1,1,6,0,2,0,0,0,0,0,0,0,0,0],"split_type":[1,1,1,0,1,0,1,0,0,0,0,0,0,0,0],"sum_hessian":[1.3304371E3,9.744011E2,3.56036E2,8.3380975E2,1.405914E2,2.5560611E2,1.0042989E2,7.411007E2,