{"learner":{"attributes":{"best_iteration":"72","best_score":"0.23258597179116186","scikit_learn":"{\"_estimator_type\": \"classifier\"}"},"feature_names":["Trailing_Team","Leading_Team","Trailing_Odds","Leading_Odds","Is_Trailing_Team_Home","Deficit","Odds_Diff"],"feature_types":["int","int","float","float","int","float","float"],"gradient_booster":{"model":{"cats":{"enc":[],"feature_segments":[],"sorted_idx":[]},"gbtree_model_param":{"num_parallel_tree":"1","num_trees":"123"},"iteration_indptr":[0,1,2,3,4,5,6,7,8,9,10,11,12,13,14,15,16,17,18,19,20,21,22,23,24,25,26,27,28,29,30,31,32,33,34,35,36,37,38,39,40,41,42,43,44,45,46,47,48,49,50,51,52,53,54,55,56,57,58,59,60,61,62,63,64,65,66,67,68,69,70,71,72,73,74,75,76,77,78,79,80,81,82,83,84,85,86,87,88,89,90,91,92,93,94,95,96,97,98,99,100,101,102,103,104,105,106,107,108,109,110,111,112,113,114,115,116,117,118,119,120,121,122,123],"tree_info":[0,0,0,0,0,0,0,0,0,0,0,0,0,0,0,0,0,0,0,0,0,0,0,0,0,0,0,0,0,0,0,0,0,0,0,0,0,0,0,0,0,0,0,0,0,0,0,0,0,0,0,0,0,0,0,0,0,0,0,0,0,0,0,0,0,0,0,0,0,0,0,0,0,0,0,0,0,0,0,0,0,0,0,0,0,0,0,0,0,0,0,0,0,0,0,0,0,0,0,0,0,0,0,0,0,0,0,0,0,0,0,0,0,0,0,0,0,0,0,0,0,0,0],"trees":[{"base_weights":[6.2424695E-1,7.8009826E-1,-4.282504E0,-2.9124398E0,8.4568113E-1,-1.3128376E0,-5.3890834E0,-3.1157202E-1,-1.7654204E0,-1.316405E-1,8.9307815E-1,-1.6724762E-2,-3.5340483E0,-2.9651207E-1,-4.072717E0,2.0148901E-2,-1.5141223E-1,-3.4677856E-2,2.5445927E-2,3.4836482E-2,4.8850548E-2,4.9310286E-2,-7.2421156E-2,-2.3946658E-1,-2.6407305E-3,-2.4523234E-1,-2.25059E-2],"categories":[],"categories_nodes":[],"categories_segments":[],"categories_sizes":[],"default_left":[0,0,0,0,0,0,0,0,0,0,0,0,0,0,0,0,0,0,0,0,0,0,0,0,0,0,0],"id":0,"left_children":[1,3,5,7,9,11,13,-1,15,17,19,21,23,-1,25,-1,-1,-1,-1,-1,-1,-1,-1,-1,-1,-1,-1],"loss_changes":[3.629251E3,1.1155474E3,4.730979E2,2.952143E2,2.0935034E2,1.1794606E2,5.1450684E1,0E0,1.6872937E2,7.5866776E1,7.031763E1,4.0039078E1,6.5730804E1,0E0,1.0059656E2,0E0,0E0,0E0,0E0,0E0,0E0,0E0,0E0,0E0,0E0,0E0,0E0],"parents":[2147483647,0,0,1,1,2,2,3,3,4,4,5,5,6,6,8,8,9,9,10,10,11,11,12,12,14,14],"right_children":[2,4,6,8,10,12,14,-1,16,18,20,22,24,-1,26,-1,-1,-1,-1,-1,-1,-1,-1,-1,-1,-1,-1],"split_conditions":[2E0,1.45E0,2.2778342E0,2.2E1,1.7617283E0,1E0,2.2153754E0,-3.1157202E-1,2.5E1,3.3E1,2.6367674E0,3.5E0,8.684161E0,-2.9651207E-1,3.3502731E0,2.0148901E-2,-1.5141223E-1,-3.4677856E-2,2.5445927E-2,3.4836482E-2,4.8850548E-2,4.9310286E-2,-7.2421156E-2,-2.3946658E-1,-2.6407305E-3,-2.4523234E-1,-2.25059E-2],"split_indices":[5,3,2,0,3,4,3,0,0,0,3,3,3,0,2,0,0,0,0,0,0,0,0,0,0,0,0],"split_type":[0,0,0,0,0,0,0,0,0,0,0,0,0,0,0,0,0,0,0,0,0,0,0,0,0,0,0],"sum_hessian":[4.7404644E3,4.595345E3,1.4511926E2,7.943573E1,4.5159097E3,3.9989105E1,1.0513016E2,1.9263216E1,6.0172512E1,2.0879509E2,4.3071143E3,2.5889618E1,1.4099487E1,7.201842E1,3.311174E1,2.2396435E1,3.777608E1,1.1118112E2,9.7613976E1,1.2925898E3,3.0145244E3,1.540753E1,1.0482089E1,1.0086635E1,4.0128527E0,2.6639969E1,6.471771E0],"tree_param":{"num_deleted":"0","num_feature":"7","num_nodes":"27","size_leaf_vector":"1"}},{"base_weights":[6.036986E-1,7.58754E-1,-3.6202579E0,8.1119686E-1,-3.117971E0,-1.5528481E0,-4.3345323E0,8.584501E-1,-2.5275493E-1,-3.7500865E0,5.2183233E-3,-3.0516598E0,4.6282685E-1,-3.5911355E0,-2.5221583E-1,4.7871664E-2,3.3057634E-2,-4.88697E-2,2.4598768E-2,-2.5261548E-1,-4.7775842E-2,-1.4892115E-1,3.74288E-2,-6.51063E-2,-1.911698E-1,4.584331E-2,-6.432679E-2,-1.3530211E-1,-2.316804E-1],"categories":[],"categories_nodes":[],"categories_segments":[],"categories_sizes":[],"default_left":[0,0,0,0,0,0,0,0,0,0,0,0,0,0,0,0,0,0,0,0,0,0,0,0,0,0,0,0,0],"id":1,"left_children":[1,3,5,7,9,11,13,15,17,19,21,23,25,27,-1,-1,-1,-1,-1,-1,-1,-1,-1,-1,-1,-1,-1,-1,-1],"loss_changes":[3.060767E3,9.1834595E2,2.3766333E2,2.2370386E2,1.1912366E2,1.3450804E2,4.6493652E1,8.249219E1,1.0291107E2,1.7777087E2,2.6967468E1,2.9314331E1,1.6792217E1,4.5846863E1,0E0,0E0,0E0,0E0,0E0,0E0,0E0,0E0,0E0,0E0,0E0,0E0,0E0,0E0,0E0],"parents":[2147483647,0,0,1,1,2,2,3,3,4,4,5,5,6,6,7,7,8,8,9,9,10,10,11,11,12,12,13,13],"right_children":[2,4,6,8,10,12,14,16,18,20,22,24,26,28,-1,-1,-1,-1,-1,-1,-1,-1,-1,-1,-1,-1,-1,-1,-1],"split_conditions":[2E0,9E0,2.3751416E0,5.5E0,2.3E1,3.7E1,4.5012426E0,2.75E0,3.3E1,1E0,1.8E1,1.7288165E0,1E0,2.2E1,-2.5221583E-1,4.7871664E-2,3.3057634E-2,-4.88697E-2,2.4598768E-2,-2.5261548E-1,-4.7775842E-2,-1.4892115E-1,3.74288E-2,-6.51063E-2,-1.911698E-1,4.584331E-2,-6.432679E-2,-1.3530211E-1,-2.316804E-1],"split_indices":[5,2,2,2,1,1,2,2,0,4,0,2,4,1,0,0,0,0,0,0,0,0,0,0,0,0,0,0,0],"split_type":[0,0,0,0,0,0,0,0,0,0,0,0,0,0,0,0,0,0,0,0,0,0,0,0,0,0,0,0,0],"sum_hessian":[4.668108E3,4.5036074E3,1.6450064E2,4.4442773E3,5.9329765E1,4.305511E1,1.2144553E2,4.2554727E3,1.8880486E2,4.9176083E1,1.0153683E1,2.4398762E1,1.865635E1,6.2277905E1,5.9167633E1,2.8312136E3,1.424259E3,9.553489E1,9.326997E1,3.2993675E1,1.6182405E1,1.4254773E0,8.728205E0,8.290771E0,1.610799E1,1.5189792E1,3.4665575E0,3.5626026E1,2.6651878E1],"tree_param":{"num_deleted":"0","num_feature":"7","num_nodes":"29","size_leaf_vector":"1"}},{"base_weights":[6.034186E-1,7.543655E-1,-2.9791155E0,8.076569E-1,-2.3975718E0,-1.4677211E0,-3.4136531E0,8.5197055E-1,-2.3106353E-1,-3.4768386E0,-5.0365895E-1,-2.3542569E0,2.683335E-1,-2.889071E0,-2.0685852E-1,4.671836E-2,3.202383E-2,-3.265873E-2,3.14329E-2,-2.2144501E-1,-2.4667215E-2,-1.3257912E-1,4.047164E-2,-7.620118E-2,-2.0891619E-1,3.7000228E-2,-1.4429118E-1,-1.1060437E-1,-1.9354317E-1],"categories":[],"categories_nodes":[],"categories_segments":[],"categories_sizes":[],"default_left":[0,0,0,0,0,0,0,0,0,0,0,0,0,0,0,0,0,0,0,0,0,0,0,0,0,0,0,0,0],"id":2,"left_children":[1,3,5,7,9,11,13,15,17,19,21,23,25,27,-1,-1,-1,-1,-1,-1,-1,-1,-1,-1,-1,-1,-1,-1,-1],"loss_changes":[2.508441E3,7.4905444E2,1.1818201E2,2.0156177E2,1.4992548E2,6.779868E1,4.3056885E1,7.2520996E1,6.5653336E1,1.315976E2,8.141608E1,3.753627E1,2.5418495E1,4.9483948E1,0E0,0E0,0E0,0E0,0E0,0E0,0E0,0E0,0E0,0E0,0E0,0E0,0E0,0E0,0E0],"parents":[2147483647,0,0,1,1,2,2,3,3,4,4,5,5,6,6,7,7,8,8,9,9,10,10,11,11,12,12,13,13],"right_children":[2,4,6,8,10,12,14,16,18,20,22,24,26,28,-1,-1,-1,-1,-1,-1,-1,-1,-1,-1,-1,-1,-1,-1,-1],"split_conditions":[2E0,8.5E0,2.3751416E0,5.5E0,1E0,3.7E1,5.75E0,3E0,3.2E1,2.3E1,1.3323771E1,2.3E1,1E0,2.2E1,-2.0685852E-1,4.671836E-2,3.202383E-2,-3.265873E-2,3.14329E-2,-2.2144501E-1,-2.4667215E-2,-1.3257912E-1,4.047164E-2,-7.620118E-2,-2.0891619E-1,3.7000228E-2,-1.4429118E-1,-1.1060437E-1,-1.9354317E-1],"split_indices":[5,2,2,2,4,1,2,2,1,1,2,0,4,1,0,0,0,0,0,0,0,0,0,0,0,0,0,0,0],"split_type":[0,0,0,0,0,0,0,0,0,0,0,0,0,0,0,0,0,0,0,0,0,0,0,0,0,0,0,0,0],"sum_hessian":[4.633471E3,4.446895E3,1.8657652E2,4.3736904E3,7.3204414E1,4.264114E1,1.439354E2,4.1949077E3,1.7878252E2,4.6098747E1,2.7105669E1,2.7991083E1,1.4650056E1,8.633314E1,5.7602253E1,3.016343E3,1.178565E3,1.2007006E2,5.871245E1,3.4579597E1,1.1519148E1,9.897021E0,1.7208647E1,2.0497192E1,7.4938912E0,1.3410104E1,1.2399526E0,5.302409E1,3.3309044E1],"tree_param":{"num_deleted":"0","num_feature":"7","num_nodes":"29","size_leaf_vector":"1"}},{"base_weights":[5.838154E-1,7.3843974E-1,-2.612039E0,-2.1529791E0,8.0687755E-1,-1.088604E0,-3.0735874E0,-1.9021074E-1,-1.4715178E0,-4.360521E-2,8.5514486E-1,4.8028842E-1,-2.0336277E0,-1.7921942E-1,-2.6777062E0,1.0288475E-2,-1.1786298E-1,-1.7942493E-1,2.5182187E-3,3.3152405E-2,4.6929795E-2,3.9319713E-2,-3.25458E-2,-1.2972111E-2,-1.2764165E-1,-1.960438E-3,-1.6341354E-1],"categories":[],"categories_nodes":[],"categories_segments":[],"categories_sizes":[],"default_left":[0,0,0,0,0,0,0,0,0,0,0,0,0,0,0,0,0,0,0,0,0,0,0,0,0,0,0],"id":3,"left_children":[1,3,5,7,9,11,13,-1,15,17,19,21,23,-1,25,-1,-1,-1,-1,-1,-1,-1,-1,-1,-1,-1,-1],"loss_changes":[2.2510376E3,8.609712E2,1.4450134E2,1.0768317E2,1.7419287E2,7.576085E1,2.292395E1,0E0,1.0877779E2,7.639443E1,6.373584E1,7.3576455E0,2.8510757E1,0E0,1.472146E2,0E0,0E0,0E0,0E0,0E0,0E0,0E0,0E0,0E0,0E0,0E0,0E0],"parents":[2147483647,0,0,1,1,2,2,3,3,4,4,5,5,6,6,8,8,9,9,10,10,11,11,12,12,14,14],"right_children":[2,4,6,8,10,12,14,-1,16,18,20,22,24,-1,26,-1,-1,-1,-1,-1,-1,-1,-1,-1,-1,-1,-1],"split_conditions":[2E0,1.45E0,-9.00366E-1,2E1,1.7617283E0,3.3797426E0,2.1E1,-1.9021074E-1,2.5E1,3.0372458E0,2.6367674E0,1E0,-6.56E0,-1.7921942E-1,2.3E1,1.0288475E-2,-1.1786298E-1,-1.7942493E-1,2.5182187E-3,3.3152405E-2,4.6929795E-2,3.9319713E-2,-3.25458E-2,-1.2972111E-2,-1.2764165E-1,-1.960438E-3,-1.6341354E-1],"split_indices":[5,3,6,0,3,3,0,0,0,6,3,4,6,0,0,0,0,0,0,0,0,0,0,0,0,0,0],"split_type":[0,0,0,0,0,0,0,0,0,0,0,0,0,0,0,0,0,0,0,0,0,0,0,0,0,0,0],"sum_hessian":[4.5504077E3,4.3411406E3,2.0926749E2,9.967167E1,4.2414688E3,4.943982E1,1.5982767E2,2.7778852E1,7.1892815E1,2.2779292E2,4.0136758E3,1.8770132E1,3.0669685E1,6.626825E1,9.355942E1,2.5110306E1,4.6782513E1,4.922163E0,2.2287076E2,1.2182703E3,2.7954055E3,1.5012532E1,3.7575994E0,7.2828884E0,2.3386797E1,1.7306154E1,7.6253265E1],"tree_param":{"num_deleted":"0","num_feature":"7","num_nodes":"27","size_leaf_vector":"1"}},{"base_weights":[5.626468E-1,7.1190774E-1,-2.2890725E0,-1.9129794E0,7.783217E-1,-9.5609397E-1,-2.6900487E0,-2.598066E0,2.96409E-1,-1.8993575E-2,8.277526E-1,4.6526906E-1,-1.748163E0,-2.3229713E0,-1.5805392E-1,-1.6410066E-1,-7.6967046E-2,4.9617417E-2,-1.4829195E-1,-1.5475866E-1,3.391003E-3,3.132483E-2,4.5952525E-2,5.2540787E-2,-1.6479576E-2,-1.5078278E-1,-5.3291906E-2,2.904177E-2,-1.2121276E-1],"categories":[],"categories_nodes":[],"categories_segments":[],"categories_sizes":[],"default_left":[0,0,0,0,0,0,0,0,0,0,0,0,0,0,0,0,0,0,0,0,0,0,0,0,0,0,0,0,0],"id":4,"left_children":[1,3,5,7,9,11,13,15,17,19,21,23,25,27,-1,-1,-1,-1,-1,-1,-1,-1,-1,-1,-1,-1,-1,-1,-1],"loss_changes":[1.8688245E3,7.283137E2,1.1417175E2,1.5693866E2,1.6030786E2,5.9424362E1,2.1593994E1,5.2049377E1,6.0423138E1,6.3876766E1,6.979175E1,9.384758E0,2.5880142E1,3.0180725E1,0E0,0E0,0E0,0E0,0E0,0E0,0E0,0E0,0E0,0E0,0E0,0E0,0E0,0E0,0E0],"parents":[2147483647,0,0,1,1,2,2,3,3,4,4,5,5,6,6,7,7,8,8,9,9,10,10,11,11,12,12,13,13],"right_children":[2,4,6,8,10,12,14,16,18,20,22,24,26,28,-1,-1,-1,-1,-1,-1,-1,-1,-1,-1,-1,-1,-1,-1,-1],"split_conditions":[2E0,1.45E0,-9.00366E-1,3.8E1,1.7617283E0,3.3797426E0,3.89E0,1.3323771E1,9E0,3.0372458E0,2.6367674E0,2.19706E0,2.2E1,1.65E0,-1.5805392E-1,-1.6410066E-1,-7.6967046E-2,4.9617417E-2,-1.4829195E-1,-1.5475866E-1,3.391003E-3,3.132483E-2,4.5952525E-2,5.2540787E-2,-1.6479576E-2,-1.5078278E-1,-5.3291906E-2,2.904177E-2,-1.2121276E-1],"split_indices":[5,3,6,0,3,3,6,2,2,6,3,2,0,3,0,0,0,0,0,0,0,0,0,0,0,0,0,0,0],"split_type":[0,0,0,0,0,0,0,0,0,0,0,0,0,0,0,0,0,0,0,0,0,0,0,0,0,0,0,0,0],"sum_hessian":[4.385688E3,4.168268E3,2.1741963E2,1.0217536E2,4.0660928E3,5.1060825E1,1.6635881E2,7.785742E1,2.431794E1,2.3740414E2,3.8286887E3,1.8419586E1,3.2641243E1,9.6830055E1,6.952875E1,4.6024914E1,3.1832508E1,2.0615763E1,3.7021773E0,5.5648417E0,2.3183931E2,1.1972802E3,2.6314084E3,1.0420873E1,7.9987125E0,1.0225881E1,2.2415361E1,3.103985E0,9.3726074E1],"tree_param":{"num_deleted":"0","num_feature":"7","num_nodes":"29","size_leaf_vector":"1"}},{"base_weights":[5.547288E-1,-1.5143723E0,6.945759E-1,-8.2051474E-1,-2.325097E0,3.812077E-1,8.5428447E-1,-1.4880182E0,5.8569735E-1,-2.9643157E0,-1.6214348E0,4.6870762E-1,4.5335203E-2,9.648789E-1,7.039832E-1,-9.823617E-2,-9.21006E-3,3.6468502E-2,-5.1684875E-2,-1.5446219E-1,-1.4120974E-2,-1.179525E-1,3.3148155E-2,2.4717275E-2,-4.095155E-2,1.5237491E-2,-1.5204794E-2,4.199414E-2,4.935856E-2,2.1515079E-2,4.709753E-2],"categories":[],"categories_nodes":[],"categories_segments":[],"categories_sizes":[],"default_left":[0,0,0,0,0,0,0,0,0,0,0,0,0,0,0,0,0,0,0,0,0,0,0,0,0,0,0,0,0,0,0],"id":5,"left_children":[1,3,5,7,9,11,13,15,17,19,21,23,25,27,29,-1,-1,-1,-1,-1,-1,-1,-1,-1,-1,-1,-1,-1,-1,-1,-1],"loss_changes":[1.2531991E3,1.5237946E2,2.0256995E2,1.4104495E2,5.18407E1,4.0254303E1,4.3945923E1,6.2754074E1,1.2104776E1,2.083313E1,1.06296555E2,3.6295288E1,2.5867424E1,3.4729004E0,7.395166E1,0E0,0E0,0E0,0E0,0E0,0E0,0E0,0E0,0E0,0E0,0E0,0E0,0E0,0E0,0E0,0E0],"parents":[2147483647,0,0,1,1,2,2,3,3,4,4,5,5,6,6,7,7,8,8,9,9,10,10,11,11,12,12,13,13,14,14],"right_children":[2,4,6,8,10,12,14,16,18,20,22,24,26,28,30,-1,-1,-1,-1,-1,-1,-1,-1,-1,-1,-1,-1,-1,-1,-1,-1],"split_conditions":[1.62E0,7.1E0,2.6367674E0,3.7E1,1.2046465E1,1E0,1E0,3.1E1,1.57E0,3.9E1,1E0,2.6E0,2E1,2.9111125E0,4.787509E0,-9.823617E-2,-9.21006E-3,3.6468502E-2,-5.1684875E-2,-1.5446219E-1,-1.4120974E-2,-1.179525E-1,3.3148155E-2,2.4717275E-2,-4.095155E-2,1.5237491E-2,-1.5204794E-2,4.199414E-2,4.935856E-2,2.1515079E-2,4.709753E-2],"split_indices":[3,6,3,0,6,4,4,1,3,0,4,3,1,3,3,0,0,0,0,0,0,0,0,0,0,0,0,0,0,0,0],"split_type":[0,0,0,0,0,0,0,0,0,0,0,0,0,0,0,0,0,0,0,0,0,0,0,0,0,0,0,0,0,0,0],"sum_hessian":[4.3263335E3,2.7327505E2,4.0530583E3,1.483349E2,1.2494015E2,1.3694376E3,2.6836208E3,1.0054828E2,4.778662E1,6.3784523E1,6.115562E1,1.0860972E3,2.833404E2,1.5429038E3,1.140717E3,7.325695E1,2.7291327E1,4.4397297E1,3.3893223E0,6.0800434E1,2.98409E0,4.620401E1,1.49516115E1,1.0655E3,2.0597157E1,1.626892E2,1.2065119E2,2.3937442E2,1.3035294E3,5.318523E2,6.088647E2],"tree_param":{"num_deleted":"0","num_feature":"7","num_nodes":"31","size_leaf_vector":"1"}},{"base_weights":[5.3331286E-1,6.8275625E-1,-2.1733282E0,-7.6716185E-1,7.8320646E-1,-2.3525019E0,-7.217998E-1,-1.507196E0,-1.8285738E-1,5.627078E-1,8.8980186E-1,-2.779393E0,-2.0699275E0,-1.4149332E-1,3.939823E-1,-9.820718E-2,9.889384E-3,-3.0961547E-2,2.9176509E-2,2.3896094E-2,5.7256043E-2,4.9791716E-2,3.7084207E-2,-8.248573E-2,-1.433452E-1,-5.200824E-3,-1.2715557E-1,-5.3088803E-2,4.1047674E-2],"categories":[],"categories_nodes":[],"categories_segments":[],"categories_sizes":[],"default_left":[0,0,0,0,0,0,0,0,0,0,0,0,0,0,0,0,0,0,0,0,0,0,0,0,0,0,0,0,0],"id":6,"left_children":[1,3,5,7,9,11,13,15,17,19,21,23,25,-1,27,-1,-1,-1,-1,-1,-1,-1,-1,-1,-1,-1,-1,-1,-1],"loss_changes":[1.6943992E3,5.78385E2,5.5319336E1,1.1108478E2,8.67124E1,1.773352E1,6.116746E1,8.880606E1,4.887012E1,5.9298523E1,3.8518433E1,2.6484375E0,1.1236096E2,0E0,1.1794113E1,0E0,0E0,0E0,0E0,0E0,0E0,0E0,0E0,0E0,0E0,0E0,0E0,0E0,0E0],"parents":[2147483647,0,0,1,1,2,2,3,3,4,4,5,5,6,6,7,7,8,8,9,9,10,10,11,11,12,12,14,14],"right_children":[2,4,6,8,10,12,14,16,18,20,22,24,26,-1,28,-1,-1,-1,-1,-1,-1,-1,-1,-1,-1,-1,-1,-1,-1],"split_conditions":[2E0,1.6799437E0,3.7E1,1.45E0,2.6367674E0,2.1E1,3.103093E0,2.4E1,3.5E1,1.0104489E0,1E0,1E0,2.3E1,-1.4149332E-1,2.8E1,-9.820718E-2,9.889384E-3,-3.0961547E-2,2.9176509E-2,2.3896094E-2,5.7256043E-2,4.9791716E-2,3.7084207E-2,-8.248573E-2,-1.433452E-1,-5.200824E-3,-1.2715557E-1,-5.3088803E-2,4.1047674E-2],"split_indices":[5,3,1,3,3,0,3,1,0,5,4,0,0,0,0,0,0,0,0,0,0,0,0,0,0,0,0,0,0],"split_type":[0,0,0,0,0,0,0,0,0,0,0,0,0,0,0,0,0,0,0,0,0,0,0,0,0,0,0,0,0],"sum_hessian":[4.184313E3,3.9660793E3,2.1823373E2,2.5653708E2,3.7095422E3,1.9370274E2,2.453099E1,1.1248851E2,1.4404857E2,1.210934E3,2.4986084E3,7.3630974E1,1.2007177E2,7.958548E0,1.6572441E1,8.859297E1,2.3895542E1,9.190868E1,5.213989E1,1.0586409E3,1.5229312E2,1.4528435E3,1.0457649E3,6.721019E0,6.690995E1,2.3530548E1,9.654122E1,3.421176E0,1.3151266E1],"tree_param":{"num_deleted":"0","num_feature":"7","num_nodes":"29","size_leaf_vector":"1"}},{"base_weights":[5.185172E-1,-1.2900386E0,6.5603733E-1,-1.8029184E0,-5.6147283E-1,2.455098E-1,7.8311926E-1,-2.0687797E0,-7.347464E-2,-2.5859253E0,-1.401483E-1,-9.43827E-1,2.9749885E-1,9.4755906E-1,6.8886155E-1,-1.2750034E-1,-6.6446364E-2,4.4020373E-2,-1.1854551E-1,-4.6995223E-2,-1.8839118E-1,5.1896524E-2,-2.1450197E-2,-4.6754265E-3,-1.066628E-1,-9.46731E-3,1.979482E-2,4.759835E-2,-5.1385652E-2,-4.8247814E-2,3.4964126E-2],"categories":[],"categories_nodes":[],"categories_segments":[],"categories_sizes":[],"default_left":[0,0,0,0,0,0,0,0,0,0,0,0,0,0,0,0,0,0,0,0,0,0,0,0,0,0,0,0,0,0,0],"id":7,"left_children":[1,3,5,7,9,11,13,15,17,19,21,23,25,27,29,-1,-1,-1,-1,-1,-1,-1,-1,-1,-1,-1,-1,-1,-1,-1,-1],"loss_changes":[1.0227593E3,1.0760782E2,1.9905347E2,7.807849E1,1.0330894E2,5.6191727E1,4.4542847E1,4.910382E1,5.4041443E1,3.7080444E1,3.504086E1,3.834534E1,4.161387E1,1.0205566E1,3.2681274E1,0E0,0E0,0E0,0E0,0E0,0E0,0E0,0E0,0E0,0E0,0E0,0E0,0E0,0E0,0E0,0E0],"parents":[2147483647,0,0,1,1,2,2,3,3,4,4,5,5,6,6,7,7,8,8,9,9,10,10,11,11,12,12,13,13,14,14],"right_children":[2,4,6,8,10,12,14,16,18,20,22,24,26,28,30,-1,-1,-1,-1,-1,-1,-1,-1,-1,-1,-1,-1,-1,-1,-1,-1],"split_conditions":[1.62E0,1.45E0,2.305035E0,3.8E1,6.0193367E0,3.2630126E0,1.8E0,1.3323771E1,9E0,6E0,6.5E0,1.2E1,1.7617283E0,3.9E1,1.8037014E0,-1.2750034E-1,-6.6446364E-2,4.4020373E-2,-1.1854551E-1,-4.6995223E-2,-1.8839118E-1,5.1896524E-2,-2.1450197E-2,-4.6754265E-3,-1.066628E-1,-9.46731E-3,1.979482E-2,4.759835E-2,-5.1385652E-2,-4.8247814E-2,3.4964126E-2],"split_indices":[3,3,3,0,2,2,2,2,2,2,2,0,3,1,2,0,0,0,0,0,0,0,0,0,0,0,0,0,0,0,0],"split_type":[0,0,0,0,0,0,0,0,0,0,0,0,0,0,0,0,0,0,0,0,0,0,0,0,0,0,0,0,0,0,0],"sum_hessian":[4.107805E3,2.8968735E2,3.818118E3,1.6914308E2,1.2054426E2,9.032324E2,2.9148855E3,1.464358E2,2.2707273E1,1.9880657E1,1.006636E2,3.711061E1,8.661218E2,1.0587545E3,1.856131E3,8.72431E1,5.9192703E1,1.6481173E1,6.2261014E0,9.059212E0,1.0821445E1,1.9311138E1,8.135246E1,2.2269117E1,1.4841495E1,1.454667E2,7.2065515E2,1.056914E3,1.8405025E0,1.10489855E1,1.845082E3],"tree_param":{"num_deleted":"0","num_feature":"7","num_nodes":"31","size_leaf_vector":"1"}},{"base_weights":[5.135521E-1,6.6931987E-1,-2.209313E0,7.6929015E-1,-6.078436E-1,-1.245246E0,-2.4329548E0,8.6386085E-1,5.7063776E-1,-1.1489481E0,4.7216874E-1,-1.9775374E0,3.532837E-1,-2.4911985E0,-1.0109491E0,4.796776E-2,3.633979E-2,2.4633585E-2,5.669985E-2,-1.1663168E-1,-6.026054E-3,-3.6537237E-2,3.897322E-2,-2.9417533E-2,-1.4058368E-1,-1.24839775E-1,3.9510395E-2,-1.538435E-1,-1.1490472E-1,-1.0840807E-1,2.601904E-2],"categories":[],"categories_nodes":[],"categories_segments":[],"categories_sizes":[],"default_left":[0,0,0,0,0,0,0,0,0,0,0,0,0,0,0,0,0,0,0,0,0,0,0,0,0,0,0,0,0,0,0],"id":8,"left_children":[1,3,5,7,9,11,13,15,17,19,21,23,25,27,29,-1,-1,-1,-1,-1,-1,-1,-1,-1,-1,-1,-1,-1,-1,-1,-1],"loss_changes":[1.7441481E3,4.9677893E2,4.4956543E1,6.72417E1,1.6577689E2,5.21539E1,1.2357178E1,3.1248535E1,5.0645935E1,2.2937907E2,3.571734E1,3.3454277E1,2.0226927E1,1.23654785E1,1.663396E1,0E0,0E0,0E0,0E0,0E0,0E0,0E0,0E0,0E0,0E0,0E0,0E0,0E0,0E0,0E0,0E0],"parents":[2147483647,0,0,1,1,2,2,3,3,4,4,5,5,6,6,7,7,8,8,9,9,10,10,11,11,12,12,13,13,14,14],"right_children":[2,4,6,8,10,12,14,16,18,20,22,24,26,28,30,-1,-1,-1,-1,-1,-1,-1,-1,-1,-1,-1,-1,-1,-1,-1,-1],"split_conditions":[2E0,5.5E0,2.2778342E0,2.87E0,2.3E1,3.7E1,3.9E1,1E0,1.0104489E0,1E0,2.4E1,1.7288165E0,2.8E1,3.3502731E0,2.5E1,4.796776E-2,3.633979E-2,2.4633585E-2,5.669985E-2,-1.1663168E-1,-6.026054E-3,-3.6537237E-2,3.897322E-2,-2.9417533E-2,-1.4058368E-1,-1.24839775E-1,3.9510395E-2,-1.538435E-1,-1.1490472E-1,-1.0840807E-1,2.601904E-2],"split_indices":[5,2,2,2,1,1,0,4,5,4,0,2,0,2,1,0,0,0,0,0,0,0,0,0,0,0,0,0,0,0,0],"split_type":[0,0,0,0,0,0,0,0,0,0,0,0,0,0,0,0,0,0,0,0,0,0,0,0,0,0,0,0,0,0,0],"sum_hessian":[4.1077646E3,3.8861997E3,2.2156483E2,3.6044578E3,2.8174213E2,4.295671E1,1.7860812E2,2.4396748E3,1.1647828E3,1.8765831E2,9.408383E1,2.9298077E1,1.3658636E1,1.708581E2,7.7500267E0,1.434351E3,1.0053239E3,1.0248264E3,1.3995633E2,8.665413E1,1.0100417E2,1.886368E1,7.5220146E1,1.1631719E1,1.7666357E1,1.1888998E0,1.2469736E1,3.8662804E1,1.3219528E2,4.177363E0,3.5726638E0],"tree_param":{"num_deleted":"0","num_feature":"7","num_nodes":"31","size_leaf_vector":"1"}},{"base_weights":[5.06132E-1,6.4875495E-1,-1.7741596E0,-1.192463E0,7.134044E-1,-2.0696335E0,-1.2707043E0,-1.6016774E0,3.6035004E-1,1.4131652E-1,7.736655E-1,-1.8861971E0,-1.19035E-1,-2.2389135E0,-7.8623605E-1,-1.0231923E-1,-2.439227E-2,-1.0481391E-1,4.0462222E-2,-3.7954905E-4,5.666702E-2,3.257038E-2,4.4958662E-2,-1.13764085E-1,-4.525026E-2,-3.6851823E-2,-1.4642343E-1,-5.7959583E-2,1.6662672E-2],"categories":[],"categories_nodes":[],"categories_segments":[],"categories_sizes":[],"default_left":[0,0,0,0,0,0,0,0,0,0,0,0,0,0,0,0,0,0,0,0,0,0,0,0,0,0,0,0,0],"id":9,"left_children":[1,3,5,7,9,11,13,15,17,19,21,23,-1,25,27,-1,-1,-1,-1,-1,-1,-1,-1,-1,-1,-1,-1,-1,-1],"loss_changes":[1.2829612E3,4.42474E2,3.1922424E1,8.078447E1,1.23476685E2,3.77063E0,3.974893E1,4.8575165E1,3.1628376E1,5.065414E1,4.917566E1,3.4547394E1,0E0,2.7845062E1,2.5655426E1,0E0,0E0,0E0,0E0,0E0,0E0,0E0,0E0,0E0,0E0,0E0,0E0,0E0,0E0],"parents":[2147483647,0,0,1,1,2,2,3,3,4,4,5,5,6,6,7,7,8,8,9,9,10,10,11,11,13,13,14,14],"right_children":[2,4,6,8,10,12,14,16,18,20,22,24,-1,26,28,-1,-1,-1,-1,-1,-1,-1,-1,-1,-1,-1,-1,-1,-1],"split_conditions":[2E0,1.45E0,2.3640685E0,3.8E1,1.8499172E0,2.2E1,2.1E1,1E0,1.33E0,1.0104489E0,3.4156773E0,2.1E1,-1.19035E-1,8E0,3.7E1,-1.0231923E-1,-2.439227E-2,-1.0481391E-1,4.0462222E-2,-3.7954905E-4,5.666702E-2,3.257038E-2,4.4958662E-2,-1.13764085E-1,-4.525026E-2,-3.6851823E-2,-1.4642343E-1,-5.7959583E-2,1.6662672E-2],"split_indices":[5,3,3,0,3,1,0,4,3,5,3,1,0,1,1,0,0,0,0,0,0,0,0,0,0,0,0,0,0],"split_type":[0,0,0,0,0,0,0,0,0,0,0,0,0,0,0,0,0,0,0,0,0,0,0,0,0,0,0,0,0],"sum_hessian":[3.940339E3,3.7090674E3,2.3127165E2,1.2522455E2,3.5838428E3,1.4377837E2,8.749328E1,9.9081924E1,2.6142626E1,3.418487E2,3.2419941E3,9.488699E1,4.8891376E1,2.7971294E1,5.9521984E1,7.021195E1,2.8869974E1,3.471972E0,2.2670654E1,2.980955E2,4.3753204E1,1.6453948E3,1.5965994E3,6.69998E1,2.7887184E1,9.452419E0,1.8518875E1,4.4621098E1,1.4900887E1],"tree_param":{"num_deleted":"0","num_feature":"7","num_nodes":"29","size_leaf_vector":"1"}},{"base_weights":[4.8283944E-1,6.252206E-1,-1.6800891E0,-7.180712E-1,7.1453375E-1,-7.5264055E-1,-1.9078549E0,-3.284081E-1,-1.5668601E0,4.8357162E-1,8.387551E-1,5.6117433E-1,-1.402066E0,-1.7949833E0,-1.1550709E-1,-3.750212E-2,3.1319685E-2,-1.0762429E-1,-3.3181887E-2,1.9967882E-2,5.614641E-2,4.8153277E-2,3.3312242E-2,2.281631E-3,4.5510817E-2,-4.1221354E-2,-1.392708E-1,-9.247551E-2,-1.803734E-2],"categories":[],"categories_nodes":[],"categories_segments":[],"categories_sizes":[],"default_left":[0,0,0,0,0,0,0,0,0,0,0,0,0,0,0,0,0,0,0,0,0,0,0,0,0,0,0,0,0],"id":10,"left_children":[1,3,5,7,9,11,13,15,17,19,21,23,25,27,-1,-1,-1,-1,-1,-1,-1,-1,-1,-1,-1,-1,-1,-1,-1],"loss_changes":[1.185676E3,4.335979E2,4.8808044E1,7.4083275E1,9.6719604E1,4.2208317E1,4.494446E0,6.321019E1,3.5968475E1,6.3426605E1,4.653589E1,2.9767208E0,2.3892464E1,1.1305359E1,0E0,0E0,0E0,0E0,0E0,0E0,0E0,0E0,0E0,0E0,0E0,0E0,0E0,0E0,0E0],"parents":[2147483647,0,0,1,1,2,2,3,3,4,4,5,5,6,6,7,7,8,8,9,9,10,10,11,11,12,12,13,13],"right_children":[2,4,6,8,10,12,14,16,18,20,22,24,26,28,-1,-1,-1,-1,-1,-1,-1,-1,-1,-1,-1,-1,-1,-1,-1],"split_conditions":[2E0,1.62E0,-9.00366E-1,8.14E0,2.6367674E0,3.3797426E0,3.5E1,3.7E1,1.382E1,1.0104489E0,1E0,3.3E1,2.3E1,3.4E1,-1.1550709E-1,-3.750212E-2,3.1319685E-2,-1.0762429E-1,-3.3181887E-2,1.9967882E-2,5.614641E-2,4.8153277E-2,3.3312242E-2,2.281631E-3,4.5510817E-2,-4.1221354E-2,-1.392708E-1,-9.247551E-2,-1.803734E-2],"split_indices":[5,3,6,6,3,3,0,0,6,5,4,0,0,0,0,0,0,0,0,0,0,0,0,0,0,0,0,0,0],"split_type":[0,0,0,0,0,0,0,0,0,0,0,0,0,0,0,0,0,0,0,0,0,0,0,0,0,0,0,0,0],"sum_hessian":[3.845683E3,3.608832E3,2.368511E2,2.2454713E2,3.3842847E3,4.7547016E1,1.893041E2,1.5484679E2,6.9700356E1,1.1853257E3,2.198959E3,1.5773155E1,3.177386E1,1.5209262E2,3.7211464E1,1.07562386E2,4.7284405E1,4.1445236E1,2.825512E1,1.048805E3,1.3652061E2,1.275357E3,9.2360205E2,6.8242884E0,8.948867E0,2.3540237E1,8.233623E0,1.462432E2,5.8494306E0],"tree_param":{"num_deleted":"0","num_feature":"7","num_nodes":"29","size_leaf_vector":"1"}},{"base_weights":[4.6592084E-1,6.1115247E-1,-8.703965E-1,7.449058E-1,3.633491E-1,-1.2047099E0,1.20673485E-1,8.940986E-1,5.359837E-1,4.4900116E-1,5.485131E-2,-1.8517046E0,-3.599056E-1,-5.840084E-1,7.172855E-1,4.5208912E-2,1.3017895E-2,4.2552315E-2,9.153601E-3,2.3007868E-2,-1.1027358E-1,2.0201761E-2,-2.4935164E-2,-4.61475E-2,-1.0271402E-1,-8.050644E-3,-1.23411395E-1,1.2071788E-2,-5.941338E-2,3.9572503E-2,-6.907806E-2],"categories":[],"categories_nodes":[],"categories_segments":[],"categories_sizes":[],"default_left":[0,0,0,0,0,0,0,0,0,0,0,0,0,0,0,0,0,0,0,0,0,0,0,0,0,0,0,0,0,0,0],"id":11,"left_children":[1,3,5,7,9,11,13,15,17,19,21,23,25,27,29,-1,-1,-1,-1,-1,-1,-1,-1,-1,-1,-1,-1,-1,-1,-1,-1],"loss_changes":[7.3544525E2,1.129552E2,1.2327176E2,6.864453E1,3.1669312E1,1.5126746E2,4.020957E1,8.019531E0,1.0284851E2,2.881247E1,5.0803936E1,2.7675049E1,5.067577E1,2.2205137E1,9.141245E0,0E0,0E0,0E0,0E0,0E0,0E0,0E0,0E0,0E0,0E0,0E0,0E0,0E0,0E0,0E0,0E0],"parents":[2147483647,0,0,1,1,2,2,3,3,4,4,5,5,6,6,7,7,8,8,9,9,10,10,11,11,12,12,13,13,14,14],"right_children":[2,4,6,8,10,12,14,16,18,20,22,24,26,28,30,-1,-1,-1,-1,-1,-1,-1,-1,-1,-1,-1,-1,-1,-1,-1,-1],"split_conditions":[5.5E0,2E-1,2.3E1,1E0,1E0,1E0,3.3E1,9.87124E-2,1.8E0,3.9E1,2E1,6.5E0,2.2E1,3.4E1,9E0,4.5208912E-2,1.3017895E-2,4.2552315E-2,9.153601E-3,2.3007868E-2,-1.1027358E-1,2.0201761E-2,-2.4935164E-2,-4.61475E-2,-1.0271402E-1,-8.050644E-3,-1.23411395E-1,1.2071788E-2,-5.941338E-2,3.9572503E-2,-6.907806E-2],"split_indices":[2,6,1,4,4,4,0,6,2,1,1,2,1,1,2,0,0,0,0,0,0,0,0,0,0,0,0,0,0,0,0],"split_type":[0,0,0,0,0,0,0,0,0,0,0,0,0,0,0,0,0,0,0,0,0,0,0,0,0,0,0,0,0,0,0],"sum_hessian":[3.7857378E3,3.415123E3,3.706147E2,2.2166611E3,1.198462E3,2.7697E2,9.364467E1,1.2912739E3,9.2538715E2,9.3766974E2,2.6079227E2,1.5617288E2,1.2079713E2,4.294352E1,5.070115E1,1.2706377E3,2.0636269E1,4.881652E2,4.3722195E2,9.345686E2,3.1011517E0,1.600821E2,1.0071017E2,2.8959154E1,1.2721373E2,1.1136743E2,9.429695E0,1.8403706E1,2.4539812E1,4.9572376E1,1.1287718E0],"tree_param":{"num_deleted":"0","num_feature":"7","num_nodes":"31","size_leaf_vector":"1"}},{"base_weights":[4.5590517E-1,5.9901136E-1,-1.5481747E0,-3.246946E-1,7.1091014E-1,-7.641575E-1,-1.7449005E0,-9.7933227E-1,4.4918954E-2,5.428082E-1,8.2979435E-1,-1.5157063E0,2.2151367E-1,-1.6328515E0,-1.0707947E-1,-1.0591423E-1,-2.4686432E-2,-1.3998488E-1,6.199632E-3,2.3881948E-2,5.5368364E-2,4.7725473E-2,3.3719655E-2,-4.266153E-2,-1.3134013E-1,-2.218392E-2,3.1646006E-2,-7.587552E-2,-1.0627581E-1],"categories":[],"categories_nodes":[],"categories_segments":[],"categories_sizes":[],"default_left":[0,0,0,0,0,0,0,0,0,0,0,0,0,0,0,0,0,0,0,0,0,0,0,0,0,0,0,0,0],"id":12,"left_children":[1,3,5,7,9,11,13,15,17,19,21,23,25,27,-1,-1,-1,-1,-1,-1,-1,-1,-1,-1,-1,-1,-1,-1,-1],"loss_changes":[1.0617605E3,3.5714917E2,3.673291E1,9.0489716E1,6.1108154E1,3.832692E1,5.238098E0,7.3583435E1,5.430118E1,4.6524536E1,3.428833E1,1.9271255E1,6.591331E0,5.721283E0,0E0,0E0,0E0,0E0,0E0,0E0,0E0,0E0,0E0,0E0,0E0,0E0,0E0,0E0,0E0],"parents":[2147483647,0,0,1,1,2,2,3,3,4,4,5,5,6,6,7,7,8,8,9,9,10,10,11,11,12,12,13,13],"right_children":[2,4,6,8,10,12,14,16,18,20,22,24,26,28,-1,-1,-1,-1,-1,-1,-1,-1,-1,-1,-1,-1,-1,-1,-1],"split_conditions":[2E0,1.7617283E0,-9.00366E-1,1.45E0,2.9111125E0,-1.4270381E0,3E0,2E1,3.0372458E0,1.0104489E0,1E0,-2.69E0,3.3E1,3.5E1,-1.0707947E-1,-1.0591423E-1,-2.4686432E-2,-1.3998488E-1,6.199632E-3,2.3881948E-2,5.5368364E-2,4.7725473E-2,3.3719655E-2,-4.266153E-2,-1.3134013E-1,-2.218392E-2,3.1646006E-2,-7.587552E-2,-1.0627581E-1],"split_indices":[5,3,6,3,3,6,5,0,6,5,4,6,0,0,0,0,0,0,0,0,0,0,0,0,0,0,0,0,0],"split_type":[0,0,0,0,0,0,0,0,0,0,0,0,0,0,0,0,0,0,0,0,0,0,0,0,0,0,0,0,0],"sum_hessian":[3.697908E3,3.4521033E3,2.4580475E2,3.7279993E2,3.0793032E3,5.0285355E1,1.955194E2,1.3393413E2,2.3886581E2,1.2779088E3,1.8013945E3,2.822601E1,2.2059343E1,1.5644579E2,3.9073605E1,3.902988E1,9.490424E1,5.529785E0,2.3333603E2,1.1473158E3,1.3059296E2,9.965141E2,8.0488043E2,1.8790407E1,9.435601E0,8.39968E0,1.3659663E1,1.300736E2,2.6372192E1],"tree_param":{"num_deleted":"0","num_feature":"7","num_nodes":"29","size_leaf_vector":"1"}},{"base_weights":[4.5129737E-1,-6.856014E-1,6.0500693E-1,-1.2129817E0,-3.01244E-1,3.9707726E-1,7.610483E-1,-1.4367013E0,1.0387775E-1,-7.1730614E-1,3.268271E-1,4.921918E-1,4.716475E-2,8.9943486E-1,5.8991724E-1,-8.951519E-2,-4.3855395E-2,4.3318473E-2,-9.0602815E-2,-1.7175494E-1,-2.3951419E-2,2.137737E-2,-8.663208E-2,2.5235549E-2,-8.4823236E-2,-1.0341845E-1,7.914733E-3,4.3703746E-2,5.2553315E-2,4.169861E-2,1.3849134E-2],"categories":[],"categories_nodes":[],"categories_segments":[],"categories_sizes":[],"default_left":[0,0,0,0,0,0,0,0,0,0,0,0,0,0,0,0,0,0,0,0,0,0,0,0,0,0,0,0,0,0,0],"id":13,"left_children":[1,3,5,7,9,11,13,15,17,19,21,23,25,27,29,-1,-1,-1,-1,-1,-1,-1,-1,-1,-1,-1,-1,-1,-1,-1,-1],"loss_changes":[6.338778E2,8.724092E1,1.03320435E2,5.3728516E1,6.5909775E1,4.5616196E1,4.265222E1,2.9203766E1,4.151468E1,9.6458405E1,2.1656788E1,3.0396667E1,6.9491554E1,2.9506836E0,6.2255035E1,0E0,0E0,0E0,0E0,0E0,0E0,0E0,0E0,0E0,0E0,0E0,0E0,0E0,0E0,0E0,0E0],"parents":[2147483647,0,0,1,1,2,2,3,3,4,4,5,5,6,6,7,7,8,8,9,9,10,10,11,11,12,12,13,13,14,14],"right_children":[2,4,6,8,10,12,14,16,18,20,22,24,26,28,30,-1,-1,-1,-1,-1,-1,-1,-1,-1,-1,-1,-1,-1,-1,-1,-1],"split_conditions":[1.7461108E0,1.45E0,2.9111125E0,3.8E1,3.3E1,1E0,1E0,1.3323771E1,9E0,8E0,3.9E1,3.9E1,2.5591893E0,2.4009688E0,1.8E0,-8.951519E-2,-4.3855395E-2,4.3318473E-2,-9.0602815E-2,-1.7175494E-1,-2.3951419E-2,2.137737E-2,-8.663208E-2,2.5235549E-2,-8.4823236E-2,-1.0341845E-1,7.914733E-3,4.3703746E-2,5.2553315E-2,4.169861E-2,1.3849134E-2],"split_indices":[3,3,3,0,0,4,4,2,2,1,0,1,2,2,2,0,0,0,0,0,0,0,0,0,0,0,0,0,0,0,0],"split_type":[0,0,0,0,0,0,0,0,0,0,0,0,0,0,0,0,0,0,0,0,0,0,0,0,0,0,0,0,0,0,0],"sum_hessian":[3.6239214E3,4.311916E2,3.1927297E3,1.8086679E2,2.5032478E2,1.3703044E3,1.8224254E3,1.5452391E2,2.6342876E1,1.5049088E2,9.983391E1,1.0771129E3,2.9319147E2,1.0052586E3,8.1716675E2,9.334236E1,6.1181557E1,1.923547E1,7.1074066E0,1.1049064E1,1.394418E2,9.593454E1,3.8993702E0,1.071752E3,5.361047E0,1.3753809E1,2.7943765E2,8.670167E2,1.3824191E2,4.581751E2,3.5899164E2],"tree_param":{"num_deleted":"0","num_feature":"7","num_nodes":"31","size_leaf_vector":"1"}},{"base_weights":[4.2198527E-1,5.673198E-1,-1.4879868E0,6.422072E-1,-7.7923393E-1,-1.8788533E0,-1.250628E0,7.55059E-1,3.5516846E-1,-1.9697531E0,-3.7495238E-1,-1.2190809E-1,-1.424204E0,-1.19733244E-1,-1.6195095E0,3.5889875E-2,5.4672033E-2,1.3395833E-2,5.548212E-2,-4.8274685E-2,-1.01819515E-1,3.2181256E-2,-4.8341747E-2,-1.4824635E-2,-8.844995E-2,-1.01885796E-1,2.2909507E-2,-8.9158714E-2,-1.5932448E-2],"categories":[],"categories_nodes":[],"categories_segments":[],"categories_sizes":[],"default_left":[0,0,0,0,0,0,0,0,0,0,0,0,0,0,0,0,0,0,0,0,0,0,0,0,0,0,0,0,0],"id":14,"left_children":[1,3,5,7,9,11,13,15,17,19,21,-1,23,25,27,-1,-1,-1,-1,-1,-1,-1,-1,-1,-1,-1,-1,-1,-1],"loss_changes":[9.7537915E2,3.2956506E2,2.0707642E1,9.988599E1,8.2225266E1,1.9899109E1,6.555951E1,2.7186401E1,5.7265915E1,9.4233704E-1,7.8943E1,0E0,2.012339E1,4.5102493E1,2.4718872E1,0E0,0E0,0E0,0E0,0E0,0E0,0E0,0E0,0E0,0E0,0E0,0E0,0E0,0E0],"parents":[2147483647,0,0,1,1,2,2,3,3,4,4,5,5,6,6,7,7,8,8,9,9,10,10,12,12,13,13,14,14],"right_children":[2,4,6,8,10,12,14,16,18,20,22,-1,24,26,28,-1,-1,-1,-1,-1,-1,-1,-1,-1,-1,-1,-1,-1,-1],"split_conditions":[2E0,7E0,2E1,8E-1,2E1,2.67E0,2.3E1,1.0104489E0,1.0104489E0,5.56E0,2.5E1,-1.2190809E-1,3.27E0,2.1E1,3.7E1,3.5889875E-2,5.4672033E-2,1.3395833E-2,5.548212E-2,-4.8274685E-2,-1.01819515E-1,3.2181256E-2,-4.8341747E-2,-1.4824635E-2,-8.844995E-2,-1.01885796E-1,2.2909507E-2,-8.9158714E-2,-1.5932448E-2],"split_indices":[5,2,0,6,0,6,0,5,5,6,0,0,6,1,1,0,0,0,0,0,0,0,0,0,0,0,0,0,0],"split_type":[0,0,0,0,0,0,0,0,0,0,0,0,0,0,0,0,0,0,0,0,0,0,0,0,0,0,0,0,0],"sum_hessian":[3.5097642E3,3.2622356E3,2.4752864E2,3.0908628E3,1.7137263E2,9.0909424E1,1.5661922E2,2.2174304E3,8.734325E2,4.2461304E1,1.2891133E2,3.8806744E1,5.2102684E1,3.884749E1,1.1777172E2,2.0002867E3,2.1714365E2,7.841087E2,8.9323845E1,3.6059823E0,3.8855324E1,4.7345867E1,8.156546E1,1.2635625E1,3.946706E1,8.410204E0,3.0437284E1,1.0428108E2,1.3490644E1],"tree_param":{"num_deleted":"0","num_feature":"7","num_nodes":"29","size_leaf_vector":"1"}},{"base_weights":[4.1730607E-1,-6.838175E-1,5.7583743E-1,-3.9426377E-1,-1.2348286E0,3.5061958E-1,7.287106E-1,-8.0539244E-1,2.3354846E-1,-1.4409097E0,6.568006E-2,4.462101E-1,2.5310354E-2,7.4465686E-1,-9.093665E-1,-2.3450691E-2,-1.3273339E-1,1.6515784E-2,-1.4662063E-1,-8.376423E-2,-3.318974E-2,-8.314096E-2,3.2678246E-2,2.2827629E-2,-9.04093E-2,-9.052638E-2,4.4971597E-3,4.3966413E-2,2.8935684E-2,-2.686512E-1,3.4651856E-3],"categories":[],"categories_nodes":[],"categories_segments":[],"categories_sizes":[],"default_left":[0,0,0,0,0,0,0,0,0,0,0,0,0,0,0,0,0,0,0,0,0,0,0,0,0,0,0,0,0,0,0],"id":15,"left_children":[1,3,5,7,9,11,13,15,17,19,21,23,25,27,29,-1,-1,-1,-1,-1,-1,-1,-1,-1,-1,-1,-1,-1,-1,-1,-1],"loss_changes":[5.983575E2,6.836838E1,1.02859314E2,7.3587654E1,3.9812393E1,3.7704514E1,4.725299E1,1.0578912E2,3.5681305E1,2.2195465E1,2.2657236E1,2.2680862E1,3.2972683E1,3.8966858E1,7.743428E1,0E0,0E0,0E0,0E0,0E0,0E0,0E0,0E0,0E0,0E0,0E0,0E0,0E0,0E0,0E0,0E0],"parents":[2147483647,0,0,1,1,2,2,3,3,4,4,5,5,6,6,7,7,8,8,9,9,10,10,11,11,12,12,13,13,14,14],"right_children":[2,4,6,8,10,12,14,16,18,20,22,24,26,28,30,-1,-1,-1,-1,-1,-1,-1,-1,-1,-1,-1,-1,-1,-1,-1,-1],"split_conditions":[1.7617283E0,7.1E0,2.8123212E0,3.3E1,2.3E1,1E0,3.8E1,2.5E1,3.9E1,1E0,1.8E1,3.9E1,-1.5E-1,1E0,2.4E1,-2.3450691E-2,-1.3273339E-1,1.6515784E-2,-1.4662063E-1,-8.376423E-2,-3.318974E-2,-8.314096E-2,3.2678246E-2,2.2827629E-2,-9.04093E-2,-9.052638E-2,4.4971597E-3,4.3966413E-2,2.8935684E-2,-2.686512E-1,3.4651856E-3],"split_indices":[3,6,3,0,1,4,0,0,0,4,0,1,6,4,1,0,0,0,0,0,0,0,0,0,0,0,0,0,0,0,0],"split_type":[0,0,0,0,0,0,0,0,0,0,0,0,0,0,0,0,0,0,0,0,0,0,0,0,0,0,0,0,0,0,0],"sum_hessian":[3.4244963E3,4.305662E2,2.9939302E3,2.8337137E2,1.4719482E2,1.2118643E3,1.7820658E3,1.71065E2,1.12306366E2,1.2696736E2,2.0227467E1,9.3635065E2,2.755136E2,1.7654253E3,1.6640568E1,1.4579828E2,2.526673E1,1.0984464E2,2.4617221E0,9.665947E1,3.0307884E1,4.6695566E0,1.555791E1,9.328684E2,3.4822366E0,8.451239E0,2.6706238E2,9.72165E2,7.9326025E2,2.1849616E0,1.4455606E1],"tree_param":{"num_deleted":"0","num_feature":"7","num_nodes":"31","size_leaf_vector":"1"}},{"base_weights":[3.9598846E-1,5.3940666E-1,-1.4299976E0,-4.1864422E-1,6.592703E-1,-1.3110316E0,-1.968117E0,-6.4155406E-1,3.4962863E-1,4.4699368E-1,7.6797134E-1,-7.216746E-2,-1.3585447E0,-1.1298378E-1,-8.022662E-2,-3.989202E-2,5.4939E-2,2.2786919E-2,-9.2666015E-2,1.850107E-2,5.4447383E-2,4.5077432E-2,2.989611E-2,-3.4430567E-2,2.167808E-2,-6.2437683E-2,-1.1097627E-1],"categories":[],"categories_nodes":[],"categories_segments":[],"categories_sizes":[],"default_left":[0,0,0,0,0,0,0,0,0,0,0,0,0,0,0,0,0,0,0,0,0,0,0,0,0,0,0],"id":16,"left_children":[1,3,5,7,9,11,13,15,17,19,21,23,25,-1,-1,-1,-1,-1,-1,-1,-1,-1,-1,-1,-1,-1,-1],"loss_changes":[8.7810443E2,3.5705798E2,1.3055542E1,5.9495365E1,6.33844E1,1.1851959E1,8.5040283E-1,7.393743E1,1.9190144E1,4.593097E1,4.0917603E1,2.9654953E0,1.5705048E1,0E0,0E0,0E0,0E0,0E0,0E0,0E0,0E0,0E0,0E0,0E0,0E0,0E0,0E0],"parents":[2147483647,0,0,1,1,2,2,3,3,4,4,5,5,6,6,7,7,8,8,9,9,10,10,11,11,12,12],"right_children":[2,4,6,8,10,12,14,16,18,20,22,24,26,-1,-1,-1,-1,-1,-1,-1,-1,-1,-1,-1,-1,-1,-1],"split_conditions":[2E0,1.7617283E0,3E0,3.2E1,2.6367674E0,-6.56E0,4.08E0,1.0104489E0,8.14E0,1.0104489E0,1E0,2.3E1,3.3797426E0,-1.1298378E-1,-8.022662E-2,-3.989202E-2,5.4939E-2,2.2786919E-2,-9.2666015E-2,1.850107E-2,5.4447383E-2,4.5077432E-2,2.989611E-2,-3.4430567E-2,2.167808E-2,-6.2437683E-2,-1.1097627E-1],"split_indices":[5,3,5,1,3,6,6,5,6,5,4,1,3,0,0,0,0,0,0,0,0,0,0,0,0,0,0],"split_type":[0,0,0,0,0,0,0,0,0,0,0,0,0,0,0,0,0,0,0,0,0,0,0,0,0,0,0],"sum_hessian":[3.3491387E3,3.105897E3,2.432415E2,3.450972E2,2.7607998E3,2.0201657E2,4.122494E1,2.6761517E2,7.748202E1,9.3669305E2,1.8241068E3,7.55464E0,1.9446193E2,1.9984432E1,2.1240507E1,2.4605994E2,2.1555244E1,7.467811E1,2.8039079E0,8.3781305E2,9.888E1,1.01920087E3,8.0490594E2,3.241674E0,4.312966E0,1.7464218E2,1.9819736E1],"tree_param":{"num_deleted":"0","num_feature":"7","num_nodes":"27","size_leaf_vector":"1"}},{"base_weights":[3.8332844E-1,-5.7143575E-1,5.249434E-1,-1.0181072E0,-2.4949698E-1,2.816586E-1,7.1084684E-1,-1.3604834E0,-1.7976399E-1,-6.9143856E-1,1.7628059E-1,3.8587213E-1,-5.6521773E-2,8.6337405E-1,5.277326E-1,-7.199484E-2,-2.44485E-2,-9.054676E-2,1.5940895E-2,-1.3570509E-2,-1.4066735E-1,5.363391E-2,-5.00505E-3,1.1566378E-2,2.82141E-2,-1.4186637E-1,1.4465244E-3,4.189037E-2,5.0693274E-2,4.03366E-2,8.793197E-3],"categories":[],"categories_nodes":[],"categories_segments":[],"categories_sizes":[],"default_left":[0,0,0,0,0,0,0,0,0,0,0,0,0,0,0,0,0,0,0,0,0,0,0,0,0,0,0,0,0,0,0],"id":17,"left_children":[1,3,5,7,9,11,13,15,17,19,21,23,25,27,29,-1,-1,-1,-1,-1,-1,-1,-1,-1,-1,-1,-1,-1,-1,-1,-1],"loss_changes":[4.4365805E2,6.072072E1,1.2897125E2,5.064003E1,4.6739098E1,4.3679146E1,4.474292E1,7.9971313E0,4.332192E1,1.0776216E2,3.1565168E1,2.598236E1,6.963096E1,2.541504E0,7.23062E1,0E0,0E0,0E0,0E0,0E0,0E0,0E0,0E0,0E0,0E0,0E0,0E0,0E0,0E0,0E0,0E0],"parents":[2147483647,0,0,1,1,2,2,3,3,4,4,5,5,6,6,7,7,8,8,9,9,10,10,11,11,12,12,13,13,14,14],"right_children":[2,4,6,8,10,12,14,16,18,20,22,24,26,28,30,-1,-1,-1,-1,-1,-1,-1,-1,-1,-1,-1,-1,-1,-1,-1,-1],"split_conditions":[1.7461108E0,1.45E0,2.9111125E0,1E0,6.0193367E0,1E0,1E0,3.8E1,2E1,6E0,6.5E0,2.305035E0,-3.5363105E-1,2.4009688E0,1.8E0,-7.199484E-2,-2.44485E-2,-9.054676E-2,1.5940895E-2,-1.3570509E-2,-1.4066735E-1,5.363391E-2,-5.00505E-3,1.1566378E-2,2.82141E-2,-1.4186637E-1,1.4465244E-3,4.189037E-2,5.0693274E-2,4.03366E-2,8.793197E-3],"split_indices":[3,3,3,4,2,4,4,0,0,2,2,3,6,2,2,0,0,0,0,0,0,0,0,0,0,0,0,0,0,0,0],"split_type":[0,0,0,0,0,0,0,0,0,0,0,0,0,0,0,0,0,0,0,0,0,0,0,0,0,0,0,0,0,0,0],"sum_hessian":[3.27806E3,4.2302197E2,2.855038E3,1.7628052E2,2.4674146E2,1.2377529E3,1.6172852E3,1.24721794E2,5.1558727E1,1.207664E2,1.2597506E2,9.46071E2,2.9168195E2,8.8030756E2,7.369776E2,1.1370837E2,1.1013431E1,1.145386E1,4.0104866E1,1.01752556E2,1.9013847E1,2.9008776E1,9.696628E1,5.081721E2,4.3789893E2,7.735873E0,2.8394608E2,7.580852E2,1.2222237E2,4.103306E2,3.2664703E2],"tree_param":{"num_deleted":"0","num_feature":"7","num_nodes":"31","size_leaf_vector":"1"}},{"base_weights":[3.9078557E-1,5.2810985E-1,-1.2461567E0,-3.7949324E-1,6.2011296E-1,-1.1113983E0,-1.8834356E0,-7.9926497E-1,1.5321884E-1,3.9592555E-1,7.495578E-1,-4.8164803E-1,-1.247368E0,-7.616127E-2,-1.0627424E-1,-8.0099985E-2,-2.1804625E-2,3.57078E-2,-4.8442893E-3,1.5374704E-2,5.4412346E-2,4.4305865E-2,2.888155E-2,4.0286735E-2,-4.66747E-2,-8.233366E-2,-5.447611E-2],"categories":[],"categories_nodes":[],"categories_segments":[],"categories_sizes":[],"default_left":[0,0,0,0,0,0,0,0,0,0,0,0,0,0,0,0,0,0,0,0,0,0,0,0,0,0,0],"id":18,"left_children":[1,3,5,7,9,11,13,15,17,19,21,23,25,-1,-1,-1,-1,-1,-1,-1,-1,-1,-1,-1,-1,-1,-1],"loss_changes":[7.32749E2,2.5119202E2,1.9579315E1,6.2116882E1,7.8902954E1,1.7445312E1,4.7753906E-1,4.4551224E1,1.7328007E1,6.0956253E1,4.008307E1,2.3468973E1,9.090973E0,0E0,0E0,0E0,0E0,0E0,0E0,0E0,0E0,0E0,0E0,0E0,0E0,0E0,0E0],"parents":[2147483647,0,0,1,1,2,2,3,3,4,4,5,5,6,6,7,7,8,8,9,9,10,10,11,11,12,12],"right_children":[2,4,6,8,10,12,14,16,18,20,22,24,26,-1,-1,-1,-1,-1,-1,-1,-1,-1,-1,-1,-1,-1,-1],"split_conditions":[2E0,1.6799437E0,3E0,1E0,2.6367674E0,2.19706E0,1.62E0,2.3E1,8E0,1.0104489E0,1E0,3.503153E0,1.5E1,-7.616127E-2,-1.0627424E-1,-8.0099985E-2,-2.1804625E-2,3.57078E-2,-4.8442893E-3,1.5374704E-2,5.4412346E-2,4.4305865E-2,2.888155E-2,4.0286735E-2,-4.66747E-2,-8.233366E-2,-5.447611E-2],"split_indices":[5,3,5,4,3,2,3,0,0,5,4,3,0,0,0,0,0,0,0,0,0,0,0,0,0,0,0],"split_type":[0,0,0,0,0,0,0,0,0,0,0,0,0,0,0,0,0,0,0,0,0,0,0,0,0,0,0],"sum_hessian":[3.2557498E3,3.004387E3,2.513628E2,2.7623422E2,2.7281526E3,2.097527E2,4.1610092E1,1.5421443E2,1.220198E2,1.00010864E3,1.7280441E3,3.805257E1,1.7170013E2,1.9654259E1,2.1955832E1,4.697425E1,1.0724019E2,3.7055626E1,8.496417E1,8.8811255E2,1.1199608E2,9.60765E2,7.67279E2,9.682459E0,2.837011E1,4.5971954E1,1.2572817E2],"tree_param":{"num_deleted":"0","num_feature":"7","num_nodes":"27","size_leaf_vector":"1"}},{"base_weights":[3.7139204E-1,5.051516E-1,-1.2268454E0,-2.5459924E-1,6.0992914E-1,-1.6697515E0,-1.0034677E0,-4.644965E-1,4.7059488E-1,5.6166965E-1,5.3904135E-2,-4.0949535E-2,-1.8117433E0,-4.513821E-1,-1.3417834E0,-5.0371367E-2,4.159684E-3,2.7493438E-2,-7.346782E-2,2.3055756E-2,4.147727E-2,3.2196756E-2,-1.0066836E-1,-5.8640547E-2,-1.1091588E-1,-7.713192E-2,1.668898E-2,-1.3141547E-2,-8.532926E-2],"categories":[],"categories_nodes":[],"categories_segments":[],"categories_sizes":[],"default_left":[0,0,0,0,0,0,0,0,0,0,0,0,0,0,0,0,0,0,0,0,0,0,0,0,0,0,0,0,0],"id":19,"left_children":[1,3,5,7,9,11,13,15,17,19,-1,21,23,25,27,-1,-1,-1,-1,-1,-1,-1,-1,-1,-1,-1,-1,-1,-1],"loss_changes":[6.7703723E2,2.3263635E2,2.252893E1,5.4202324E1,5.738556E1,1.8546982E1,3.0238068E1,8.201994E1,1.3127003E1,6.2351868E1,0E0,1.1400032E1,1.6630875E1,5.556621E1,3.9653122E1,0E0,0E0,0E0,0E0,0E0,0E0,0E0,0E0,0E0,0E0,0E0,0E0,0E0,0E0],"parents":[2147483647,0,0,1,1,2,2,3,3,4,4,5,5,6,6,7,7,8,8,9,9,11,11,12,12,13,13,14,14],"right_children":[2,4,6,8,10,12,14,16,18,20,-1,22,24,26,28,-1,-1,-1,-1,-1,-1,-1,-1,-1,-1,-1,-1,-1,-1],"split_conditions":[2E0,1.7617283E0,2E1,3.1E1,1.0104489E0,1.7288165E0,2.2E1,1E0,9.5E0,4.787509E0,5.3904135E-2,6E0,1.66E0,1.7461108E0,2.19706E0,-5.0371367E-2,4.159684E-3,2.7493438E-2,-7.346782E-2,2.3055756E-2,4.147727E-2,3.2196756E-2,-1.0066836E-1,-5.8640547E-2,-1.1091588E-1,-7.713192E-2,1.668898E-2,-1.3141547E-2,-8.532926E-2],"split_indices":[5,3,1,1,5,2,1,4,2,3,0,1,3,3,2,0,0,0,0,0,0,0,0,0,0,0,0,0,0],"split_type":[0,0,0,0,0,0,0,0,0,0,0,0,0,0,0,0,0,0,0,0,0,0,0,0,0,0,0,0,0],"sum_hessian":[3.163089E3,2.9194397E3,2.4364958E2,3.536516E2,2.565788E3,7.951493E1,1.6413466E2,2.7454724E2,7.9104355E1,2.328006E3,2.3778203E2,6.4792466E0,7.303569E1,6.325128E1,1.0088337E2,1.3745114E2,1.3709612E2,7.668717E1,2.4171789E0,1.694609E3,6.33397E2,5.3092427E0,1.1700041E0,2.9912592E1,4.3123096E1,2.6062962E1,3.718832E1,2.5925507E1,7.495786E1],"tree_param":{"num_deleted":"0","num_feature":"7","num_nodes":"29","size_leaf_vector":"1"}},{"base_weights":[3.6293396E-1,4.9171868E-1,-1.11611E0,-1.721314E-1,6.129371E-1,-9.859593E-1,-8.8427365E-2,-2.8001637E0,-6.981092E-2,5.652061E-1,5.3662267E-2,-8.065955E-1,-7.5310014E-2,-1.7970876E-1,4.0020876E-2,-3.3560857E-2,9.865036E-3,1.6628196E-2,3.376147E-2,6.940215E-2,-4.305132E-2],"categories":[],"categories_nodes":[],"categories_segments":[],"categories_sizes":[],"default_left":[0,0,0,0,0,0,0,0,0,0,0,0,0,0,0,0,0,0,0,0,0],"id":20,"left_children":[1,3,5,7,9,11,-1,13,15,17,-1,19,-1,-1,-1,-1,-1,-1,-1,-1,-1],"loss_changes":[5.9370447E2,2.3067853E2,1.9462616E1,1.1898082E2,5.2631226E1,1.8423828E1,0E0,5.028691E1,6.882538E1,5.6024353E1,0E0,2.014772E1,0E0,0E0,0E0,0E0,0E0,0E0,0E0,0E0,0E0],"parents":[2147483647,0,0,1,1,2,2,3,3,4,4,5,5,7,7,8,8,9,9,11,11],"right_children":[2,4,6,8,10,12,-1,14,16,18,-1,20,-1,-1,-1,-1,-1,-1,-1,-1,-1],"split_conditions":[2E0,1.8499172E0,3E0,4.5012426E0,1.0104489E0,3.89E0,-8.8427365E-2,1.0104489E0,1.45E0,2.6367674E0,5.3662267E-2,1.65E0,-7.5310014E-2,-1.7970876E-1,4.0020876E-2,-3.3560857E-2,9.865036E-3,1.6628196E-2,3.376147E-2,6.940215E-2,-4.305132E-2],"split_indices":[5,3,5,2,5,6,0,5,3,3,0,3,0,0,0,0,0,0,0,0,0],"split_type":[0,0,0,0,0,0,0,0,0,0,0,0,0,0,0,0,0,0,0,0,0],"sum_hessian":[3.1130337E3,2.8642983E3,2.4873535E2,4.4219675E2,2.4221018E3,2.094622E2,3.9273136E1,1.5583314E1,4.2661343E2,2.1965605E3,2.2554114E2,1.5765709E2,5.180512E1,1.2769191E1,2.8141232E0,1.3073917E2,2.9587427E2,7.0656494E2,1.4899956E3,3.2225828E0,1.5443451E2],"tree_param":{"num_deleted":"0","num_feature":"7","num_nodes":"21","size_leaf_vector":"1"}},{"base_weights":[3.618221E-1,-6.363351E-1,4.7188172E-1,-8.6647564E-1,1.7349447E-1,3.1414086E-1,7.0157987E-1,-5.594889E-1,-1.4851581E0,6.225857E-1,-8.217749E-2,4.2671707E-1,1.0063777E-2,8.4283364E-1,5.5258954E-1,-5.528741E-2,2.6729602E-2,-8.8120036E-2,4.6863433E-2,-7.01419E-2,3.655046E-2,7.2983326E-3,2.8207347E-2,-2.4126133E-2,7.649979E-3,1.9917918E-2,4.3537613E-2,4.1692134E-2,1.2091662E-2],"categories":[],"categories_nodes":[],"categories_segments":[],"categories_sizes":[],"default_left":[0,0,0,0,0,0,0,0,0,0,0,0,0,0,0,0,0,0,0,0,0,0,0,0,0,0,0,0,0],"id":21,"left_children":[1,3,5,7,9,11,13,15,17,19,-1,21,23,25,27,-1,-1,-1,-1,-1,-1,-1,-1,-1,-1,-1,-1,-1,-1],"loss_changes":[3.3225522E2,5.615937E1,9.841211E1,4.3646637E1,5.597111E1,5.5303894E1,2.2841858E1,9.509354E1,5.340477E1,1.3041611E1,0E0,4.541234E1,3.0882444E1,6.684204E0,4.7160187E1,0E0,0E0,0E0,0E0,0E0,0E0,0E0,0E0,0E0,0E0,0E0,0E0,0E0,0E0],"parents":[2147483647,0,0,1,1,2,2,3,3,4,4,5,5,6,6,7,7,8,8,9,9,11,11,12,12,13,13,14,14],"right_children":[2,4,6,8,10,12,14,16,18,20,-1,22,24,26,28,-1,-1,-1,-1,-1,-1,-1,-1,-1,-1,-1,-1,-1,-1],"split_conditions":[1.62E0,3.7E1,3.4156773E0,2.5E1,7.6E0,1E0,1E0,2.2E1,3.8E1,4.476902E0,-8.217749E-2,2.1E1,-3.5363105E-1,1E0,-4.43E0,-5.528741E-2,2.6729602E-2,-8.8120036E-2,4.6863433E-2,-7.01419E-2,3.655046E-2,7.2983326E-3,2.8207347E-2,-2.4126133E-2,7.649979E-3,1.9917918E-2,4.3537613E-2,4.1692134E-2,1.2091662E-2],"split_indices":[3,0,3,0,6,4,4,0,1,6,0,1,6,0,6,0,0,0,0,0,0,0,0,0,0,0,0,0,0],"split_type":[0,0,0,0,0,0,0,0,0,0,0,0,0,0,0,0,0,0,0,0,0,0,0,0,0,0,0,0,0],"sum_hessian":[3.020706E3,2.9951855E2,2.7211875E3,2.3318202E2,6.6336525E1,1.6146943E3,1.1064932E3,1.5712286E2,7.605916E1,5.3717384E1,1.2619145E1,1.1781232E3,4.3657123E2,5.6560315E2,5.408901E2,1.0479135E2,5.2331516E1,6.8492744E1,7.5664124E0,2.1228366E0,5.1594547E1,3.8785355E2,7.902696E2,9.765524E1,3.38916E2,3.4329704E1,5.3127344E2,2.8303925E2,2.578508E2],"tree_param":{"num_deleted":"0","num_feature":"7","num_nodes":"29","size_leaf_vector":"1"}},{"base_weights":[3.645555E-1,4.9128267E-1,-1.0742596E0,-2.0260881E-1,5.93771E-1,-1.282044E0,-5.751666E-1,-2.7372696E0,-1.416422E-1,5.458387E-1,5.3358477E-2,-1.1668429E0,-8.844761E-2,-7.77314E-1,1.0255628E0,1.5482226E-3,-1.9683088E-1,-1.1854193E-2,5.462217E-2,2.2443838E-2,4.071134E-2,-7.836948E-2,-4.31053E-2,-6.051301E-2,1.3167794E-2,2.6596127E-2,7.07794E-2],"categories":[],"categories_nodes":[],"categories_segments":[],"categories_sizes":[],"default_left":[0,0,0,0,0,0,0,0,0,0,0,0,0,0,0,0,0,0,0,0,0,0,0,0,0,0,0],"id":22,"left_children":[1,3,5,7,9,11,13,15,17,19,-1,21,-1,23,25,-1,-1,-1,-1,-1,-1,-1,-1,-1,-1,-1,-1],"loss_changes":[5.481565E2,1.964679E2,2.4507385E1,5.463425E1,5.4009766E1,7.5311584E0,2.4538363E1,2.7707264E1,4.133614E1,5.6541016E1,0E0,1.5892441E1,0E0,2.992548E1,9.139042E-1,0E0,0E0,0E0,0E0,0E0,0E0,0E0,0E0,0E0,0E0,0E0,0E0],"parents":[2147483647,0,0,1,1,2,2,3,3,4,4,5,5,6,6,7,7,8,8,9,9,11,11,13,13,14,14],"right_children":[2,4,6,8,10,12,14,16,18,20,-1,22,-1,24,26,-1,-1,-1,-1,-1,-1,-1,-1,-1,-1,-1,-1],"split_conditions":[2E0,1.7617283E0,2.8E0,4.8312645E0,1.0104489E0,3.1E1,2.63E0,1E0,1.0104489E0,4.787509E0,5.3358477E-2,2E1,-8.844761E-2,3.7E1,2.7100039E0,1.5482226E-3,-1.9683088E-1,-1.1854193E-2,5.462217E-2,2.2443838E-2,4.071134E-2,-7.836948E-2,-4.31053E-2,-6.051301E-2,1.3167794E-2,2.6596127E-2,7.07794E-2],"split_indices":[5,3,3,2,5,1,2,1,5,3,0,1,0,1,2,0,0,0,0,0,0,0,0,0,0,0,0],"split_type":[0,0,0,0,0,0,0,0,0,0,0,0,0,0,0,0,0,0,0,0,0,0,0,0,0,0,0],"sum_hessian":[3.0023887E3,2.7599573E3,2.4243146E2,3.5506076E2,2.4048965E3,1.7006186E2,7.23696E1,7.3086567E0,3.477521E2,2.1857405E3,2.1915614E2,1.4027065E2,2.979122E1,6.471188E1,7.657712E0,2.5037932E0,4.8048635E0,3.235382E2,2.4213902E1,1.6076196E3,5.7812085E2,5.8817463E1,8.145318E1,4.5584545E1,1.9127338E1,4.423222E0,3.2344902E0],"tree_param":{"num_deleted":"0","num_feature":"7","num_nodes":"27","size_leaf_vector":"1"}},{"base_weights":[3.1680578E-1,-1.1879711E-1,5.6217545E-1,-8.101743E-1,2.2246461E-2,7.0866627E-1,3.4985554E-1,-7.610976E-2,-4.959324E-1,-1.2599252E-1,3.6115077E-1,4.2093524E-1,7.8538626E-1,3.852102E-1,-2.5102742E0,2.2712147E-2,-4.536236E-2,1.1040459E-2,-1.8935358E-2,2.3888158E-2,-1.2611471E-2,2.8122082E-2,-9.948751E-2,3.9444778E-2,-3.6748615E-3,6.0117724E-3,3.5964794E-2,-2.5295424E-1,-3.4602422E-2],"categories":[],"categories_nodes":[],"categories_segments":[],"categories_sizes":[],"default_left":[0,0,0,0,0,0,0,0,0,0,0,0,0,0,0,0,0,0,0,0,0,0,0,0,0,0,0,0,0],"id":23,"left_children":[1,3,5,7,9,11,13,-1,15,17,19,21,23,25,27,-1,-1,-1,-1,-1,-1,-1,-1,-1,-1,-1,-1,-1,-1],"loss_changes":[3.098535E2,1.01936745E2,5.742273E1,3.8874565E1,4.370552E1,2.3867798E1,7.7714066E1,0E0,4.9017494E1,5.313645E1,1.9054794E1,8.057301E1,2.663025E0,6.6357925E1,4.0063152E1,0E0,0E0,0E0,0E0,0E0,0E0,0E0,0E0,0E0,0E0,0E0,0E0,0E0,0E0],"parents":[2147483647,0,0,1,1,2,2,3,3,4,4,5,5,6,6,8,8,9,9,10,10,11,11,12,12,13,13,14,14],"right_children":[2,4,6,8,10,12,14,-1,16,18,20,22,24,26,28,-1,-1,-1,-1,-1,-1,-1,-1,-1,-1,-1,-1,-1,-1],"split_conditions":[2.305035E0,1.45E0,1E0,2E1,3.4E1,2.6367674E0,3.8E1,-7.610976E-2,2.5E1,1.2E1,3.8E1,2.6E0,3.9E1,4.787509E0,3.4156773E0,2.2712147E-2,-4.536236E-2,1.1040459E-2,-1.8935358E-2,2.3888158E-2,-1.2611471E-2,2.8122082E-2,-9.948751E-2,3.9444778E-2,-3.6748615E-3,6.0117724E-3,3.5964794E-2,-2.5295424E-1,-3.4602422E-2],"split_indices":[3,3,4,0,0,3,0,0,0,0,0,3,0,3,3,0,0,0,0,0,0,0,0,0,0,0,0,0,0],"split_type":[0,0,0,0,0,0,0,0,0,0,0,0,0,0,0,0,0,0,0,0,0,0,0,0,0,0,0,0,0],"sum_hessian":[2.897352E3,1.0441667E3,1.8531853E3,1.7611752E2,8.6804926E2,1.0952064E3,7.579788E2,5.2750183E1,1.2336735E2,6.043367E2,2.6371262E2,2.3191563E2,8.6329083E2,7.495784E2,8.400375E0,3.723852E1,8.612882E1,2.5479976E2,3.495369E2,2.2177173E2,4.1940887E1,2.1978125E2,1.2134393E1,8.59859E2,3.4318178E0,4.1878537E2,3.3079306E2,2.755397E0,5.644978E0],"tree_param":{"num_deleted":"0","num_feature":"7","num_nodes":"29","size_leaf_vector":"1"}},{"base_weights":[3.1906414E-1,-4.292283E-1,4.4315746E-1,-8.2778984E-1,-1.5768114E-1,3.4543532E-1,7.529673E-1,-7.388162E-2,-5.330619E-1,-1.4336176E-1,-8.503114E-2,3.5412544E-1,-1.3783427E0,6.9446486E-1,9.5728177E-1,2.0893892E-2,-5.0056726E-2,-1.8757047E-2,1.9594325E-2,9.669725E-3,2.287041E-2,1.3285639E-2,-1.5417683E-1,3.5907283E-2,-2.5494177E-2,4.9042743E-2,2.1280684E-2],"categories":[],"categories_nodes":[],"categories_segments":[],"categories_sizes":[],"default_left":[0,0,0,0,0,0,0,0,0,0,0,0,0,0,0,0,0,0,0,0,0,0,0,0,0,0,0],"id":24,"left_children":[1,3,5,7,9,11,13,-1,15,-1,17,19,21,23,25,-1,-1,-1,-1,-1,-1,-1,-1,-1,-1,-1,-1],"loss_changes":[2.6834348E2,4.4381836E1,7.474667E1,3.108773E1,4.815237E1,2.8728973E1,6.426056E0,0E0,5.2078987E1,0E0,3.341738E1,3.106453E1,2.790311E1,1.36228485E1,1.2044144E0,0E0,0E0,0E0,0E0,0E0,0E0,0E0,0E0,0E0,0E0,0E0,0E0],"parents":[2147483647,0,0,1,1,2,2,3,3,4,4,5,5,6,6,8,8,10,10,11,11,12,12,13,13,14,14],"right_children":[2,4,6,8,10,12,14,-1,16,-1,18,20,22,24,26,-1,-1,-1,-1,-1,-1,-1,-1,-1,-1,-1,-1],"split_conditions":[1.7461108E0,1.45E0,4.787509E0,2E1,4.8312645E0,3.9E1,3.2E1,-7.388162E-2,2.5E1,-1.4336176E-1,3.3E1,2.1E1,2E0,2.3E1,3.7E1,2.0893892E-2,-5.0056726E-2,-1.8757047E-2,1.9594325E-2,9.669725E-3,2.287041E-2,1.3285639E-2,-1.5417683E-1,3.5907283E-2,-2.5494177E-2,4.9042743E-2,2.1280684E-2],"split_indices":[3,3,3,0,2,1,0,0,0,0,0,1,0,0,0,0,0,0,0,0,0,0,0,0,0,0,0],"split_type":[0,0,0,0,0,0,0,0,0,0,0,0,0,0,0,0,0,0,0,0,0,0,0,0,0,0,0],"sum_hessian":[2.8867754E3,4.102822E2,2.4764932E3,1.6542798E2,2.4485422E2,1.8842625E3,5.9223065E2,5.036505E1,1.15062935E2,5.389279E0,2.3946495E2,1.8756016E3,8.660931E0,4.6382123E2,1.2840942E2,3.79898E1,7.7073135E1,1.4902574E2,9.04392E1,7.348632E2,1.1407383E3,4.839307E0,3.8216236E0,4.55273E2,8.548215E0,1.2214876E2,6.2606707E0],"tree_param":{"num_deleted":"0","num_feature":"7","num_nodes":"27","size_leaf_vector":"1"}},{"base_weights":[3.0563882E-1,4.2998666E-1,-1.0330013E0,6.0916907E-1,1.1962079E-1,-8.399788E-1,-7.183634E-2,7.35837E-1,4.3878782E-1,3.164735E-2,5.3872705E-2,-7.0795375E-1,-9.3402326E-2,4.038509E-2,2.4398096E-2,3.656E-2,9.893403E-3,-9.849736E-3,1.7100306E-2,-1.8792732E-2,-5.4683745E-2],"categories":[],"categories_nodes":[],"categories_segments":[],"categories_sizes":[],"default_left":[0,0,0,0,0,0,0,0,0,0,0,0,0,0,0,0,0,0,0,0,0],"id":25,"left_children":[1,3,5,7,9,11,-1,13,15,17,-1,19,-1,-1,-1,-1,-1,-1,-1,-1,-1],"loss_changes":[4.6993387E2,1.4348776E2,1.7497772E1,3.4992798E1,7.968804E1,2.104506E1,0E0,1.6299011E1,4.918683E1,6.1629284E1,0E0,1.8502495E1,0E0,0E0,0E0,0E0,0E0,0E0,0E0,0E0,0E0],"parents":[2147483647,0,0,1,1,2,2,3,3,4,4,5,5,7,7,8,8,9,9,11,11],"right_children":[2,4,6,8,10,12,-1,14,16,18,-1,20,-1,-1,-1,-1,-1,-1,-1,-1,-1],"split_conditions":[2E0,8E-1,3.27E0,1E0,1.0104489E0,3E0,-7.183634E-2,-5E-2,-3E0,2.3E1,5.3872705E-2,2.2E1,-9.3402326E-2,4.038509E-2,2.4398096E-2,3.656E-2,9.893403E-3,-9.849736E-3,1.7100306E-2,-1.8792732E-2,-5.4683745E-2],"split_indices":[5,6,6,4,5,5,0,6,6,1,0,1,0,0,0,0,0,0,0,0,0],"split_type":[0,0,0,0,0,0,0,0,0,0,0,0,0,0,0,0,0,0,0,0,0],"sum_hessian":[2.8194863E3,2.580463E3,2.390234E2,1.6353622E3,9.4510077E2,1.6379366E2,7.522975E1,9.361065E2,6.9925574E2,8.6654486E2,7.85559E1,1.4664948E2,1.7144182E1,7.2395605E2,2.121505E2,3.1495255E2,3.8430316E2,4.991702E2,3.6737463E2,7.986314E1,6.678635E1],"tree_param":{"num_deleted":"0","num_feature":"7","num_nodes":"21","size_leaf_vector":"1"}},{"base_weights":[3.066648E-1,4.3205282E-1,-1.07662E0,6.0822046E-1,9.9911936E-2,-9.6766317E-1,-7.994357E-2,7.366933E-1,4.297357E-1,3.21904E-2,5.3495534E-2,-7.32418E-1,-1.290562E0,4.1134916E-2,2.6302919E-2,2.3013897E-2,-2.0323983E-1,-8.724639E-3,1.6870381E-2,-6.4063035E-2,1.4759394E-3,-9.259993E-2,-4.622811E-2],"categories":[],"categories_nodes":[],"categories_segments":[],"categories_sizes":[],"default_left":[0,0,0,0,0,0,0,0,0,0,0,0,0,0,0,0,0,0,0,0,0,0,0],"id":26,"left_children":[1,3,5,7,9,11,-1,13,15,17,-1,19,21,-1,-1,-1,-1,-1,-1,-1,-1,-1,-1],"loss_changes":[4.8352466E2,1.4939731E2,1.1640442E1,3.7950684E1,5.8196552E1,1.3812668E1,0E0,1.7120789E1,9.808151E1,5.2394966E1,0E0,4.800762E1,1.4844543E1,0E0,0E0,0E0,0E0,0E0,0E0,0E0,0E0,0E0,0E0],"parents":[2147483647,0,0,1,1,2,2,3,3,4,4,5,5,7,7,8,8,9,9,11,11,12,12],"right_children":[2,4,6,8,10,12,-1,14,16,18,-1,20,22,-1,-1,-1,-1,-1,-1,-1,-1,-1,-1],"split_conditions":[2E0,1E0,3E0,1E0,1.0104489E0,2.2E1,-7.994357E-2,-1.5E-1,3.8E1,2.3E1,5.3495534E-2,2E1,2.2E1,4.1134916E-2,2.6302919E-2,2.3013897E-2,-2.0323983E-1,-8.724639E-3,1.6870381E-2,-6.4063035E-2,1.4759394E-3,-9.259993E-2,-4.622811E-2],"split_indices":[5,6,5,4,5,1,0,6,0,1,0,1,0,0,0,0,0,0,0,0,0,0,0],"split_type":[0,0,0,0,0,0,0,0,0,0,0,0,0,0,0,0,0,0,0,0,0,0,0],"sum_hessian":[2.7840498E3,2.553294E3,2.3075598E2,1.6678398E3,8.8545404E2,1.9328415E2,3.7471836E1,9.679702E2,6.9986957E2,8.286352E2,5.6818893E1,1.1370998E2,7.9574165E1,6.852627E2,2.827075E2,6.960373E2,3.8322766E0,4.9432358E2,3.3431158E2,6.5701744E1,4.8008236E1,2.9800575E1,4.9773594E1],"tree_param":{"num_deleted":"0","num_feature":"7","num_nodes":"23","size_leaf_vector":"1"}},{"base_weights":[2.9267222E-1,-4.0093273E-1,4.1221783E-1,-8.721086E-1,-2.0231393E-1,3.1843713E-1,6.9648826E-1,-1.4590263E0,1.4869272E-2,-4.5730215E-1,2.1097761E-1,4.5136896E-1,2.1803198E-2,7.0397186E-1,-5.280755E-2,4.3220386E-2,-8.794736E-2,3.5581578E-2,-9.728847E-2,-5.6945708E-2,8.98171E-3,2.5845705E-2,-6.91817E-2,1.4433338E-2,3.4376677E-2,-4.4518907E-2,3.940731E-3,3.957729E-2,2.84373E-2],"categories":[],"categories_nodes":[],"categories_segments":[],"categories_sizes":[],"default_left":[0,0,0,0,0,0,0,0,0,0,0,0,0,0,0,0,0,0,0,0,0,0,0,0,0,0,0,0,0],"id":27,"left_children":[1,3,5,7,9,11,13,15,17,19,21,23,25,27,-1,-1,-1,-1,-1,-1,-1,-1,-1,-1,-1,-1,-1,-1,-1],"loss_changes":[2.267649E2,3.7470276E1,6.1935455E1,6.1964592E1,3.0056038E1,6.9194565E1,8.31842E0,5.14256E1,6.746527E1,7.667076E1,5.396745E1,4.6367126E1,2.836882E1,6.367157E0,0E0,0E0,0E0,0E0,0E0,0E0,0E0,0E0,0E0,0E0,0E0,0E0,0E0,0E0,0E0],"parents":[2147483647,0,0,1,1,2,2,3,3,4,4,5,5,6,6,7,7,8,8,9,9,10,10,11,11,12,12,13,13],"right_children":[2,4,6,8,10,12,14,16,18,20,22,24,26,28,-1,-1,-1,-1,-1,-1,-1,-1,-1,-1,-1,-1,-1,-1,-1],"split_conditions":[1.7461108E0,1.6E1,4.5930514E0,3.4E1,1E0,1E0,3.9E1,1E0,1E0,2.3E1,2.2E1,2.6367674E0,3E0,1.57E0,-5.280755E-2,4.3220386E-2,-8.794736E-2,3.5581578E-2,-9.728847E-2,-5.6945708E-2,8.98171E-3,2.5845705E-2,-6.91817E-2,1.4433338E-2,3.4376677E-2,-4.4518907E-2,3.940731E-3,3.957729E-2,2.84373E-2],"split_indices":[3,1,3,0,4,4,1,0,1,1,1,3,0,2,0,0,0,0,0,0,0,0,0,0,0,0,0,0,0],"split_type":[0,0,0,0,0,0,0,0,0,0,0,0,0,0,0,0,0,0,0,0,0,0,0,0,0,0,0,0,0],"sum_hessian":[2.7318357E3,4.0127563E2,2.33056E3,1.179875E2,2.8328815E2,1.7540275E3,5.7653265E2,7.061575E1,4.737175E1,1.7513112E2,1.0815701E2,1.2108723E3,5.431551E2,5.746772E2,1.855471E0,7.8581233E0,6.275763E1,3.5421036E1,1.1950715E1,8.421792E1,9.09132E1,9.131373E1,1.6843288E1,7.182598E2,4.9261252E2,3.1090487E1,5.120646E2,3.458481E2,2.2882903E2],"tree_param":{"num_deleted":"0","num_feature":"7","num_nodes":"29","size_leaf_vector":"1"}},{"base_weights":[2.728924E-1,3.9316145E-1,-9.575122E-1,-1.3008338E-1,5.0383335E-1,-3.9631888E-1,-1.1229475E0,-2.5659564E0,-2.9821781E-2,4.5286858E-1,5.2678764E-2,-8.276873E-1,7.0189077E-1,-8.9621663E-1,-1.4829695E0,-6.358127E-2,-2.1779361E-1,-2.8880883E-2,1.0301704E-2,1.7750021E-2,3.6935486E-2,-5.7439666E-2,4.3576725E-2,4.2232163E-2,-1.3072863E-2,-6.5348245E-2,-1.8597106E-2,-6.1776936E-2,-8.4498696E-2],"categories":[],"categories_nodes":[],"categories_segments":[],"categories_sizes":[],"default_left":[0,0,0,0,0,0,0,0,0,0,0,0,0,0,0,0,0,0,0,0,0,0,0,0,0,0,0,0,0],"id":28,"left_children":[1,3,5,7,9,11,13,15,17,19,-1,21,23,25,27,-1,-1,-1,-1,-1,-1,-1,-1,-1,-1,-1,-1,-1,-1],"loss_changes":[3.973036E2,1.4160413E2,2.1756454E1,1.0433179E2,5.6052856E1,2.7105404E1,1.3702225E1,3.3588615E1,5.3300724E1,5.1441742E1,0E0,2.3185951E1,2.4667377E0,2.4389458E1,1.4783173E0,0E0,0E0,0E0,0E0,0E0,0E0,0E0,0E0,0E0,0E0,0E0,0E0,0E0,0E0],"parents":[2147483647,0,0,1,1,2,2,3,3,4,4,5,5,6,6,7,7,8,8,9,9,11,11,12,12,13,13,14,14],"right_children":[2,4,6,8,10,12,14,16,18,20,-1,22,24,26,28,-1,-1,-1,-1,-1,-1,-1,-1,-1,-1,-1,-1,-1,-1],"split_conditions":[2E0,1.8499172E0,-9.00366E-1,4.5012426E0,1.0104489E0,3.7E1,2.2E1,4.5E0,1.45E0,4.787509E0,5.2678764E-2,-9.898866E-1,2.19706E0,2E1,3.1E1,-6.358127E-2,-2.1779361E-1,-2.8880883E-2,1.0301704E-2,1.7750021E-2,3.6935486E-2,-5.7439666E-2,4.3576725E-2,4.2232163E-2,-1.3072863E-2,-6.5348245E-2,-1.8597106E-2,-6.1776936E-2,-8.4498696E-2],"split_indices":[5,3,6,2,5,1,1,2,3,3,0,6,2,1,1,0,0,0,0,0,0,0,0,0,0,0,0,0,0],"split_type":[0,0,0,0,0,0,0,0,0,0,0,0,0,0,0,0,0,0,0,0,0,0,0,0,0,0,0,0,0],"sum_hessian":[2.6813098E3,2.4431758E3,2.3813403E2,4.2650952E2,2.0166661E3,5.4990314E1,1.8314372E2,1.5889075E1,4.1062045E2,1.8472384E3,1.6942775E2,3.965892E1,1.5331393E1,1.14515015E2,6.862871E1,1.0213725E1,5.6753507E0,1.2314842E2,2.8747202E2,1.3777554E3,4.6948306E2,3.3628075E1,6.030848E0,1.3460053E1,1.8713396E0,6.337238E1,5.1142635E1,3.443612E1,3.4192585E1],"tree_param":{"num_deleted":"0","num_feature":"7","num_nodes":"29","size_leaf_vector":"1"}},{"base_weights":[2.508133E-1,3.7552696E-1,-1.0056194E0,5.969291E-2,5.542061E-1,-3.9447385E-1,-1.1998483E0,-1.7264228E-2,5.321E-2,5.0598043E-1,5.2364733E-2,-7.9094446E-1,5.6809723E-1,-9.2138536E-2,-1.051763E0,8.2868355E-4,-9.14701E-2,1.972861E-2,3.61999E-2,-5.5639982E-2,5.5897046E-2,4.0666636E-2,-8.449412E-2,2.8765578E-2,-5.5487063E-2],"categories":[],"categories_nodes":[],"categories_segments":[],"categories_sizes":[],"default_left":[0,0,0,0,0,0,0,0,0,0,0,0,0,0,0,0,0,0,0,0,0,0,0,0,0],"id":29,"left_children":[1,3,5,7,9,11,13,15,-1,17,-1,19,21,-1,23,-1,-1,-1,-1,-1,-1,-1,-1,-1,-1],"loss_changes":[4.100937E2,1.3424185E2,2.7585068E1,6.656497E1,3.560376E1,2.2773129E1,1.5092621E1,4.9120377E1,0E0,3.338098E1,0E0,2.6955359E1,1.1146135E1,0E0,1.4573761E1,0E0,0E0,0E0,0E0,0E0,0E0,0E0,0E0,0E0,0E0],"parents":[2147483647,0,0,1,1,2,2,3,3,4,4,5,5,6,6,7,7,9,9,11,11,12,12,14,14],"right_children":[2,4,6,8,10,12,14,16,-1,18,-1,20,22,-1,24,-1,-1,-1,-1,-1,-1,-1,-1,-1,-1],"split_conditions":[2E0,2.305035E0,-9.00366E-1,1.0104489E0,1.0104489E0,3.7E1,5.693809E-1,2.3E0,5.321E-2,4.787509E0,5.2364733E-2,-9.898866E-1,3.8E1,-9.2138536E-2,6.164197E-1,8.2868355E-4,-9.14701E-2,1.972861E-2,3.61999E-2,-5.5639982E-2,5.5897046E-2,4.0666636E-2,-8.449412E-2,2.8765578E-2,-5.5487063E-2],"split_indices":[5,3,6,5,5,1,6,3,0,3,0,6,1,0,6,0,0,0,0,0,0,0,0,0,0],"split_type":[0,0,0,0,0,0,0,0,0,0,0,0,0,0,0,0,0,0,0,0,0,0,0,0,0],"sum_hessian":[2.6137478E3,2.3783716E3,2.3537631E2,8.5984296E2,1.5185286E3,5.749573E1,1.7788058E2,7.9956934E2,6.0273663E1,1.3850886E3,1.3343994E2,4.0848896E1,1.6646833E1,3.1158745E1,1.4672183E2,7.858854E2,1.368392E1,9.185262E2,4.6656238E2,3.5312016E1,5.5368795E0,1.559309E1,1.0537437E0,4.741299E0,1.4198053E2],"tree_param":{"num_deleted":"0","num_feature":"7","num_nodes":"25","size_leaf_vector":"1"}},{"base_weights":[2.6460293E-1,-4.8806956E-1,3.5700244E-1,-6.948144E-1,2.3804079E-1,2.551946E-1,6.883544E-1,-4.0807554E-1,-1.256852E0,5.715337E-1,-6.9196925E-2,3.8126817E-1,-2.3763394E-2,7.785598E-1,5.652278E-1,-4.8886385E-2,2.7860427E-2,-6.95296E-2,4.019646E-2,3.644772E-2,-8.998906E-2,1.1069815E-2,3.2123398E-2,9.527911E-4,-1.3808207E-1,3.9683826E-2,-9.4690196E-2,3.0343903E-2,-3.4220375E-2],"categories":[],"categories_nodes":[],"categories_segments":[],"categories_sizes":[],"default_left":[0,0,0,0,0,0,0,0,0,0,0,0,0,0,0,0,0,0,0,0,0,0,0,0,0,0,0,0,0],"id":30,"left_children":[1,3,5,7,9,11,13,15,17,19,-1,21,23,25,27,-1,-1,-1,-1,-1,-1,-1,-1,-1,-1,-1,-1,-1,-1],"loss_changes":[1.8134856E2,4.2988464E1,7.811539E1,3.531156E1,3.539124E1,6.2502472E1,5.611786E0,8.229932E1,2.1682762E1,2.1381939E1,0E0,5.096553E1,6.500543E1,1.4100433E1,1.2597069E1,0E0,0E0,0E0,0E0,0E0,0E0,0E0,0E0,0E0,0E0,0E0,0E0,0E0,0E0],"parents":[2147483647,0,0,1,1,2,2,3,3,4,4,5,5,6,6,7,7,8,8,9,9,11,11,12,12,13,13,14,14],"right_children":[2,4,6,8,10,12,14,16,18,20,-1,22,24,26,28,-1,-1,-1,-1,-1,-1,-1,-1,-1,-1,-1,-1,-1,-1],"split_conditions":[1.62E0,3.7E1,4.5930514E0,2.5E1,7.6E0,1E0,-4.9598527E0,2.2E1,3.8E1,1.57E0,-6.9196925E-2,2.6367674E0,4.5E0,3.9E1,6.5E0,-4.8886385E-2,2.7860427E-2,-6.95296E-2,4.019646E-2,3.644772E-2,-8.998906E-2,1.1069815E-2,3.2123398E-2,9.527911E-4,-1.3808207E-1,3.9683826E-2,-9.4690196E-2,3.0343903E-2,-3.4220375E-2],"split_indices":[3,0,3,0,6,4,6,0,1,3,0,3,3,1,3,0,0,0,0,0,0,0,0,0,0,0,0,0,0],"split_type":[0,0,0,0,0,0,0,0,0,0,0,0,0,0,0,0,0,0,0,0,0,0,0,0,0,0,0,0,0],"sum_hessian":[2.6040796E3,2.8425977E2,2.3198198E3,2.21294E2,6.2965767E1,1.7759343E3,5.4388544E2,1.4767805E2,7.3615944E1,5.276455E1,1.0201215E1,1.2228893E3,5.5304504E2,3.1083615E2,2.330493E2,9.286304E1,5.4815025E1,6.943498E1,4.1809607E0,5.012929E1,2.635258E0,7.5973047E2,4.631588E2,5.455066E2,7.5384445E0,3.0978677E2,1.049357E0,2.2603009E2,7.0192122E0],"tree_param":{"num_deleted":"0","num_feature":"7","num_nodes":"29","size_leaf_vector":"1"}},{"base_weights":[2.4455775E-1,3.613505E-1,-1.0179219E0,5.647489E-1,1.310724E-1,-1.4558703E0,-7.91607E-1,5.834985E-1,-1.350789E0,5.904026E-2,5.297349E-2,-1.6769296E-1,-1.5136855E0,-2.8517273E-1,-1.0631757E0,3.6959063E-2,2.0270275E-2,1.5565005E-2,-1.8537436E-1,-7.671381E-3,1.661195E-2,-8.780262E-2,4.407112E-2,-9.759328E-2,-6.5723464E-2,1.7329557E-2,-6.428004E-2,-1.049526E-2,-7.056622E-2],"categories":[],"categories_nodes":[],"categories_segments":[],"categories_sizes":[],"default_left":[0,0,0,0,0,0,0,0,0,0,0,0,0,0,0,0,0,0,0,0,0,0,0,0,0,0,0,0,0],"id":31,"left_children":[1,3,5,7,9,11,13,15,17,19,-1,21,23,25,27,-1,-1,-1,-1,-1,-1,-1,-1,-1,-1,-1,-1,-1,-1],"loss_changes":[3.7664093E2,1.0936563E2,2.0290787E1,4.533722E1,7.330975E1,5.147049E0,1.9615585E1,3.377722E1,4.943185E1,5.921296E1,0E0,8.612436E0,3.4818878E0,3.3261356E1,2.7601013E1,0E0,0E0,0E0,0E0,0E0,0E0,0E0,0E0,0E0,0E0,0E0,0E0,0E0,0E0],"parents":[2147483647,0,0,1,1,2,2,3,3,4,4,5,5,6,6,7,7,8,8,9,9,11,11,12,12,13,13,14,14],"right_children":[2,4,6,8,10,12,14,16,18,20,-1,22,24,26,28,-1,-1,-1,-1,-1,-1,-1,-1,-1,-1,-1,-1,-1,-1],"split_conditions":[2E0,2E-1,2E1,3.8E1,1.0104489E0,-6.56E0,2.2E1,1E0,1E0,2.3E1,5.297349E-2,-7.1E0,0E0,3.27E0,-9.898866E-1,3.6959063E-2,2.0270275E-2,1.5565005E-2,-1.8537436E-1,-7.671381E-3,1.661195E-2,-8.780262E-2,4.407112E-2,-9.759328E-2,-6.5723464E-2,1.7329557E-2,-6.428004E-2,-1.049526E-2,-7.056622E-2],"split_indices":[5,6,1,0,5,6,1,4,4,1,0,6,6,6,6,0,0,0,0,0,0,0,0,0,0,0,0,0,0],"split_type":[0,0,0,0,0,0,0,0,0,0,0,0,0,0,0,0,0,0,0,0,0,0,0,0,0,0,0,0,0],"sum_hessian":[2.5508958E3,2.3355469E3,2.1534903E2,1.239382E3,1.0961649E3,7.151855E1,1.4383047E2,1.2280569E3,1.132504E1,1.0182267E3,7.793819E1,3.2395163E0,6.827904E1,5.092088E1,9.29096E1,6.535742E2,5.744826E2,7.150192E0,4.1748476E0,5.7302277E2,4.4520395E2,1.0205554E0,2.2189608E0,1.8590698E1,4.9688335E1,3.1611792E1,1.9309086E1,2.7387949E1,6.552165E1],"tree_param":{"num_deleted":"0","num_feature":"7","num_nodes":"29","size_leaf_vector":"1"}},{"base_weights":[2.2793998E-1,3.3844015E-1,-9.038914E-1,8.270151E-3,5.038559E-1,-1.2528889E0,-6.900917E-1,5.4593325E-2,-1.5312651E0,4.5209002E-1,5.2116394E-2,-9.08293E-1,-1.433849E0,3.384337E-1,-9.8616076E-1,-4.0513347E-4,5.2456465E-2,-1.705747E-1,-3.1071102E-2,2.9457701E-2,1.3824509E-2,-6.1840463E-2,4.1334037E-2,-8.3911784E-2,-4.055794E-2,-1.737984E-2,4.8417002E-2,-6.5804E-2,-2.4324348E-2],"categories":[],"categories_nodes":[],"categories_segments":[],"categories_sizes":[],"default_left":[0,0,0,0,0,0,0,0,0,0,0,0,0,0,0,0,0,0,0,0,0,0,0,0,0,0,0,0,0],"id":32,"left_children":[1,3,5,7,9,11,13,15,17,19,-1,21,23,25,27,-1,-1,-1,-1,-1,-1,-1,-1,-1,-1,-1,-1,-1,-1],"loss_changes":[3.1563428E2,1.25487366E2,1.5888702E1,5.48509E1,4.2198578E1,3.9400482E0,4.341005E1,4.6554356E1,3.631358E1,3.349185E1,0E0,1.907622E1,6.764061E0,1.4321749E1,1.7509293E1,0E0,0E0,0E0,0E0,0E0,0E0,0E0,0E0,0E0,0E0,0E0,0E0,0E0,0E0],"parents":[2147483647,0,0,1,1,2,2,3,3,4,4,5,5,6,6,7,7,8,8,9,9,11,11,12,12,13,13,14,14],"right_children":[2,4,6,8,10,12,14,16,18,20,-1,22,24,26,28,-1,-1,-1,-1,-1,-1,-1,-1,-1,-1,-1,-1,-1,-1],"split_conditions":[2E0,2.2153754E0,2.1E1,2.2E0,1.0104489E0,1.7617283E0,2.3E1,1.0104489E0,2.5E1,1E0,5.2116394E-2,1.7461108E0,3.2684393E0,3.1123433E0,2.3896253E0,-4.0513347E-4,5.2456465E-2,-1.705747E-1,-3.1071102E-2,2.9457701E-2,1.3824509E-2,-6.1840463E-2,4.1334037E-2,-8.3911784E-2,-4.055794E-2,-1.737984E-2,4.8417002E-2,-6.5804E-2,-2.4324348E-2],"split_indices":[5,3,0,3,5,3,0,5,0,4,0,3,3,2,3,0,0,0,0,0,0,0,0,0,0,0,0,0,0],"split_type":[0,0,0,0,0,0,0,0,0,0,0,0,0,0,0,0,0,0,0,0,0,0,0,0,0,0,0,0,0],"sum_hessian":[2.520264E3,2.2967356E3,2.2352826E2,7.6695087E2,1.5297848E3,8.306933E1,1.4045892E2,7.4548444E2,2.1466389E1,1.3972958E3,1.3248906E2,3.0675116E1,5.2394215E1,3.136294E1,1.09095985E2,7.0220874E2,4.3275707E1,6.103569E0,1.536282E1,7.834336E2,6.138622E2,2.6032927E1,4.642188E0,3.6409485E1,1.5984733E1,1.5227193E1,1.6135748E1,6.4725716E1,4.4370266E1],"tree_param":{"num_deleted":"0","num_feature":"7","num_nodes":"29","size_leaf_vector":"1"}},{"base_weights":[2.3243971E-1,3.414142E-1,-9.0786844E-1,4.165087E-1,-1.9716504E-1,-7.9257274E-1,-7.3812924E-2,3.618666E-1,5.2232128E-2,-8.2161576E-1,1.8310694E-1,-1.1964095E0,-5.825195E-1,3.2111235E-2,1.3626145E-2,-4.9839687E-2,5.060183E-2,-2.4942374E-2,1.6143186E-2,-3.1021107E-2,-7.602244E-2,6.4904005E-3,-5.131371E-2],"categories":[],"categories_nodes":[],"categories_segments":[],"categories_sizes":[],"default_left":[0,0,0,0,0,0,0,0,0,0,0,0,0,0,0,0,0,0,0,0,0,0,0],"id":33,"left_children":[1,3,5,7,9,11,-1,13,-1,15,17,19,21,-1,-1,-1,-1,-1,-1,-1,-1,-1,-1],"loss_changes":[3.095832E2,9.199011E1,1.3075058E1,6.8085236E1,6.6344246E1,1.4815834E1,0E0,4.5828415E1,0E0,3.4957146E1,1.6751194E1,1.0558525E1,3.8776253E1,0E0,0E0,0E0,0E0,0E0,0E0,0E0,0E0,0E0,0E0],"parents":[2147483647,0,0,1,1,2,2,3,3,4,4,5,5,7,7,9,9,10,10,11,11,12,12],"right_children":[2,4,6,8,10,12,-1,14,-1,16,18,20,22,-1,-1,-1,-1,-1,-1,-1,-1,-1,-1],"split_conditions":[2E0,5.5E0,3E0,1.0104489E0,2.1E1,2E1,-7.3812924E-2,1.83E0,5.2232128E-2,1.0104489E0,6.0193367E0,2E-2,2.2E1,3.2111235E-2,1.3626145E-2,-4.9839687E-2,5.060183E-2,-2.4942374E-2,1.6143186E-2,-3.1021107E-2,-7.602244E-2,6.4904005E-3,-5.131371E-2],"split_indices":[5,2,5,5,1,1,0,2,0,5,2,6,1,0,0,0,0,0,0,0,0,0,0],"split_type":[0,0,0,0,0,0,0,0,0,0,0,0,0,0,0,0,0,0,0,0,0,0,0],"sum_hessian":[2.4878296E3,2.2714565E3,2.1637306E2,1.9937002E3,2.7775635E2,1.8187488E2,3.4498188E1,1.8355956E3,1.5810454E2,1.0468721E2,1.7306915E2,6.0624966E1,1.2124991E2,4.4210233E2,1.3934933E3,9.597466E1,8.712547E0,2.8998623E1,1.4407053E2,2.287636E1,3.7748604E1,4.681256E1,7.443735E1],"tree_param":{"num_deleted":"0","num_feature":"7","num_nodes":"23","size_leaf_vector":"1"}},{"base_weights":[2.1880339E-1,3.2539532E-1,-9.248557E-1,1.9616479E-2,4.5942408E-1,-1.3351202E0,-6.308327E-1,-3.967585E-2,5.2075695E-2,6.0175496E-1,2.4569507E-1,-1.6511216E0,-1.045655E0,1.7693384E-1,-9.749858E-1,-2.3388974E-2,3.176203E-3,1.8687287E-2,3.6469847E-2,1.1439982E-3,3.6402423E-2,-5.9302248E-2,-9.158978E-2,-7.2395936E-2,-1.9216485E-3,-6.229769E-2,4.2217333E-2,-7.94033E-2,-2.9257482E-2],"categories":[],"categories_nodes":[],"categories_segments":[],"categories_sizes":[],"default_left":[0,0,0,0,0,0,0,0,0,0,0,0,0,0,0,0,0,0,0,0,0,0,0,0,0,0,0,0,0],"id":34,"left_children":[1,3,5,7,9,11,13,15,-1,17,19,21,23,25,27,-1,-1,-1,-1,-1,-1,-1,-1,-1,-1,-1,-1,-1,-1],"loss_changes":[3.0144653E2,9.263185E1,2.459468E1,4.1843258E1,4.765927E1,6.244156E0,3.4847916E1,2.8881006E1,0E0,2.7161926E1,6.768236E1,1.1828384E0,1.9475803E1,3.7245655E1,2.0012314E1,0E0,0E0,0E0,0E0,0E0,0E0,0E0,0E0,0E0,0E0,0E0,0E0,0E0,0E0],"parents":[2147483647,0,0,1,1,2,2,3,3,4,4,5,5,6,6,7,7,9,9,10,10,11,11,12,12,13,13,14,14],"right_children":[2,4,6,8,10,12,14,16,-1,18,20,22,24,26,28,-1,-1,-1,-1,-1,-1,-1,-1,-1,-1,-1,-1,-1,-1],"split_conditions":[2E0,2.1110785E0,2.1E1,1.0104489E0,1E0,2.4E1,2.2E1,1.45E0,5.2075695E-2,2.6367674E0,6.0549965E0,1.7461108E0,2.761003E0,1.823173E0,2.2E1,-2.3388974E-2,3.176203E-3,1.8687287E-2,3.6469847E-2,1.1439982E-3,3.6402423E-2,-5.9302248E-2,-9.158978E-2,-7.2395936E-2,-1.9216485E-3,-6.229769E-2,4.2217333E-2,-7.94033E-2,-2.9257482E-2],"split_indices":[5,3,1,5,4,0,1,3,0,3,3,3,3,3,0,0,0,0,0,0,0,0,0,0,0,0,0,0,0],"split_type":[0,0,0,0,0,0,0,0,0,0,0,0,0,0,0,0,0,0,0,0,0,0,0,0,0,0,0,0,0],"sum_hessian":[2.469334E3,2.259462E3,2.0987209E2,6.889069E2,1.5705549E3,8.61383E1,1.2373379E2,6.520358E2,3.6871117E1,9.416536E2,6.2890125E2,3.8932587E1,4.7205708E1,3.7112473E1,8.6621315E1,1.2596464E2,5.2607117E2,3.3936597E2,6.0228766E2,4.309011E2,1.9800015E2,1.3009397E1,2.5923191E1,3.3420654E1,1.3785053E1,1.1572882E1,2.553959E1,3.2475178E1,5.4146133E1],"tree_param":{"num_deleted":"0","num_feature":"7","num_nodes":"29","size_leaf_vector":"1"}},{"base_weights":[2.3196347E-1,3.2363158E-1,-6.9045895E-1,-7.4937075E-2,4.3542138E-1,-5.605116E-1,-7.0545115E-2,-1.5834658E-1,5.197813E-2,3.8741896E-1,5.1826984E-2,-3.9210695E-1,-6.099845E-2,-4.9132798E-2,-1.6051412E-3,3.0674389E-2,1.4864472E-2,8.6959414E-2,-2.2488063E-2],"categories":[],"categories_nodes":[],"categories_segments":[],"categories_sizes":[],"default_left":[0,0,0,0,0,0,0,0,0,0,0,0,0,0,0,0,0,0,0],"id":35,"left_children":[1,3,5,7,9,11,-1,13,-1,15,-1,17,-1,-1,-1,-1,-1,-1,-1],"loss_changes":[2.0654347E2,9.8952774E1,1.9888184E1,4.545052E1,4.963263E1,2.048777E1,0E0,4.722419E1,0E0,3.2568146E1,0E0,1.944244E1,0E0,0E0,0E0,0E0,0E0,0E0,0E0],"parents":[2147483647,0,0,1,1,2,2,3,3,4,4,5,5,7,7,9,9,11,11],"right_children":[2,4,6,8,10,12,-1,14,-1,16,-1,18,-1,-1,-1,-1,-1,-1,-1],"split_conditions":[2E0,1.9170768E0,3E0,1.0104489E0,1.0104489E0,3.89E0,-7.0545115E-2,4.5012426E0,5.197813E-2,1.9E0,5.1826984E-2,1.65E0,-6.099845E-2,-4.9132798E-2,-1.6051412E-3,3.0674389E-2,1.4864472E-2,8.6959414E-2,-2.2488063E-2],"split_indices":[5,3,5,5,5,6,0,2,0,2,0,3,0,0,0,0,0,0,0],"split_type":[0,0,0,0,0,0,0,0,0,0,0,0,0,0,0,0,0,0,0],"sum_hessian":[2.4390186E3,2.2191353E3,2.1988318E2,4.8615546E2,1.7329799E3,1.8778937E2,3.209382E1,4.5310303E2,3.3052452E1,1.6063491E3,1.2663082E2,1.5085927E2,3.6930103E1,5.9276028E1,3.93827E2,4.5622037E2,1.1501287E3,3.2052605E0,1.47654E2],"tree_param":{"num_deleted":"0","num_feature":"7","num_nodes":"19","size_leaf_vector":"1"}},{"base_weights":[2.2278461E-1,-2.1909378E-1,3.449567E-1,-1.3821291E0,-1.25933E-1,6.45759E-1,2.519519E-1,-4.1321573E-1,-2.3594363E0,-6.262639E-1,1.0399674E-1,6.561599E-1,-9.772141E-2,3.945127E-1,-4.0001977E-2,-1.6551815E-1,1.9855568E-2,-6.2101524E-2,-1.8460226E-1,-5.05505E-2,8.32314E-3,4.4859916E-2,5.4450484E-4,2.9008016E-2,4.5608625E-2,1.2421913E-2,2.963741E-2,3.19671E-2,-1.172795E-2],"categories":[],"categories_nodes":[],"categories_segments":[],"categories_sizes":[],"default_left":[0,0,0,0,0,0,0,0,0,0,0,0,0,0,0,0,0,0,0,0,0,0,0,0,0,0,0,0,0],"id":36,"left_children":[1,3,5,7,9,11,13,15,17,19,21,23,-1,25,27,-1,-1,-1,-1,-1,-1,-1,-1,-1,-1,-1,-1,-1,-1],"loss_changes":[1.2897513E2,5.5926857E1,5.217781E1,3.52911E1,5.5339962E1,1.3214569E1,5.9563004E1,4.9310295E1,2.3489868E1,4.6353043E1,2.4365448E1,8.03569E0,0E0,2.7691772E1,6.2311054E1,0E0,0E0,0E0,0E0,0E0,0E0,0E0,0E0,0E0,0E0,0E0,0E0,0E0,0E0],"parents":[2147483647,0,0,1,1,2,2,3,3,4,4,5,5,6,6,7,7,8,8,9,9,10,10,11,11,13,13,14,14],"right_children":[2,4,6,8,10,12,14,16,18,20,22,24,-1,26,28,-1,-1,-1,-1,-1,-1,-1,-1,-1,-1,-1,-1,-1,-1],"split_conditions":[1.8716654E0,4.5012426E0,1.8E0,1.6E1,1.45E0,3.9E1,1E0,7E0,4.488991E0,1E0,1.5E0,3.2E1,-9.772141E-2,2.6367674E0,3E0,-1.6551815E-1,1.9855568E-2,-6.2101524E-2,-1.8460226E-1,-5.05505E-2,8.32314E-3,4.4859916E-2,5.4450484E-4,2.9008016E-2,4.5608625E-2,1.2421913E-2,2.963741E-2,3.19671E-2,-1.172795E-2],"split_indices":[3,2,2,0,3,1,4,0,2,4,3,0,0,3,1,0,0,0,0,0,0,0,0,0,0,0,0,0,0],"split_type":[0,0,0,0,0,0,0,0,0,0,0,0,0,0,0,0,0,0,0,0,0,0,0,0,0,0,0,0,0],"sum_hessian":[2.3866824E3,5.167783E2,1.8699039E3,3.7298725E1,4.794796E2,4.4020865E2,1.4296953E3,1.944427E1,1.7854454E1,1.5042613E2,3.2905347E2,4.391995E2,1.0091734E0,9.603877E2,4.6930765E2,3.575529E0,1.586874E1,1.0762239E1,7.092215E0,1.01088135E2,4.9337997E1,3.3659817E1,2.9539365E2,3.4118262E2,9.801688E1,5.5423785E2,4.0614984E2,1.0397323E2,3.653344E2],"tree_param":{"num_deleted":"0","num_feature":"7","num_nodes":"29","size_leaf_vector":"1"}},{"base_weights":[1.9993755E-1,2.956871E-1,-7.807235E-1,2.412349E-1,5.204655E-2,-1.1462599E0,-3.7846968E-1,-1.9078048E-1,3.2682943E-1,-7.900205E-2,-1.0170976E0,-4.6415478E-1,5.1294148E-2,-1.05488956E-1,-7.245846E-3,2.9636208E-2,1.1626396E-2,5.443826E-2,-5.5069488E-2,-1.7988153E-2,-7.34392E-2],"categories":[],"categories_nodes":[],"categories_segments":[],"categories_sizes":[],"default_left":[0,0,0,0,0,0,0,0,0,0,0,0,0,0,0,0,0,0,0,0,0],"id":37,"left_children":[1,3,5,7,-1,9,11,13,15,-1,17,19,-1,-1,-1,-1,-1,-1,-1,-1,-1],"loss_changes":[2.2012727E2,8.635828E1,3.0236938E1,7.36583E1,0E0,4.4882355E0,1.2605687E1,2.8716217E1,4.152321E1,0E0,1.6577652E1,9.507313E0,0E0,0E0,0E0,0E0,0E0,0E0,0E0,0E0,0E0],"parents":[2147483647,0,0,1,1,2,2,3,3,5,5,6,6,7,7,8,8,10,10,11,11],"right_children":[2,4,6,8,-1,10,12,14,16,-1,18,20,-1,-1,-1,-1,-1,-1,-1,-1,-1],"split_conditions":[2E0,1.0104489E0,2.3640685E0,1.7617283E0,5.204655E-2,3.9501114E0,3.3502731E0,4.8312645E0,1.9E0,-7.900205E-2,4E0,3E0,5.1294148E-2,-1.05488956E-1,-7.245846E-3,2.9636208E-2,1.1626396E-2,5.443826E-2,-5.5069488E-2,-1.7988153E-2,-7.34392E-2],"split_indices":[5,5,3,3,0,2,2,2,2,0,2,5,0,0,0,0,0,0,0,0,0],"split_type":[0,0,0,0,0,0,0,0,0,0,0,0,0,0,0,0,0,0,0,0,0],"sum_hessian":[2.3408682E3,2.133278E3,2.0759006E2,1.9892543E3,1.4402377E2,1.0778972E2,9.980033E1,3.287497E2,1.6605045E3,2.215408E1,8.563564E1,9.469227E1,5.1080627E0,6.6232195E0,3.221265E2,4.3334616E2,1.2271583E3,2.8372147E0,8.279842E1,8.7009186E1,7.6830807E0],"tree_param":{"num_deleted":"0","num_feature":"7","num_nodes":"21","size_leaf_vector":"1"}},{"base_weights":[1.9015811E-1,2.8280035E-1,-4.0634018E-1,5.783051E-1,2.0044662E-1,-6.4623487E-1,2.6110744E-1,5.893217E-1,-9.937782E-1,3.286587E-1,-5.817894E-2,-1.2369395E0,-3.0192066E-2,-4.9021477E-1,4.894605E-1,3.5214998E-2,2.1385372E-2,-1.0932918E-1,2.9478548E-2,2.8695403E-2,1.020172E-2,2.5199518E-2,-1.0702579E-2,2.8259763E-2,-6.6845976E-2,-2.6224572E-2,1.2712649E-2,1.0478652E-2,-9.8644726E-2,-2.553074E-2,2.9504199E-2],"categories":[],"categories_nodes":[],"categories_segments":[],"categories_sizes":[],"default_left":[0,0,0,0,0,0,0,0,0,0,0,0,0,0,0,0,0,0,0,0,0,0,0,0,0,0,0,0,0,0,0],"id":38,"left_children":[1,3,5,7,9,11,13,15,17,19,21,23,25,27,29,-1,-1,-1,-1,-1,-1,-1,-1,-1,-1,-1,-1,-1,-1,-1,-1],"loss_changes":[1.2906915E2,4.9053284E1,5.0463665E1,8.202927E0,5.2463818E1,8.415143E1,1.4610624E1,7.8263702E0,7.772647E0,3.2206253E1,4.6116783E1,2.2030914E1,1.6200123E1,2.1189205E1,6.815943E0,0E0,0E0,0E0,0E0,0E0,0E0,0E0,0E0,0E0,0E0,0E0,0E0,0E0,0E0,0E0,0E0],"parents":[2147483647,0,0,1,1,2,2,3,3,4,4,5,5,6,6,7,7,8,8,9,9,10,10,11,11,12,12,13,13,14,14],"right_children":[2,4,6,8,10,12,14,16,18,20,22,24,26,28,30,-1,-1,-1,-1,-1,-1,-1,-1,-1,-1,-1,-1,-1,-1,-1,-1],"split_conditions":[5.5E0,1.83E0,2.3E1,3.9E1,1E0,1E0,1.7E1,1.57E0,1.7348857E0,0E0,3E0,1E0,6.5916214E0,9E0,3.89E0,3.5214998E-2,2.1385372E-2,-1.0932918E-1,2.9478548E-2,2.8695403E-2,1.020172E-2,2.5199518E-2,-1.0702579E-2,2.8259763E-2,-6.6845976E-2,-2.6224572E-2,1.2712649E-2,1.0478652E-2,-9.8644726E-2,-2.553074E-2,2.9504199E-2],"split_indices":[2,2,1,1,4,4,0,2,2,6,1,0,2,0,6,0,0,0,0,0,0,0,0,0,0,0,0,0,0,0,0],"split_type":[0,0,0,0,0,0,0,0,0,0,0,0,0,0,0,0,0,0,0,0,0,0,0,0,0,0,0,0,0,0,0],"sum_hessian":[2.3325513E3,2.019438E3,3.1311328E2,4.3882114E2,1.5806168E3,2.3035179E2,8.276149E1,4.363882E2,2.4329169E0,1.0565619E3,5.2405505E2,1.17079735E2,1.13272064E2,1.9023628E1,6.373786E1,2.5302158E2,1.8336664E2,1.1702961E0,1.2626207E0,3.547806E2,7.0178125E2,1.1327712E2,4.107779E2,5.90943E0,1.111703E2,4.1065628E1,7.220643E1,1.3507214E1,5.5164146E0,5.4542913E0,5.828357E1],"tree_param":{"num_deleted":"0","num_feature":"7","num_nodes":"31","size_leaf_vector":"1"}},{"base_weights":[1.8636182E-1,2.8091073E-1,-7.763582E-1,2.272391E-1,5.1796444E-2,-1.211096E0,-5.0991464E-1,4.172325E-1,3.960289E-2,-1.0754615E-1,-1.1280775E0,3.8848886E-1,-8.2805127E-1,2.1867717E-2,-7.231472E-2,4.9165348E-3,-3.7367642E-2,5.753398E-2,-6.2031973E-2,-5.150749E-2,4.1195776E-2,-7.0247403E-3,-5.987985E-2],"categories":[],"categories_nodes":[],"categories_segments":[],"categories_sizes":[],"default_left":[0,0,0,0,0,0,0,0,0,0,0,0,0,0,0,0,0,0,0,0,0,0,0],"id":39,"left_children":[1,3,5,7,-1,9,11,13,15,-1,17,19,21,-1,-1,-1,-1,-1,-1,-1,-1,-1,-1],"loss_changes":[2.090674E2,8.4457275E1,2.318055E1,6.959149E1,0E0,3.6080933E0,3.722293E1,3.7008194E1,4.5526093E1,0E0,2.0195335E1,2.2125156E1,2.4138649E1,0E0,0E0,0E0,0E0,0E0,0E0,0E0,0E0,0E0,0E0],"parents":[2147483647,0,0,1,1,2,2,3,3,5,5,6,6,7,7,8,8,10,10,11,11,12,12],"right_children":[2,4,6,8,-1,10,12,14,16,-1,18,20,22,-1,-1,-1,-1,-1,-1,-1,-1,-1,-1],"split_conditions":[2E0,1.0104489E0,2.1E1,2.5E-1,5.1796444E-2,1.7046822E0,2.3E1,3.8E1,9.5E0,-1.0754615E-1,1.7288165E0,2.1E1,2E-2,2.1867717E-2,-7.231472E-2,4.9165348E-3,-3.7367642E-2,5.753398E-2,-6.2031973E-2,-5.150749E-2,4.1195776E-2,-7.0247403E-3,-5.987985E-2],"split_indices":[5,5,0,6,0,2,0,0,2,0,2,1,6,0,0,0,0,0,0,0,0,0,0],"split_type":[0,0,0,0,0,0,0,0,0,0,0,0,0,0,0,0,0,0,0,0,0,0,0],"sum_hessian":[2.2934387E3,2.088987E3,2.0445163E2,1.9515585E3,1.3742859E2,7.634282E1,1.2810881E2,9.690803E2,9.824781E2,4.1745896E0,7.2168236E1,3.344382E1,9.4664986E1,9.594854E2,9.594937E0,9.15065E2,6.741311E1,2.9629147E0,6.9205315E1,7.533504E0,2.5910318E1,3.3575832E1,6.1089153E1],"tree_param":{"num_deleted":"0","num_feature":"7","num_nodes":"23","size_leaf_vector":"1"}},{"base_weights":[1.8869118E-1,2.8333294E-1,-8.3798224E-1,2.3217289E-1,5.1742345E-2,-1.2264769E0,-6.0838693E-1,6.964209E-2,4.4267195E-1,-1.4411907E0,-8.7883735E-1,-3.1801477E-1,-6.2417068E-2,1.1113382E-2,-1.6253663E-2,2.307458E-2,-4.6911348E-2,-2.2616679E-2,-8.216372E-2,9.947193E-3,-5.900678E-2,-5.7056874E-2,-7.029152E-3],"categories":[],"categories_nodes":[],"categories_segments":[],"categories_sizes":[],"default_left":[0,0,0,0,0,0,0,0,0,0,0,0,0,0,0,0,0,0,0,0,0,0,0],"id":40,"left_children":[1,3,5,7,-1,9,11,13,15,17,19,21,-1,-1,-1,-1,-1,-1,-1,-1,-1,-1,-1],"loss_changes":[2.2227292E2,8.022992E1,1.6479599E1,6.705586E1,0E0,4.0146103E0,2.2528069E1,6.68042E1,2.2631378E1,7.6847076E0,9.8394375E0,1.2429672E1,0E0,0E0,0E0,0E0,0E0,0E0,0E0,0E0,0E0,0E0,0E0],"parents":[2147483647,0,0,1,1,2,2,3,3,5,5,6,6,7,7,8,8,9,9,10,10,11,11],"right_children":[2,4,6,8,-1,10,12,14,16,18,20,22,-1,-1,-1,-1,-1,-1,-1,-1,-1,-1,-1],"split_conditions":[2E0,1.0104489E0,2.1E1,2.6E1,5.1742345E-2,4.4E0,4.236558E0,4.33E0,3.9E1,1E0,4.5012426E0,1.3E1,-6.2417068E-2,1.1113382E-2,-1.6253663E-2,2.307458E-2,-4.6911348E-2,-2.2616679E-2,-8.216372E-2,9.947193E-3,-5.900678E-2,-5.7056874E-2,-7.029152E-3],"split_indices":[5,5,0,1,0,2,2,2,1,0,2,1,0,0,0,0,0,0,0,0,0,0,0],"split_type":[0,0,0,0,0,0,0,0,0,0,0,0,0,0,0,0,0,0,0,0,0,0,0],"sum_hessian":[2.284111E3,2.0919895E3,1.9212166E2,1.9598777E3,1.3211165E2,6.975254E1,1.2236912E2,1.1067012E3,8.531766E2,4.1175514E1,2.8577026E1,8.520516E1,3.716396E1,7.984136E2,3.082876E2,8.423622E2,1.0814379E1,7.5363264E0,3.3639187E1,6.317666E0,2.225936E1,1.414655E1,7.105861E1],"tree_param":{"num_deleted":"0","num_feature":"7","num_nodes":"23","size_leaf_vector":"1"}},{"base_weights":[1.8782069E-1,2.7073777E-1,-6.6059816E-1,2.2005926E-1,5.1628053E-2,-5.4821444E-1,-6.635051E-2,-2.1162757E-1,3.0636874E-1,-4.213826E-1,-5.7383128E-2,-8.858594E-2,-8.506491E-3,2.1254143E-2,5.883754E-3,9.466886E-2,-2.4283865E-2],"categories":[],"categories_nodes":[],"categories_segments":[],"categories_sizes":[],"default_left":[0,0,0,0,0,0,0,0,0,0,0,0,0,0,0,0,0],"id":41,"left_children":[1,3,5,7,-1,9,-1,11,13,15,-1,-1,-1,-1,-1,-1,-1],"loss_changes":[1.5892384E2,7.916496E1,1.4340584E1,7.19506E1,0E0,1.2735065E1,0E0,2.0549274E1,3.597696E1,2.2511557E1,0E0,0E0,0E0,0E0,0E0,0E0,0E0],"parents":[2147483647,0,0,1,1,2,2,3,3,5,5,7,7,8,8,9,9],"right_children":[2,4,6,8,-1,10,-1,12,14,16,-1,-1,-1,-1,-1,-1,-1],"split_conditions":[2E0,1.0104489E0,3E0,1.7617283E0,5.1628053E-2,5.75E0,-6.635051E-2,3.0372458E0,1E0,1.65E0,-5.7383128E-2,-8.858594E-2,-8.506491E-3,2.1254143E-2,5.883754E-3,9.466886E-2,-2.4283865E-2],"split_indices":[5,5,5,3,0,2,0,6,4,3,0,0,0,0,0,0,0],"split_type":[0,0,0,0,0,0,0,0,0,0,0,0,0,0,0,0,0],"sum_hessian":[2.2555542E3,2.055362E3,2.0019232E2,1.9283705E3,1.26991486E2,1.7286331E2,2.7329012E1,3.2106662E2,1.6073038E3,1.4408138E2,2.8781935E1,7.2386417E0,3.1382797E2,9.858294E2,6.214744E2,3.125016E0,1.4095636E2],"tree_param":{"num_deleted":"0","num_feature":"7","num_nodes":"17","size_leaf_vector":"1"}},{"base_weights":[1.4832424E-1,2.347803E-1,-7.3240894E-1,1.8518761E-1,5.1477868E-2,-9.036738E-1,-2.394135E-1,2.9348329E-2,4.0892565E-1,-6.2331223E-1,-1.3298453E0,9.50341E-1,-5.0304013E-1,2.1113486E-3,-1.2478316E-1,3.1287424E-2,1.08552165E-2,-4.9005378E-2,4.8101707E-3,3.2741696E-2,-6.9536686E-2,5.09336E-2,1.4844301E-2,-6.2255956E-2,-4.5427815E-3],"categories":[],"categories_nodes":[],"categories_segments":[],"categories_sizes":[],"default_left":[0,0,0,0,0,0,0,0,0,0,0,0,0,0,0,0,0,0,0,0,0,0,0,0,0],"id":42,"left_children":[1,3,5,7,-1,9,11,13,15,17,19,21,23,-1,-1,-1,-1,-1,-1,-1,-1,-1,-1,-1,-1],"loss_changes":[1.6657536E2,7.82757E1,1.6297844E1,6.5366104E1,0E0,1.6472176E1,1.6721699E1,3.608129E1,3.1878937E1,2.2999882E1,7.7476273E0,1.3247395E-1,1.305438E1,0E0,0E0,0E0,0E0,0E0,0E0,0E0,0E0,0E0,0E0,0E0,0E0],"parents":[2147483647,0,0,1,1,2,2,3,3,5,5,6,6,7,7,8,8,9,9,10,10,11,11,12,12],"right_children":[2,4,6,8,-1,10,12,14,16,18,20,22,24,-1,-1,-1,-1,-1,-1,-1,-1,-1,-1,-1,-1],"split_conditions":[2E0,1.0104489E0,3.2684393E0,2.9111125E0,5.1477868E-2,2.5E1,3.3797426E0,2.9E0,1E0,2.1E1,2.2232106E0,3.6E1,2.2E1,2.1113486E-3,-1.2478316E-1,3.1287424E-2,1.08552165E-2,-4.9005378E-2,4.8101707E-3,3.2741696E-2,-6.9536686E-2,5.09336E-2,1.4844301E-2,-6.2255956E-2,-4.5427815E-3],"split_indices":[5,5,3,3,0,0,3,3,4,0,2,0,0,0,0,0,0,0,0,0,0,0,0,0,0],"split_type":[0,0,0,0,0,0,0,0,0,0,0,0,0,0,0,0,0,0,0,0,0,0,0,0,0],"sum_hessian":[2.184357E3,1.9897672E3,1.945896E2,1.874062E3,1.15705185E2,1.4380069E2,5.07889E1,1.1053138E3,7.687482E2,8.822409E1,5.5576603E1,8.740027E0,4.204887E1,1.1006832E3,4.6306796E0,3.5979565E2,4.0895255E2,5.8735836E1,2.9488258E1,1.363935E0,5.421267E1,7.406624E0,1.3334037E0,1.4293926E1,2.7754946E1],"tree_param":{"num_deleted":"0","num_feature":"7","num_nodes":"25","size_leaf_vector":"1"}},{"base_weights":[1.6633354E-1,2.4051388E-1,-5.762008E-1,1.9233064E-1,5.138683E-2,-4.6335E-1,-6.3944384E-2,-1.3043898E-1,2.939666E-1,-3.3100542E-1,-5.6575652E-2,-4.4122934E-2,-7.869359E-4,1.06157465E-2,2.8231228E-2,9.336933E-2,-1.9633211E-2],"categories":[],"categories_nodes":[],"categories_segments":[],"categories_sizes":[],"default_left":[0,0,0,0,0,0,0,0,0,0,0,0,0,0,0,0,0],"id":43,"left_children":[1,3,5,7,-1,9,-1,11,13,15,-1,-1,-1,-1,-1,-1,-1],"loss_changes":[1.2026297E2,7.503736E1,1.5138412E1,6.1393677E1,0E0,1.48787E1,0E0,3.8680084E1,3.132164E1,2.0440853E1,0E0,0E0,0E0,0E0,0E0,0E0,0E0],"parents":[2147483647,0,0,1,1,2,2,3,3,5,5,7,7,8,8,9,9],"right_children":[2,4,6,8,-1,10,-1,12,14,16,-1,-1,-1,-1,-1,-1,-1],"split_conditions":[2E0,1.0104489E0,3E0,1.9170768E0,5.138683E-2,3.89E0,-6.3944384E-2,4.5012426E0,4.787509E0,1.65E0,-5.6575652E-2,-4.4122934E-2,-7.869359E-4,1.06157465E-2,2.8231228E-2,9.336933E-2,-1.9633211E-2],"split_indices":[5,5,5,3,0,6,0,2,3,3,0,0,0,0,0,0,0],"split_type":[0,0,0,0,0,0,0,0,0,0,0,0,0,0,0,0,0],"sum_hessian":[2.17985E3,1.982474E3,1.9737616E2,1.8693046E3,1.13169495E2,1.7149382E2,2.588234E1,4.4759012E2,1.4217145E3,1.4438963E2,2.710419E1,5.8347504E1,3.892426E2,1.0935872E3,3.281272E2,3.1402678E0,1.4124937E2],"tree_param":{"num_deleted":"0","num_feature":"7","num_nodes":"17","size_leaf_vector":"1"}},{"base_weights":[1.7337279E-1,2.46363E-1,-5.589992E-1,2.0016234E-1,5.131011E-2,-4.2535627E-1,-5.6263763E-2,7.712836E-2,4.7096238E-1,7.851161E-2,-4.7920528E-1,4.7118994E-3,-8.676296E-2,3.224522E-2,1.6407322E-2,-1.9224392E-2,-6.599498E-2],"categories":[],"categories_nodes":[],"categories_segments":[],"categories_sizes":[],"default_left":[0,0,0,0,0,0,0,0,0,0,0,0,0,0,0,0,0],"id":44,"left_children":[1,3,5,7,-1,9,-1,11,13,-1,15,-1,-1,-1,-1,-1,-1],"loss_changes":[1.1700327E2,7.14478E1,1.45392E1,6.2559807E1,0E0,1.8178154E1,0E0,4.025967E1,1.4363815E1,0E0,1.2126724E1,0E0,0E0,0E0,0E0,0E0,0E0],"parents":[2147483647,0,0,1,1,2,2,3,3,5,5,7,7,8,8,10,10],"right_children":[2,4,6,8,-1,10,-1,12,14,-1,16,-1,-1,-1,-1,-1,-1],"split_conditions":[2E0,1.0104489E0,3.89E0,3.4156773E0,5.131011E-2,1.65E0,-5.6263763E-2,3.4E0,1E0,7.851161E-2,3E0,4.7118994E-3,-8.676296E-2,3.224522E-2,1.6407322E-2,-1.9224392E-2,-6.599498E-2],"split_indices":[5,5,6,3,0,3,0,3,4,0,5,0,0,0,0,0,0],"split_type":[0,0,0,0,0,0,0,0,0,0,0,0,0,0,0,0,0],"sum_hessian":[2.185202E3,1.9877599E3,1.9744199E2,1.8777703E3,1.0998964E2,1.6115909E2,3.62829E1,1.2920372E3,5.8573303E2,3.494557E0,1.5766454E2,1.2808931E3,1.1144114E1,2.6250305E2,3.2323E2,1.430096E2,1.4654936E1],"tree_param":{"num_deleted":"0","num_feature":"7","num_nodes":"17","size_leaf_vector":"1"}},{"base_weights":[1.4045519E-1,-3.773942E-1,2.0945176E-1,-1.262756E0,-1.7995945E-1,3.3070293E-1,5.6531606E-3,-1.8201817E0,-5.1442623E-2,5.8433425E-2,-3.3654726E-1,1.8742302E-1,5.6740546E-1,-1.3457121E-1,5.455447E-1,-2.8789518E-2,-1.2221129E-1,-5.7492364E-2,2.5966207E-2,-6.3303374E-2,-3.4764697E-4,-5.6537776E-3,1.2681183E-2,2.9417634E-2,-2.7650854E-2,-5.6715035E-3,-1.6095383E-1,2.0062512E-2,4.37723E-2],"categories":[],"categories_nodes":[],"categories_segments":[],"categories_sizes":[],"default_left":[0,0,0,0,0,0,0,0,0,0,0,0,0,0,0,0,0,0,0,0,0,0,0,0,0,0,0,0,0],"id":45,"left_children":[1,3,5,7,9,11,13,15,17,-1,19,21,23,25,27,-1,-1,-1,-1,-1,-1,-1,-1,-1,-1,-1,-1,-1,-1],"loss_changes":[7.576573E1,4.336993E1,4.620479E1,3.0500908E1,4.3705933E1,3.9654022E1,5.2956455E1,2.2667198E1,1.019482E1,0E0,5.652749E1,1.4586395E1,1.0688919E1,3.584679E1,6.5139847E0,0E0,0E0,0E0,0E0,0E0,0E0,0E0,0E0,0E0,0E0,0E0,0E0,0E0,0E0],"parents":[2147483647,0,0,1,1,2,2,3,3,4,4,5,5,6,6,7,7,8,8,10,10,11,11,12,12,13,13,14,14],"right_children":[2,4,6,8,10,12,14,16,18,-1,20,22,24,26,28,-1,-1,-1,-1,-1,-1,-1,-1,-1,-1,-1,-1,-1,-1],"split_conditions":[1.62E0,6.5916214E0,1E0,3.6E1,7E0,2.8123212E0,6.0549965E0,8E0,1E0,5.8433425E-2,2.3E1,3.037273E0,3.7E1,6E0,3.1E1,-2.8789518E-2,-1.2221129E-1,-5.7492364E-2,2.5966207E-2,-6.3303374E-2,-3.4764697E-4,-5.6537776E-3,1.2681183E-2,2.9417634E-2,-2.7650854E-2,-5.6715035E-3,-1.6095383E-1,2.0062512E-2,4.37723E-2],"split_indices":[3,2,4,0,2,3,3,0,4,0,0,2,0,3,0,0,0,0,0,0,0,0,0,0,0,0,0,0,0],"split_type":[0,0,0,0,0,0,0,0,0,0,0,0,0,0,0,0,0,0,0,0,0,0,0,0,0,0,0,0,0],"sum_hessian":[2.1173054E3,2.4841003E2,1.8688955E3,4.431068E1,2.0409937E2,1.1713633E3,6.9753217E2,3.0001741E1,1.430894E1,2.0560102E1,1.8353926E2,7.307937E2,4.405696E2,5.543129E2,1.4321924E2,1.0662527E1,1.9339214E1,4.5459604E0,9.7629795E0,4.730072E1,1.3623854E2,1.3180324E2,5.989905E2,4.329501E2,7.6194873E0,5.515692E2,2.7436705E0,1.01180504E2,4.203874E1],"tree_param":{"num_deleted":"0","num_feature":"7","num_nodes":"29","size_leaf_vector":"1"}},{"base_weights":[1.5225995E-1,-2.8678116E-1,2.2386111E-1,-5.483933E-1,6.66251E-2,2.3391108E-1,-1.5878946E0,-9.097321E-1,1.2835588E-1,-1.8120591E-1,1.0955853E0,1.8588614E-1,6.290885E-1,-8.509607E-1,-2.5324252E0,-1.879702E-3,-5.352179E-2,-1.6255859E-1,1.4994058E-2,-3.9001476E-4,-7.702629E-2,1.4546554E-2,5.971564E-2,1.5710114E-2,-2.7022588E-3,2.3972219E-2,4.099525E-2,5.4088808E-3,-1.3414781E-1,-1.6888727E-1,-5.187093E-2],"categories":[],"categories_nodes":[],"categories_segments":[],"categories_sizes":[],"default_left":[0,0,0,0,0,0,0,0,0,0,0,0,0,0,0,0,0,0,0,0,0,0,0,0,0,0,0,0,0,0,0],"id":46,"left_children":[1,3,5,7,9,11,13,15,17,19,21,23,25,27,29,-1,-1,-1,-1,-1,-1,-1,-1,-1,-1,-1,-1,-1,-1,-1,-1],"loss_changes":[6.696275E1,2.7665493E1,3.3696968E1,4.2134697E1,3.2841682E1,3.4443382E1,4.9621906E0,1.5677002E1,3.6153206E1,2.4506765E1,1.6376934E0,5.0049973E1,5.229477E0,1.3029102E1,1.5195866E0,0E0,0E0,0E0,0E0,0E0,0E0,0E0,0E0,0E0,0E0,0E0,0E0,0E0,0E0,0E0,0E0],"parents":[2147483647,0,0,1,1,2,2,3,3,4,4,5,5,6,6,7,7,8,8,9,9,10,10,11,11,12,12,13,13,14,14],"right_children":[2,4,6,8,10,12,14,16,18,20,22,24,26,28,30,-1,-1,-1,-1,-1,-1,-1,-1,-1,-1,-1,-1,-1,-1,-1,-1],"split_conditions":[1.6799437E0,1E0,3.9E1,2.3E1,1.3323771E1,6.662167E0,1E0,4.38E0,5.75E0,7.17E0,1.1895791E0,1E0,1.410901E0,2.9E0,4.5930514E0,-1.879702E-3,-5.352179E-2,-1.6255859E-1,1.4994058E-2,-3.9001476E-4,-7.702629E-2,1.4546554E-2,5.971564E-2,1.5710114E-2,-2.7022588E-3,2.3972219E-2,4.099525E-2,5.4088808E-3,-1.3414781E-1,-1.6888727E-1,-5.187093E-2],"split_indices":[3,4,1,1,2,3,4,6,2,6,3,4,2,2,3,0,0,0,0,0,0,0,0,0,0,0,0,0,0,0,0],"split_type":[0,0,0,0,0,0,0,0,0,0,0,0,0,0,0,0,0,0,0,0,0,0,0,0,0,0,0,0,0,0,0],"sum_hessian":[2.1270972E3,2.978356E2,1.8292615E3,1.7082738E2,1.2700823E2,1.8200365E3,9.225007E0,1.1114116E2,5.9686214E1,1.03019325E2,2.3988905E1,1.6241304E3,1.9590617E2,6.249786E0,2.9752212E0,1.748486E1,9.36563E1,2.0157537E0,5.767046E1,9.225614E1,1.07631855E1,3.0529969E0,2.0935907E1,1.057999E3,5.661313E2,1.11767365E2,8.413881E1,4.7197294E0,1.530056E0,1.0961019E0,1.8791193E0],"tree_param":{"num_deleted":"0","num_feature":"7","num_nodes":"31","size_leaf_vector":"1"}},{"base_weights":[1.2131706E-1,1.1748746E-2,4.016134E-1,-1.6259976E-1,2.6706502E-1,5.9847915E-1,2.938416E-1,-2.4384156E-1,-1.5076014E-1,2.8728297E-1,-1.1122816E0,4.0030852E-1,7.99025E-1,5.0987173E-2,2.3255597E-1,-3.8524408E-2,-5.241793E-3,1.2407242E-2,3.5860475E-2,-7.484898E-2,2.1746267E-2,2.1895621E-2,-7.132133E-2,-1.4733513E-2,4.251008E-2,-1.22700386E-1,1.4400466E-2],"categories":[],"categories_nodes":[],"categories_segments":[],"categories_sizes":[],"default_left":[0,0,0,0,0,0,0,0,0,0,0,0,0,0,0,0,0,0,0,0,0,0,0,0,0,0,0],"id":47,"left_children":[1,3,5,7,9,11,13,-1,15,17,19,21,23,-1,25,-1,-1,-1,-1,-1,-1,-1,-1,-1,-1,-1,-1],"loss_changes":[6.429223E1,6.709135E1,1.2306946E1,4.9255264E1,1.7374744E1,7.913826E0,1.6764778E1,0E0,2.5375465E1,9.977337E0,6.0317135E0,7.920431E0,5.9578094E0,0E0,5.340303E1,0E0,0E0,0E0,0E0,0E0,0E0,0E0,0E0,0E0,0E0,0E0,0E0],"parents":[2147483647,0,0,1,1,2,2,3,3,4,4,5,5,6,6,8,8,9,9,10,10,11,11,12,12,14,14],"right_children":[2,4,6,8,10,12,14,-1,16,18,20,22,24,-1,26,-1,-1,-1,-1,-1,-1,-1,-1,-1,-1,-1,-1],"split_conditions":[3.503153E0,2.5E1,1.57E0,2.1050436E0,3.9E1,1.410901E0,3.6E0,-2.4384156E-1,2.4009688E0,3.8E1,4.8312645E0,-6.56E0,1E0,5.0987173E-2,3.6054544E0,-3.8524408E-2,-5.241793E-3,1.2407242E-2,3.5860475E-2,-7.484898E-2,2.1746267E-2,2.1895621E-2,-7.132133E-2,-1.4733513E-2,4.251008E-2,-1.22700386E-1,1.4400466E-2],"split_indices":[3,1,2,2,1,2,3,0,2,0,2,6,0,0,3,0,0,0,0,0,0,0,0,0,0,0,0],"split_type":[0,0,0,0,0,0,0,0,0,0,0,0,0,0,0,0,0,0,0,0,0,0,0,0,0,0,0],"sum_hessian":[2.092572E3,1.5052207E3,5.873514E2,8.9465106E2,6.1056964E2,2.0617688E2,3.811745E2,1.21186E0,8.934392E2,6.025297E2,8.039942E0,1.0520952E2,1.00967354E2,2.8458351E1,3.5271616E2,6.055111E1,8.3288806E2,5.53701E2,4.882872E1,6.4649563E0,1.5749855E0,1.03832375E2,1.3771448E0,4.3006325E0,9.6666725E1,6.258435E0,3.464577E2],"tree_param":{"num_deleted":"0","num_feature":"7","num_nodes":"27","size_leaf_vector":"1"}},{"base_weights":[1.20674826E-1,1.940194E-1,-6.08287E-1,1.4929469E-1,5.1085927E-2,-9.475123E-2,-8.125763E-1,1.9095797E-2,3.421499E-1,-4.9178544E-1,4.8628286E-1,-6.7330025E-2,-5.4564697E-1,1.9136634E-2,-4.610265E-3,1.8112816E-2,-4.3689158E-2,3.556621E-3,-5.2076835E-2,1.2961842E-2,6.78131E-2,8.142911E-3,-5.559643E-2],"categories":[],"categories_nodes":[],"categories_segments":[],"categories_sizes":[],"default_left":[0,0,0,0,0,0,0,0,0,0,0,0,0,0,0,0,0,0,0,0,0,0,0],"id":48,"left_children":[1,3,5,7,-1,9,11,13,15,17,19,-1,21,-1,-1,-1,-1,-1,-1,-1,-1,-1,-1],"loss_changes":[1.108824E2,6.955614E1,1.9817162E1,4.488197E1,0E0,1.2950186E1,1.8584732E1,4.32718E1,1.7929665E1,1.0357618E1,4.1657996E0,0E0,3.7110603E1,0E0,0E0,0E0,0E0,0E0,0E0,0E0,0E0,0E0,0E0],"parents":[2147483647,0,0,1,1,2,2,3,3,5,5,6,6,7,7,8,8,9,9,10,10,12,12],"right_children":[2,4,6,8,-1,10,12,14,16,18,20,-1,22,-1,-1,-1,-1,-1,-1,-1,-1,-1,-1],"split_conditions":[2E0,1.0104489E0,-9.00366E-1,2.7E1,5.1085927E-2,-1.4270381E0,2E1,3E0,3.9E1,1E0,-9.47491E-1,-6.7330025E-2,2.2E1,1.9136634E-2,-4.610265E-3,1.8112816E-2,-4.3689158E-2,3.556621E-3,-5.2076835E-2,1.2961842E-2,6.78131E-2,8.142911E-3,-5.559643E-2],"split_indices":[5,5,6,1,0,6,1,1,1,4,6,0,1,0,0,0,0,0,0,0,0,0,0],"split_type":[0,0,0,0,0,0,0,0,0,0,0,0,0,0,0,0,0,0,0,0,0,0,0],"sum_hessian":[2.0707024E3,1.8820715E3,1.8863098E2,1.7867072E3,9.536433E1,5.409999E1,1.3453099E2,1.0672755E3,7.194316E2,3.223005E1,2.1869946E1,4.348642E1,9.104457E1,2.4954314E2,8.177324E2,7.0841943E2,1.101219E1,1.6354483E1,1.5875566E1,1.8372972E1,3.4969733E0,4.0759987E1,5.0284584E1],"tree_param":{"num_deleted":"0","num_feature":"7","num_nodes":"23","size_leaf_vector":"1"}},{"base_weights":[1.16992675E-1,1.8495658E-1,-5.529179E-1,1.4130473E-1,5.0970938E-2,-4.5015672E-1,-6.262236E-2,3.0696404E-1,-5.089832E-3,-3.3223847E-1,-5.4994065E-2,1.6746445E-2,-9.8372295E-2,-1.01232445E-2,6.31034E-3,-2.15329E-2,4.093998E-2],"categories":[],"categories_nodes":[],"categories_segments":[],"categories_sizes":[],"default_left":[0,0,0,0,0,0,0,0,0,0,0,0,0,0,0,0,0],"id":49,"left_children":[1,3,5,7,-1,9,-1,11,13,15,-1,-1,-1,-1,-1,-1,-1],"loss_changes":[9.446334E1,6.8422806E1,1.3176567E1,4.341091E1,0E0,1.25229225E1,0E0,5.4069557E1,2.467595E1,1.66447E1,0E0,0E0,0E0,0E0,0E0,0E0,0E0],"parents":[2147483647,0,0,1,1,2,2,3,3,5,5,7,7,8,8,9,9],"right_children":[2,4,6,8,-1,10,-1,12,14,16,-1,-1,-1,-1,-1,-1,-1],"split_conditions":[2E0,1.0104489E0,3E0,2E-1,5.0970938E-2,3.89E0,-6.262236E-2,3.8E1,2.3E1,3.25E0,-5.4994065E-2,1.6746445E-2,-9.8372295E-2,-1.01232445E-2,6.31034E-3,-2.15329E-2,4.093998E-2],"split_indices":[5,5,5,6,0,6,0,0,0,6,0,0,0,0,0,0,0],"split_type":[0,0,0,0,0,0,0,0,0,0,0,0,0,0,0,0,0],"sum_hessian":[2.0715151E3,1.8813699E3,1.9014522E2,1.7889565E3,9.241341E1,1.6722351E2,2.2921705E1,8.3874286E2,9.502136E2,1.4281537E2,2.440815E1,8.2939777E2,9.345064E0,3.7937152E2,5.708421E2,1.3214238E2,1.0672989E1],"tree_param":{"num_deleted":"0","num_feature":"7","num_nodes":"17","size_leaf_vector":"1"}},{"base_weights":[1.22604616E-1,-1.1421993E-1,2.6944095E-1,-7.336604E-2,-1.4000956E0,4.2795423E-1,6.373771E-2,-1.2978384E-1,5.762004E-1,-3.502493E0,-6.1545026E-1,2.015198E-1,5.50221E-1,1.3923548E-1,-1.0794626E0,-7.6921366E-2,-4.18079E-3,4.9100235E-2,1.2319052E-2,-2.6605734E-1,-7.984655E-2,-7.381212E-2,3.495636E-2,1.5826084E-2,-7.369845E-2,1.8076586E-2,2.9433532E-2,8.022076E-3,-1.6085666E-1,-8.919649E-2,4.902774E-3],"categories":[],"categories_nodes":[],"categories_segments":[],"categories_sizes":[],"default_left":[0,0,0,0,0,0,0,0,0,0,0,0,0,0,0,0,0,0,0,0,0,0,0,0,0,0,0,0,0,0,0],"id":50,"left_children":[1,3,5,7,9,11,13,15,17,19,21,23,25,27,29,-1,-1,-1,-1,-1,-1,-1,-1,-1,-1,-1,-1,-1,-1,-1,-1],"loss_changes":[7.132677E1,4.115563E1,4.124829E1,2.8009052E1,3.764818E1,1.9677597E1,4.7801502E1,4.5535347E1,7.935547E0,1.3490059E1,2.22879E1,4.906122E1,3.1503296E0,3.7440735E1,2.8641281E1,0E0,0E0,0E0,0E0,0E0,0E0,0E0,0E0,0E0,0E0,0E0,0E0,0E0,0E0,0E0,0E0],"parents":[2147483647,0,0,1,1,2,2,3,3,4,4,5,5,6,6,7,7,8,8,9,9,10,10,11,11,12,12,13,13,14,14],"right_children":[2,4,6,8,10,12,14,16,18,20,22,24,26,28,30,-1,-1,-1,-1,-1,-1,-1,-1,-1,-1,-1,-1,-1,-1,-1,-1],"split_conditions":[2.2153754E0,2.2E0,1E0,2.1110785E0,1.6E1,2.6367674E0,3.7E1,1.5107104E0,2.15E0,2.9E1,3.6E1,2.6E0,1E1,3.9E1,6.0549965E0,-7.6921366E-2,-4.18079E-3,4.9100235E-2,1.2319052E-2,-2.6605734E-1,-7.984655E-2,-7.381212E-2,3.495636E-2,1.5826084E-2,-7.369845E-2,1.8076586E-2,2.9433532E-2,8.022076E-3,-1.6085666E-1,-8.919649E-2,4.902774E-3],"split_indices":[3,3,4,3,1,3,1,6,3,0,0,3,1,0,3,0,0,0,0,0,0,0,0,0,0,0,0,0,0,0,0],"split_type":[0,0,0,0,0,0,0,0,0,0,0,0,0,0,0,0,0,0,0,0,0,0,0,0,0,0,0,0,0,0,0],"sum_hessian":[2.0492407E3,7.843792E2,1.2648615E3,7.6125037E2,2.312883E1,7.1376184E2,5.510996E2,7.011523E2,6.009806E1,5.3445973E0,1.7784233E1,2.5119838E2,4.6256348E2,5.17783E2,3.3316555E1,2.1225132E1,6.799272E2,2.6058596E1,3.4039463E1,1.8175304E0,3.527067E0,1.0672709E1,7.111523E0,2.3582309E2,1.537529E1,8.006266E1,3.8250082E2,5.154784E2,2.304675E0,2.0523241E1,1.2793313E1],"tree_param":{"num_deleted":"0","num_feature":"7","num_nodes":"31","size_leaf_vector":"1"}},{"base_weights":[1.2766814E-1,1.9239576E-1,-5.150032E-1,1.5041158E-1,5.096029E-2,-4.1210207E-1,-6.102363E-2,8.283126E-2,5.053785E-1,-2.9357475E-1,-1.0952171E0,-4.9794293E-3,1.393507E-2,2.2762446E-2,4.67345E-2,4.9489852E-2,-1.959533E-2,-7.453898E-2,1.3985723E-2],"categories":[],"categories_nodes":[],"categories_segments":[],"categories_sizes":[],"default_left":[0,0,0,0,0,0,0,0,0,0,0,0,0,0,0,0,0,0,0],"id":51,"left_children":[1,3,5,7,-1,9,-1,11,13,15,17,-1,-1,-1,-1,-1,-1,-1,-1],"loss_changes":[8.552963E1,6.463848E1,1.3158161E1,4.2597633E1,0E0,1.3098154E1,0E0,5.342326E1,5.6883545E0,1.8383694E1,1.3545784E1,0E0,0E0,0E0,0E0,0E0,0E0,0E0,0E0],"parents":[2147483647,0,0,1,1,2,2,3,3,5,5,7,7,8,8,9,9,10,10],"right_children":[2,4,6,8,-1,10,-1,12,14,16,18,-1,-1,-1,-1,-1,-1,-1,-1],"split_conditions":[2E0,1.0104489E0,3E0,4.787509E0,5.096029E-2,3.503153E0,-6.102363E-2,2.3E1,1.7536052E0,2.19706E0,8.684161E0,-4.9794293E-3,1.393507E-2,2.2762446E-2,4.67345E-2,4.9489852E-2,-1.959533E-2,-7.453898E-2,1.3985723E-2],"split_indices":[5,5,5,3,0,3,0,1,2,2,3,0,0,0,0,0,0,0,0],"split_type":[0,0,0,0,0,0,0,0,0,0,0,0,0,0,0,0,0,0,0],"sum_hessian":[2.0526885E3,1.8655022E3,1.8718628E2,1.7764773E3,8.902496E1,1.6474098E2,2.244529E1,1.4933915E3,2.830858E2,1.4160147E2,2.313952E1,7.7349945E2,7.198921E2,2.5533179E2,2.7753986E1,9.432177E0,1.321693E2,1.7904274E1,5.235247E0],"tree_param":{"num_deleted":"0","num_feature":"7","num_nodes":"19","size_leaf_vector":"1"}},{"base_weights":[1.2723877E-1,1.8828501E-1,-4.8745084E-1,1.4686061E-1,5.0851364E-2,-3.701756E-1,-5.4456104E-2,5.588927E-1,1.0321343E-1,6.620207E-2,-4.224019E-1,3.0455867E-2,2.6431717E-3,-4.990061E-4,1.31022455E-2,-7.0348844E-2,-1.7103583E-2],"categories":[],"categories_nodes":[],"categories_segments":[],"categories_sizes":[],"default_left":[0,0,0,0,0,0,0,0,0,0,0,0,0,0,0,0,0],"id":52,"left_children":[1,3,5,7,-1,9,-1,11,13,-1,15,-1,-1,-1,-1,-1,-1],"loss_changes":[7.670836E1,6.3637505E1,1.2631836E1,3.1787712E1,0E0,1.4372702E1,0E0,4.272751E0,2.8811203E1,0E0,1.1556709E1,0E0,0E0,0E0,0E0,0E0,0E0],"parents":[2147483647,0,0,1,1,2,2,3,3,5,5,7,7,8,8,10,10],"right_children":[2,4,6,8,-1,10,-1,12,14,-1,16,-1,-1,-1,-1,-1,-1],"split_conditions":[2E0,1.0104489E0,5.75E0,1.57E0,5.0851364E-2,1.65E0,-5.4456104E-2,3.7E1,2.5E1,6.620207E-2,4E0,3.0455867E-2,2.6431717E-3,-4.990061E-4,1.31022455E-2,-7.0348844E-2,-1.7103583E-2],"split_indices":[5,5,2,2,0,3,0,1,1,0,1,0,0,0,0,0,0],"split_type":[0,0,0,0,0,0,0,0,0,0,0,0,0,0,0,0,0],"sum_hessian":[2.0407758E3,1.8570422E3,1.8373343E2,1.7697587E3,8.728356E1,1.5511443E2,2.8619005E1,1.6838538E2,1.6013733E3,3.9103694E0,1.5120406E2,1.529964E2,1.5388983E1,9.355659E2,6.6580743E2,1.0160169E1,1.4104388E2],"tree_param":{"num_deleted":"0","num_feature":"7","num_nodes":"17","size_leaf_vector":"1"}},{"base_weights":[1.2302265E-1,